alarm -0.021823434 0.06650793 -0.041067977 -0.031000907 -0.010567802 0.13420033 0.019192105 0.20800285 0.023496512 -0.12201381 -0.007945298 0.10241395 0.18664566 0.024267495 0.044825606 0.08955471 0.1281894 -0.020993438 -0.13210382 -0.030631484 0.00058114214 -0.040881447 0.07095857 -0.07924464 0.051875688 -0.15865779 0.061435167 -0.024774747 0.013162673 0.08236618 0.0575177 -0.09429083 0.019937413 0.0926588 -0.01580325 0.035980858 -0.015747037 -0.08713501 0.13711296 -0.040638663 0.10311515 -0.14550748 0.030254858 -0.048164416 0.009175345 0.047672097 -0.06778334 -0.06874764 -0.052301567 0.052459218 0.058894176 0.060763232 -0.0727014 -0.03585301 0.025743319 0.00038457027 0.15704651 0.0326668 0.12085681 0.05718426 0.06361392 -0.038053203 0.1111239 0.104200035 0.15367623 -0.10168725 0.12491451 0.041364677 0.066955306 -0.024948377 0.07993945 0.08494837 -0.23850994 -0.012819823 -0.054791704 -0.03621335 -0.06682098 -0.05753194 0.079106584 -0.04765403 -0.20897575 0.0587472 0.1445279 0.10933993 -0.046271905 -0.13324411 0.1433844 -0.12128345 0.12264053 0.027554573 0.07726725 -0.029725708 -0.1543653 0.006051393 0.05315308 0.053286694 0.035276666 -0.24767044 -0.0152130285 -0.078919455 -0.17667112 0.1316329 -0.061088767 -0.007394371 0.14637211 0.07078614 0.041888844 0.048581146 0.02967041 0.03590381 0.027517617 -0.017136076 0.062497463 -0.08437328 -0.06743886 -0.02499377 -0.14196746 0.11352125 0.0139198415 -0.022868033 0.18365559 -0.055689834 0.034837067 -0.08332805 -0.013351297 0.057369076 -0.08643642 -0.14247711 -0.008580325 0.06355699 0.042433128 0.053251937 -0.14008936 0.05198279 0.0075752744 -0.019638957 0.11009295 0.008410252 0.121249855 0.029164303 0.046169136 -0.047311503 0.14385654 0.03381373 -0.23008111 0.34107277 0.005184041 -0.030230824 0.12124727 0.07501665 -0.050313365 -0.18012728 -0.1736195 -0.12015898 0.010892602 -0.08584549 -0.072901346 0.06726866 -0.087787464 -0.055902146 -0.06964096 0.017703613 -0.12579364 -0.07358989 -0.032589372 0.0594156 0.011406869 0.04526352 -0.047590915 0.053073987 -0.0630833 0.03698781 -0.01959443 -0.17157711 -0.043468278 0.09216395 -0.10255094 -0.060402982 0.07744143 0.02509986 -0.116926804 0.13797651 0.027271006 0.013981707 -0.19013442 0.12638249 -0.17778742 0.006812113 0.006323722 -0.016176358 -0.15696724 0.08980635 -0.10338404 0.07740508 0.032028735 -0.00934042 -0.040232524 -0.016516175 -0.027158357 -0.11257362 0.0031479253 -0.16919799 0.041408528 0.23914307 -0.07962496 -0.104607396 0.092240445 -0.09098597 -0.021517985 0.03634751 -0.030091843 0.019910283 0.026049348 0.008938619 0.01422946 0.042728204 0.074814394 0.016515665 -0.035844408 -0.0808007 0.20707272 0.039903477 0.05509758 -0.031494353 0.0014687739 -0.050080944 0.1779269 -0.04007634 -0.06086368 0.06563454 0.11957518 0.05603372 0.06808595 -0.0039139045 0.13187239 -0.14325197 -0.07272536 0.01958488 -0.014629106 0.043835558 7.213731e-05 -0.089184746 -0.11829071 -0.07707743 -0.02473011 0.019166749 -0.13703203 0.24741039 0.01929591 -0.11784861 0.12842673 -0.022963647 0.0027169394 0.05227307 -0.0954437 -0.045082197 0.009590007 0.04024007 -0.0069274255 0.13815705 -0.12388778 0.08759285 0.036983665 0.052618098 0.03790144 -0.057684902 0.03879241 0.14257129 -0.21020119 0.07771675 0.1512322 0.16102648 0.013779644 -0.06923769 -0.18517591 -0.04069982 0.0033222297 0.0049441094 0.07710108 -0.073959574 0.09181426 -0.0023304773 -0.044678595 -0.1369724 -0.13066694 -0.01815238 -0.15541573 -0.05290801 0.1202063 -0.11918551 -0.15085237 0.06531396 -0.09891655 -0.03381823 0.05106238 -0.09067961 -0.05673588 0.010693085 -0.0119659 -0.024519535 0.14428122 0.09116569 0.012389486 0.030541815 -0.0480196 0.0612913 -0.051871106 0.14230601 -0.10465279 -0.1114715 0.049907725 -0.03700618 0.09291542 -0.026335167 0.096777156 0.01574437 -0.17529976 -0.05390612 0.060221713 0.01846595 0.079241365 -0.03344655 0.0003704825 0.042014882 0.09075049 0.072776504 -0.025230356 -0.09102288 5.2334144e-05 0.12075015 -0.023114687 -0.11356453 -0.074012995 0.11713581 0.059010163 -0.10421623 -0.044119462 0.047058508 -0.030943107 0.044957854 -0.04649793 0.14148688 -0.023431506 -0.024094034 0.054910913 -0.13149768 0.14288928 -0.021910435 0.073292695 -0.0006803976 -0.12960304 0.016447656 -0.043711513 0.012348158 0.11466183 -0.10769591 -0.08998588 0.07284506 -0.096355185 -0.041506287 0.038190793 0.07723691 -0.090628296 0.121166766 0.038972396 0.07288782 0.1317517 -0.12896132 -0.0777188 0.094149396 0.048138168 0.021866625 -0.12022892 -0.05491857 -0.05863057 -0.055901118 0.116643324 -0.058366485 -0.072616965 0.011964833 -0.03589139 0.11536902 -0.13633472 -0.029945407 0.05813838 -0.040587407 0.013432732 -0.018878171 0.103772186 -0.032674655 0.061214358 0.032824397 0.057102155 -0.008288307 -0.1597306 0.021339465 0.035349645 -0.060939457 -0.10297798 0.0662431 -0.05295603 0.062185362 0.011491753 0.07403527 -0.06186835 0.14900234 -0.04460268 0.05708435 0.011516404 -0.2119785 0.015111077 -0.20079252 -0.15210713 -0.0078022056 -0.19333251 -0.02630369 0.0054351888 -0.110172644 0.02737224 -0.03845489 -0.10565111 0.03292071 0.03095979 -0.13526459 -0.07798689 -0.023917908 -0.15501268 -0.054925673 -0.0054764305 -0.11711376 0.0345737 -0.056302905 -0.0733646 -0.18057409 -0.027495263 0.07303133 -0.02494012 0.0064619314 -0.02389915 -0.01344642 -0.12885629 0.04414441 -0.0028831835 0.08578812 0.045094296 0.110045455 -0.056117855 0.052365966 0.23720403 -0.063062385 -0.037822817 0.07116432 -0.06456245 -0.074934825 0.06119823 -0.011358797 -0.049920496 -0.14433943 -0.0019146001 -0.13853002 0.08802272 0.0004173994 -0.1255086 0.17322685 -0.019830544 -0.12705415 0.08866794 0.009770302 0.09502664 0.040498815 0.019127 0.12106399 0.03224949 -0.2784309 -0.10082132 0.0046436545 -0.06522862 0.15467915 -0.107441366 -0.056054916 0.03982202 -0.0561612 -0.013417748 0.05064169 0.09678352 -0.06459799 -0.06649594 -0.14145091 0.11547019 -0.085028194 0.0694513 0.0013299118 -0.015643917 0.1613682 0.17874932 -0.038416382 0.1263235 -0.1474482 0.038506698 -0.014095543 0.03443328 -0.04830913 -0.035651185 -0.20749609 0.0642788 -0.11758415 -0.026357489 -0.0234774 -0.0039051897 0.09594229 0.08316336 0.08187461 -0.016324662 0.0303822 0.13264158 -0.06369617 0.034574736 -0.011276451 -0.0635702 -0.008844239 0.03409427 -0.05905817 0.10059302 0.17639482 -0.043976985 0.012673 -0.033795524 0.21884748 0.08566036 -0.061640754 0.092454426 -0.059047185 -0.0006410167 0.05748522 0.0670289 -0.038246248 -0.03857036 0.06969111 0.08215558 0.117796786 0.12172656 -0.14440353 0.002843621 0.031188047 0.062041387 0.076421134 -0.03203728 0.023365866 -0.063376434 -0.07372843 0.024464434 0.1399486 0.093032554 -0.06306072 0.0965736 0.10664198 0.010529078 -0.027128657 0.09297648 -0.08059849 -0.1254079 -0.035154004 -0.09129825 -0.12057553 -0.0034958743 0.18430988 -0.1447872 -0.2344171 -0.11277149 0.1642745 -0.10658498 0.0283927 0.031673845 -0.04457489 -0.0838457 -0.009134491 0.012783961 0.17258249 0.088734716 -0.017198438 -0.0014362505 0.019351646 0.061775688 -0.11383633 0.05998499 0.034961566 -0.094760135 -0.07676317 0.085087284 -0.06754029 0.08385826 0.07770689 -0.16396989 0.09500875 -0.0025135316 0.096633054 0.053688757 -0.07991688 -0.0055216844 -0.052521557 -0.06917523 0.18658845 0.13831215 0.011097845 0.051645797 -0.060550816 -0.24779743 -0.069606796 -0.07670406 -0.0074420036 -0.08440737 0.08659938 0.07372976 -0.026477735 0.07512948 -0.0704236 0.029335672 -0.009844025 -0.070254974 -0.025366299 -0.17360538 0.014036677 -0.03296338 0.028227877 0.10438462 -0.030956952 0.18202676 0.12094312 -0.024497088 0.046055697 0.08466155 0.11434627 -0.059200447 0.05043174 0.052869156 -0.14146236 0.08035191 -0.12308285 0.03628886 -0.024432655 0.08895922 0.021011058 -0.080926 0.013943237 -0.08726905 0.11497058 0.03630447 0.02326269 -0.0030627272 -0.06683476 0.01434927 -0.098680995 -0.12856455 -0.08560991 -0.090373695 -0.17694683 0.026416056 -0.032956026 -0.0503561 0.03813936 -0.19803992 0.064199984 0.083759286 -0.042906124 -0.07201518 0.11427834 -0.10010192 -0.036754303 0.21772252 -0.03503169 -0.026136877 -0.114836045 0.058314502 0.062712766 -0.09332118 0.08727977 0.08353388 0.0077466294 0.09932096 -0.07440822 0.14622407 -0.062031224 0.005833393 0.23576224 0.019306917 -0.026306707 0.076184236 0.054139853 -0.11447269 0.059585445 -0.12238858 0.08334842 -0.10715022 0.13002095 0.050886285 -0.10766303 0.18083528 0.19121718 -0.015193712 0.19453053 -0.1537027 0.015349527 -0.012523695 0.022086427 0.092347436 0.005723832 0.17445496 -0.07619736 -0.07816623 -0.033312455 -0.06267118 -0.16719617 -0.02828364 -0.06888285 0.121929415 -0.04853677 0.070477694 -0.038736764 -0.11864244 -0.029900253 0.012089059 -0.0044982512 0.21819426 0.029693209 -0.0054613147 0.051706567 -0.21645837 0.039215997 0.06603966 -0.056290817 -0.16977762 0.11428069 0.061932832 -0.046771403 0.11036577 0.1370467 -0.05257354 0.040726364 -0.13626553 0.18549953 -0.037717097 0.073665254 0.07931213 0.08492128 -0.037513055 0.032444246 0.107391365 0.05954816 -0.06482512 0.0374785 0.018918237 0.09793553 -0.05852796 -0.05638036 -0.016842531 0.04881751 0.058839183 -0.035397768 0.03753689 0.032342065 0.032684576 0.021564625 -0.01958656 -0.124410324 0.08345475 -0.07498749 0.046195235 0.04707366
album 0.022783985 0.04666185 -0.016847678 0.024329813 -0.058970682 0.13390005 0.017742993 0.1859483 0.04784945 -0.16572587 0.0368486 0.21138532 0.12675096 0.16619162 0.13848782 -0.03837376 0.07995037 -0.0013513806 -0.058830947 0.05600397 -0.015166816 0.024819486 0.048648153 -0.15194497 0.041755937 -0.08845926 0.08084488 -0.05208473 -0.054212403 0.13520284 -0.066114925 -0.1649601 0.14009604 0.15544033 0.07011803 0.18712758 -0.10030929 0.0149907535 0.106804416 0.04344465 0.025022972 -0.15311289 0.0069746035 -0.18061833 -0.099792175 -0.16412365 -0.013034832 0.015751472 -0.14603564 0.16272095 0.060230207 0.02481447 -0.056465644 -0.15378141 -0.066258535 0.06413644 0.08793423 0.15900713 0.14231652 0.03736562 0.09763778 0.10597141 -0.056578383 0.09687699 0.052155316 -0.05784936 -0.0037965837 0.0688331 0.10132039 -0.108877376 -0.07467839 0.017088726 -0.16507237 -0.14037406 -0.00796899 0.054667335 -0.06955364 -0.14033574 0.076926686 -0.049461998 -0.16488095 0.027330866 -0.040694244 0.23954822 -0.05408015 0.0043501495 0.16446866 -0.15004112 0.23906513 -0.09934378 0.21659139 -0.15482219 -0.10529791 0.041907206 0.025291491 0.12885426 0.10494914 -0.3021617 0.1408771 0.028019996 -0.18582599 0.21339871 -0.11949553 0.046381295 0.12765765 -0.13667782 -0.07976994 0.085877456 -0.0033410885 -0.06886229 0.11452385 -0.05425103 0.023903953 -0.04325593 0.101715066 -0.0370557 -0.05557689 0.07097361 0.13406818 -0.05782099 0.14560327 -0.06763619 -0.032016624 -0.161246 -0.09703949 -0.07100857 0.01174407 -0.039975554 0.0653186 -0.06412968 0.09888733 0.026136892 -0.10391626 0.0057355175 -0.095682204 -0.14986286 0.16388805 -0.09639909 0.033584155 -0.03181948 0.1474954 -0.3301802 0.11791877 0.29271197 -0.20630905 0.293843 0.03307267 -0.15111499 0.10257944 0.0552456 0.089451775 -0.2533143 -0.29083925 -0.28970113 -0.07833572 -0.15191855 -0.05783304 -0.023384651 -0.057038005 -0.13747695 -0.064271346 0.0847233 -0.027786445 0.061222304 -0.12776826 0.13507318 -0.06230735 0.16130793 0.115847565 0.012378285 -0.009540366 0.04753869 -0.0077575976 -0.16636485 -0.040344287 0.050707407 -0.1294873 -0.055816546 -0.010992682 0.083155945 -0.02931511 0.22188574 0.07339927 -0.026759157 -0.15412413 -0.052122813 -0.13532011 -0.15062018 0.035495255 -0.0031952017 -0.021895701 0.13411814 -0.15722705 0.05796373 -0.0449753 -0.06695317 -0.16029203 0.1768505 0.056808777 0.0121904975 0.008210927 -0.13534227 -0.026682027 0.16600434 -0.0972826 -0.22074653 0.056709897 0.050035857 -0.0024016255 0.042482875 0.03996235 -0.116895266 -0.014869484 0.15585388 -0.0611535 0.0400811 -0.006318508 0.007695069 -0.17597596 -0.04635077 0.15422364 -0.16666567 0.11163179 0.011866773 0.16513962 -0.14049418 0.09750566 -0.08308229 -0.038960703 0.1442485 0.21190244 -0.12515838 0.12982766 0.06838896 0.21856849 -0.09100722 -0.053506456 -0.036724713 0.019204104 -0.013430709 0.04418661 -0.12680222 -0.12478998 -0.08271385 0.055857826 -0.07136695 -0.18966222 0.26593462 -0.023263607 -0.09088681 0.18479382 -0.17809035 0.010407943 -0.056159362 -0.0044952016 -0.11421692 0.05232904 0.018378241 0.09164784 0.25375286 -0.057413004 0.056768246 0.016046895 0.116603024 0.008424537 -0.082176864 0.10079364 0.13095139 -0.114182726 -0.08825319 0.15795788 0.08936224 -0.06372128 0.1104797 -0.18707533 0.0087605845 0.043482374 -0.003359385 0.009513445 -0.024553122 0.104254246 -0.00070273946 -0.2678046 -0.1449392 0.014809431 -0.02145802 -0.14648716 -0.13356866 0.078181185 -0.05735487 -0.078839995 0.19977605 0.00047800894 -0.045149557 0.023823379 0.028951572 0.06724692 0.05445601 -0.035082944 0.013977684 0.21808633 0.03722442 0.062377922 -0.011050489 0.07206498 -0.039397888 -0.055040583 0.19748518 -0.18077166 -0.08360969 -0.10910073 -0.10443756 -0.022675922 0.09643747 0.057672415 -0.06971786 -0.10966355 -0.09137057 0.23863032 0.05974467 0.12506542 -0.052130476 0.1755006 0.031134596 0.1852207 -0.044209074 -0.05881148 -0.109915376 0.11875437 0.034594297 0.037255023 -0.08999241 -0.17999792 0.26288602 -0.08098292 -0.14408049 -0.056144774 0.0076431357 0.12345349 0.16963255 -0.033611212 0.16399598 0.0488519 0.08611971 0.012641743 -0.019957328 0.22215872 0.10915627 0.09089168 -0.13894509 -0.14047909 -0.055760685 0.10552198 0.004839032 0.22616819 -0.12459878 -0.1409451 0.064699665 0.033991307 -0.10549578 -0.021123612 0.09037646 -0.16717975 -0.09479762 0.07879822 0.07290039 0.059403945 -0.16329609 -0.073379785 0.19221431 -0.06188313 -0.12771663 -0.013089457 -0.09138021 -0.055839844 0.12075441 -0.056884687 -0.060110617 -0.033533543 0.10272952 -0.064770944 0.18429846 -0.055369414 -0.04650331 0.17809348 0.09513138 -0.14664486 0.017363293 0.051452547 -0.14802513 0.114377536 0.04453429 0.012735307 -0.08528211 -0.07495359 -0.061106086 0.077326626 0.1327577 -0.115195855 0.015402783 -0.25819555 -0.025412781 -0.05560755 0.119618826 -0.098156095 0.333134 0.037432298 0.01446538 -0.10650525 -0.23727448 -0.1317037 -0.13580124 -0.19003256 0.09480958 -0.23523782 0.025623526 -0.09797333 -0.060358927 0.10202484 0.08327696 -0.047157023 -0.14914268 0.15355414 -0.16422723 -0.00077778375 0.0064668334 -0.3234586 -0.039000314 -0.0058718543 -0.18556425 0.20043239 -0.099508084 -0.03333752 -0.22835852 -0.06390597 0.071137235 0.040350605 -0.1495039 0.17953229 -0.12387573 -0.070763536 0.07661776 -0.04312854 0.098175585 0.013412553 0.16649963 -0.07882947 -0.04138579 0.14581077 -0.02669069 0.12750435 0.12819257 0.015790997 -0.07392185 0.040355217 -0.10801573 0.09992908 -0.2596624 0.023572797 -0.29120553 0.11842216 -0.078263454 -0.0010191458 0.14239205 -0.114704244 -0.14576955 0.020470453 -0.1383246 0.07285144 0.108343296 -0.106116705 0.1761528 0.049501568 -0.22725777 -0.15855336 -0.04043457 0.014014317 -0.04288372 -0.019507958 -0.16073291 -0.06541117 0.018158887 -0.09829379 0.06302499 0.24049376 0.013980226 -0.13823012 -0.10776029 0.24318725 0.0021342414 0.09194676 0.10333106 -0.019696947 0.18865633 0.2070271 -0.20128112 0.17336974 -0.076375015 0.083431505 -0.052182794 0.047471393 -0.0657708 -0.074551 -0.09615491 0.15429461 -0.18732196 0.18958636 -0.03478304 -0.14974116 0.09539295 0.14733796 -0.0053516487 0.05118614 0.022389412 0.1395102 0.043857176 0.024605935 0.04389065 -0.07091446 0.029044231 -0.02867192 -0.0609997 0.14792658 0.22341363 0.025456928 0.085294254 -0.032969076 0.07479696 0.17622444 0.037593953 0.22284581 -0.017479233 0.10465475 0.14298919 -0.17177965 0.005514382 -0.1326826 -0.05102483 0.067333594 0.07582817 0.0900264 -0.06760377 -0.057141982 0.0585737 -0.014052267 -0.0023255667 -0.036091227 0.06086624 -0.12946132 -0.06102476 -0.014171826 -0.026619766 0.0576947 -0.08629989 0.079316325 -0.0099122375 0.09554045 0.024949621 0.241107 -0.13939421 -0.023757305 0.05119051 -0.13754131 -0.024648877 -0.0026072215 0.07797687 -0.23065577 -0.21411195 -0.15755264 0.011418122 -0.08475665 0.19587316 -0.06846832 0.11306919 0.035726357 0.085359626 0.08752569 0.13261282 -0.00012800068 -0.042084284 0.23182619 -0.018594757 -0.16800767 0.12689975 0.13521685 0.110642806 -0.03589357 -0.047519434 0.35570717 -0.10271333 0.116423205 0.0745986 -0.13208361 -0.07869885 0.01735735 0.13382858 0.04858699 0.0015312079 0.03476112 -0.037647225 -0.069857195 0.13912715 0.11175489 -0.03845186 0.07631909 0.0072952416 -0.38084826 -0.053290766 -0.1609873 -0.10041684 -0.2874686 -0.03065219 0.009118903 -0.056345012 0.17380528 0.004135978 0.1328724 -0.026468718 -0.100838326 0.01544931 -0.11090666 0.0945416 0.13392226 0.015578074 0.13166498 0.018619278 0.13112366 -0.010107024 0.067933954 -0.027190147 -0.012892413 0.1583876 0.034096036 -0.0015323323 0.062530555 -0.32093275 -0.019258773 -0.112183474 0.15620062 0.016665822 0.18133424 0.09446679 0.04900437 0.0056344913 0.010087994 0.024385003 0.11503502 0.044775065 0.018501723 0.02289558 0.0020127138 -0.086573735 -0.12360919 -0.20352608 0.006323781 -0.27488118 0.09538483 -0.04643391 -0.004832394 0.16098416 -0.22700483 0.1014789 0.2609763 -0.023405321 0.10324582 0.116726436 -0.15304975 -0.05664157 0.23026054 0.043396827 -0.03882791 -0.07883299 0.029584091 -0.198295 -0.25855657 0.046386424 0.11836442 0.010287951 0.09063484 -0.09578441 0.058291446 -0.056917667 0.12910226 0.2783234 0.063057296 -0.0710561 0.12440079 0.07476552 -0.064101286 -0.040986966 -0.004077774 0.009497463 -0.058903143 0.119840145 -0.07661789 0.13632435 0.18760656 0.19894668 -0.13553223 0.107986465 -0.19323054 -0.024362277 0.20381054 0.11324333 0.13595891 0.022254039 0.22211961 0.0062798853 -0.11521614 -0.046938196 0.013478181 -0.2507029 -0.07247742 -0.05634206 0.15999934 -0.009678626 0.004160859 -0.037990246 -0.011841034 -0.004588691 -0.14320336 -0.082211606 0.102875054 -0.00091400056 0.0007837346 -0.10188808 -0.20037243 0.027364153 0.14864713 -0.0008486758 -0.10498172 0.10346471 -0.039027408 -0.14577384 -0.031984486 0.106990196 0.0526715 0.10190425 -0.14130835 0.11857793 -0.0031894017 -0.07446448 0.12799232 0.053585134 -0.06915797 -0.09730367 -0.06505784 -0.035545487 -0.18394302 0.022810258 0.05638742 0.07277355 -0.0668467 -0.110328324 0.03174199 0.0883077 -0.119811684 -0.10346589 -0.05466713 -0.038318038 -0.017575338 0.1423354 -0.061153933 -0.12416205 0.012561741 -0.009584584 0.13138646 -0.0051885466
ale 0.056018822 -0.055945784 -0.051901348 -0.00558219 -0.0075098663 0.10361557 -0.062160525 0.047596306 -0.104252346 -0.059200782 0.0266413 0.0886 0.029586345 0.0053056623 0.0008982114 -0.099697545 0.10203818 0.12341766 0.026954368 0.046104454 0.012231825 -0.1487533 -0.011874148 -0.15046084 -0.06546061 -0.042853333 0.07104463 -0.07895406 -0.031722255 0.069806136 0.027478542 -0.109377116 0.17970559 0.16066484 0.09281092 0.035550438 -0.125418 -0.05369532 0.093255915 -0.07356621 -0.11434148 0.0070981383 0.037605602 -0.11250754 -0.09703481 -0.14626381 -0.14085172 0.00722872 0.21056804 0.11570766 0.039830375 -0.11695379 0.19494252 -0.2330169 0.1548849 0.009265793 0.19577368 0.17107563 0.17005396 0.07648607 0.25022903 0.06800988 -0.10406692 0.20678483 0.16288987 -0.0969703 -0.030478515 0.109559625 -0.13093533 -0.05146741 0.03306285 0.0010619315 -0.029479932 -0.052047577 -0.086779244 0.094120935 -0.08418398 0.023134839 -0.04922439 -0.24038911 -0.074022956 0.15344849 -0.034389608 0.17810142 0.038659442 0.13988611 0.02428623 -0.016437124 0.10431988 0.03508228 0.021635113 -0.082748614 -0.13307087 0.037779283 0.07461271 0.0029657553 -0.0045875493 -0.024561867 0.020303247 -0.0053532007 -0.054290988 -0.0060947854 0.058682073 -0.16945773 -0.038935672 -0.13113682 0.024322651 0.1539664 0.04791784 0.006221311 0.07699407 -0.10185027 -0.16169965 -0.011996738 -0.05722329 0.071200706 -0.13740197 0.22401972 -0.014144261 0.004958606 0.1412892 -0.032929834 0.037593387 -0.029163592 0.19617282 -0.0143698575 -0.0858975 0.032062743 -0.06890083 0.064838044 0.08687626 0.032895 -0.059784904 0.16127387 0.18504618 0.04012563 0.09188566 0.03151717 -0.021251827 0.023699747 -0.09128331 -0.0046677287 0.115583114 0.01902831 0.03922319 0.09083526 -0.016405703 -0.043069586 0.27765596 0.02349174 -0.035250407 -0.028362123 -0.05868256 -0.1290235 -0.05095052 -0.088220134 -0.037696645 -0.06833533 -0.19212826 0.049273472 -0.062311385 0.24162866 -0.014061975 0.0649674 -0.026659288 0.11585353 0.082982965 0.15891254 0.102784075 0.08697725 0.078858085 0.13101201 -0.06705444 0.2218418 0.07217617 0.066440456 0.089531176 0.1615396 0.04710891 0.1081176 -0.27597785 -0.044859212 0.19877027 -0.12211272 -0.16450712 0.108065374 0.010426523 -0.14366005 -0.16689916 -0.0596343 -0.10261038 -0.07234491 0.10734735 0.1381761 -0.033251423 0.007842394 0.07220298 0.117966145 0.022150964 -0.0145138735 0.2105411 -0.18917899 0.1314747 0.0053509884 -0.25860327 -0.014440804 -0.18282096 0.08160811 -0.042749457 -0.03366379 -0.044383913 -0.11528205 -0.08600302 0.036528613 0.0771069 0.16172566 0.046016175 -0.045936458 -0.081301525 0.19684315 0.09905456 0.12019522 0.12353522 0.17721608 -0.08819238 -0.14773977 0.18135196 0.09986373 -0.114651285 0.19751355 0.06931498 0.090809464 -0.06192647 -0.119376026 0.12913667 -0.060500495 0.016678799 0.05060493 -0.10368757 -0.22104804 0.086759865 0.07039783 0.061188474 -0.07862408 0.072508775 -0.045092013 -0.1323528 0.03330695 -0.1325177 0.02564561 0.031581134 -0.04654907 0.075727224 0.1142726 -0.13033707 -0.25118548 -0.053928375 -0.021544987 0.040103357 0.0063805864 0.13227987 -0.27303568 -0.10722019 -0.039433733 0.053204015 -0.038045924 0.059463553 0.1559337 -0.13924736 0.12623496 0.016251825 0.039011464 -0.14448942 -0.06462098 -0.06805896 0.14192475 0.0716924 -0.12473493 0.18861878 -0.09470824 0.036064133 -0.03726108 0.0020408353 -0.19006895 0.010926984 0.008009229 -0.28973573 -0.20552745 0.12688291 -0.015238997 -0.066402026 0.1594671 -0.15266368 0.036846284 -0.04948513 -0.09635957 0.093873195 -0.19243756 -0.048543226 -0.19434246 0.105441615 -0.093221806 -0.021586712 0.06370294 0.026823452 -0.05149719 -0.023193488 0.116304636 -0.119312346 -0.1658412 -0.037630245 0.20576803 0.069697596 -0.04335064 0.15059835 -0.049066156 -0.09469261 0.057872687 0.111911744 -0.2040146 0.0063271443 -0.008375726 0.12765153 0.026789226 -0.05545429 -0.029786222 -0.056473073 -0.12687646 0.018323867 -0.13078667 0.030207345 -0.051237762 -0.004179104 -0.096508324 0.09391147 -0.072531365 -0.056266446 -0.0989426 0.06090207 0.22454244 -0.17014149 -0.20383233 -0.05025622 0.11736049 0.10593019 -0.13688064 0.079089314 0.0663585 -0.05915593 0.04334773 -0.05716892 0.05813154 0.172413 -0.0021245556 0.08578905 -0.08343731 -0.17396663 0.015360478 0.10626003 -0.18971474 0.047228 0.08341356 -0.0486897 -0.1124207 0.10509655 0.029920815 0.14302738 -0.12440746 -0.035787202 0.00078815647 -0.00097388733 0.05701781 0.037769713 -0.19961978 0.0822504 -0.012807421 0.022158435 0.1141408 -0.019577915 0.23642465 -0.0357902 0.08369074 0.08906683 0.14321165 0.29418924 -0.019136036 -0.044640344 0.07864203 -0.021947091 0.1416954 -0.065938435 0.2229533 0.124970734 0.16484939 0.011209539 0.12920722 -0.04546828 0.02562019 -0.1880023 -0.05977415 -0.21976943 -0.008054608 0.18538964 -0.010345274 -0.066529416 0.13794054 -0.21583267 0.14631748 0.03236527 -0.023511913 -0.049910348 -0.16200465 -0.1191024 0.03906581 -0.09886529 0.07118517 -0.20196132 -0.04084088 0.14210661 -0.0752051 -0.12167596 -0.0071782973 0.11915283 0.024604514 -0.03275515 0.1080843 -0.035644803 0.044967234 0.112222515 -0.12402794 0.08434021 -0.07145177 -0.08324481 -0.05835706 -0.16711281 0.037784956 -0.15061423 -0.13079868 -0.026197739 -0.10167345 0.016414914 0.038076643 0.18006434 0.10528621 -0.077416606 0.154323 -0.023248512 0.083816744 -0.15633309 -0.06565353 0.11278469 -0.10054304 0.12923172 0.12271569 0.028734853 -0.044225637 -0.09146118 -0.1467087 -0.04049359 -0.18149398 0.11688842 -0.1456445 -0.06029344 0.127917 0.055573683 -0.11957615 0.030357838 -0.20925666 0.20448038 -0.0139102135 0.05551694 0.2868061 0.045011636 -0.26732892 0.04827076 0.11220921 0.27246973 -0.02678286 -0.13060568 -0.25571254 0.09945768 0.055317175 -0.0438666 0.08851768 0.15923087 -0.05951288 -0.049872186 0.039237384 -0.14953592 -0.17695199 0.10587331 0.0795118 0.039317638 -0.09232455 0.14494047 -0.16796489 0.24881287 -0.116283804 -0.04646757 -0.11437704 0.016545033 -0.01412161 0.11121081 -0.15696163 0.085665844 0.024869844 0.022858314 -0.040419742 0.005526276 0.041345216 -0.026103714 0.04697327 0.07211394 -0.14992242 0.13183668 -0.043405063 0.21121836 0.022692723 -0.03828431 0.08803956 0.0673522 -0.2585293 0.065503374 0.045272417 0.025677819 -0.096566245 0.028924726 0.033701174 0.014124195 -0.15393583 -0.007701166 0.19064209 -0.06975962 0.16423368 0.11782968 -0.009862113 0.08672812 0.015269263 -0.27775753 0.08353799 -0.012721462 -0.14918384 -0.09634438 0.043902796 0.036762826 -0.02974281 -0.026336746 0.09346789 0.06961769 -0.04947295 0.06398758 0.011374539 0.05406224 -0.075670525 0.045777302 0.0611977 0.07118325 0.0021911939 -0.039056428 -0.09578453 0.10078731 -0.062708214 -0.043539383 -0.19003762 -0.21760966 0.10927383 -0.046243247 -0.12987058 0.1938942 0.026571732 -0.054482874 0.09193738 0.06602626 0.046547424 -0.24201575 -0.074146934 0.16131318 -0.08548769 -0.19341518 -0.23302586 -0.20276001 0.11276709 -0.08701246 0.024167398 0.07103654 0.02229427 -0.010314956 -0.10147009 0.11246788 -0.10535263 0.18364762 0.12336704 -0.09043709 0.062469844 -0.14072974 0.20976041 0.21440324 -0.032628715 0.04179784 -0.01816423 -0.04873441 0.010992213 -0.036813002 0.03436214 -0.014704486 -0.055067226 -0.09296873 -0.008831553 -0.18342716 0.051088054 -0.053898916 0.07385191 0.035963807 -0.0022847673 0.06975557 -0.09268485 -0.0150413215 0.12731652 -0.16557278 -0.08499002 0.04354624 0.19368407 0.15577327 0.1071442 -0.084014565 -0.052658416 -0.0014449328 -0.046032496 -0.06117548 -0.057648614 0.05402696 0.047269035 -0.12796275 0.029034622 -0.025380177 -0.114627436 0.06958242 -0.11450223 0.086130455 -0.13720718 0.2504632 0.14373067 -0.11867496 0.05004035 -0.05849846 0.029466622 0.08059026 0.21498573 0.15986824 -0.05809089 -0.12747043 0.020605747 -0.08121504 -0.15602836 -0.026244039 -0.1375445 -0.111307874 0.16380137 -0.17372654 -0.117836155 -0.18334627 0.1503744 0.20923126 -0.08905976 0.09399404 0.007009982 -0.024617186 -0.04494298 -0.055938806 0.110158995 -0.081801616 0.08776382 0.009876749 0.06754722 -0.18305656 0.3445699 0.2675249 -0.050134566 0.13131031 -0.028432284 0.025262907 -0.24427032 -0.15679207 0.13706502 0.050399315 0.01348963 -0.13375121 0.076170556 0.018662287 -0.04311179 0.07463405 0.087489635 -0.2710416 0.06706528 -0.11853997 0.16988774 0.049027726 0.04831618 -0.08295988 0.06499225 -0.20312461 0.08154065 0.035161678 0.0051462566 0.06381777 -0.04357951 0.10202773 -0.21247263 -0.0301098 -0.013431707 0.00024336038 0.023825666 0.12382314 -0.110476375 0.09627293 0.07543685 0.120318495 0.07065549 -0.1708462 0.039547857 -0.07226943 0.015882958 -0.09093492 -0.10836867 0.09812819 0.002299853 -0.2902304 0.051592864 0.15284778 -0.03874226 -0.080812946 0.10191334 0.017665923 -0.0229399 0.068241745 -0.036087744 -0.032785494 0.06100589 -0.17076032 0.11625556 -0.08038663 -0.018381208 0.12957725 -0.019450516 -0.09399209 -0.12520984 0.1319344 -0.032467134 -0.20670775 0.01774983 0.05498687 0.10653433 -0.07613067 0.18646912 -0.048332617 -0.012781968 0.064204015 -0.11024284 -0.21239495 0.1343911 0.12674794 -0.024384575 -0.035246324 -0.15263653 0.12979771 -0.08342028 -0.087346576 0.061433904
alkohol -0.060805157 0.060619123 -0.007910061 0.27624723 -0.009158119 0.010428666 0.053530566 0.03621085 -0.03261242 0.012860664 -0.016138144 0.020147815 0.09965926 0.102811106 0.24475777 0.017162971 0.001044706 -0.027172944 0.047688667 -0.11518719 -0.020348595 -0.06424596 0.10514178 -0.015050912 -0.048417553 -0.0065070484 -0.02068034 -0.041043274 0.044807434 0.12908055 -0.02096992 -0.010190108 0.09223071 0.048690252 0.056872424 0.16984063 -0.010948354 -0.012497432 -0.031060519 0.08167055 0.14613108 -0.09818924 -0.06817648 -0.10551491 -0.22215891 -0.04384937 -0.008583634 0.04358639 -0.06090939 -0.028924102 0.0802819 -0.05160797 0.008838466 -0.01150517 0.014674234 0.25774154 0.03501517 0.11232027 0.070624925 -0.029058395 -0.015030974 -0.059308134 -0.047921386 0.038060166 -0.02942129 0.024505315 -0.026270961 0.032542408 0.0013823224 -0.05628805 0.08743095 0.036991946 0.012086786 -0.06844897 0.012613989 0.044107072 0.005461524 -0.008746546 -0.022904338 -0.01137932 -0.05978137 -0.030809904 -0.04941561 0.02951727 -0.06215061 0.020071885 -0.015574513 0.124268875 0.056785647 -0.0030740518 -0.039827485 -0.039971355 -0.041619755 0.029638655 -0.019515531 0.02337427 0.01127504 -0.07516159 0.013065457 -0.023983326 -0.08092798 0.05922093 -0.042596795 0.111572996 -0.023956694 -0.019765263 0.03504788 0.18294312 -0.13205504 0.0003831832 0.00010596008 0.06611106 -0.0055721896 0.20522374 0.11503456 -0.05050724 -0.017057348 -0.029300801 0.065921724 -0.05251162 -0.028790947 0.042007048 0.062004473 -0.08910577 -0.054359503 -0.06813074 0.0657203 -0.0779658 0.07637513 -0.02691042 0.03615794 0.053964045 0.040934768 0.007900955 -0.031037418 -0.015415331 0.027346846 -0.021513846 -0.0334855 -0.03522641 0.023555912 -0.08496854 0.012404694 0.11336833 -0.043149244 0.095042706 0.06103556 0.019176228 0.0067593786 -0.013394211 0.065764405 0.038465966 -0.03730158 -0.020389624 0.011500418 0.0052078 0.029509095 -0.029788071 -0.018059876 -0.014688264 -0.027451131 -0.008494773 0.08522331 0.03744868 -0.08667413 -0.056030612 -0.004710555 0.07208918 0.05911169 0.053331524 0.06773373 -0.02860306 0.057686247 -0.04923531 -0.056094315 0.025669595 -0.12703153 -0.10112356 -0.039475724 0.057372 -0.017127873 0.09186318 0.0062841843 0.080222346 0.0018897796 -0.067553714 0.003126032 0.008562072 -0.024685035 -0.012942263 0.016211703 0.0780688 -0.12671357 -0.044455446 -0.009179716 -0.0972572 -0.08716584 0.057279803 0.069540225 -0.0458295 -0.11738001 -0.072511196 -0.050859116 0.026588634 0.019880943 -0.092565544 0.029012408 0.06952381 0.033695295 0.07392589 -0.09010084 -0.04289539 0.013174199 0.07980057 -0.091783576 -0.036656715 -0.080136515 0.07077586 0.009409678 -0.03169309 0.06855987 -0.04108008 -0.028723793 0.05818828 0.0709423 -0.08651271 0.0767362 0.09197842 -0.052429892 0.035253275 0.031453013 -0.15344518 0.002949495 0.041077625 0.1052752 0.04199819 0.09202012 0.025781127 0.032065332 -0.030483676 0.007298407 -0.029832393 -0.04383197 -0.2072214 0.029089693 0.0032090496 -0.0392625 0.081590995 -0.033396896 0.073679656 0.14476816 -0.04692713 0.10559165 0.0072635873 -0.006240987 -0.13588457 0.013234393 0.0699275 0.025057545 0.099388786 -0.027687265 -0.06979623 0.099585816 0.0062319627 0.04661335 -0.131066 0.009414131 0.039842345 -0.03748973 -0.03871356 0.16598786 0.10170533 0.041953944 0.08579114 -0.1492429 -0.017233768 0.15041885 0.033729654 -0.065219976 0.04299611 -0.022699142 0.060474623 -0.0992634 -0.051687688 0.04860049 -0.019247878 -0.016839903 0.0010974525 -0.038856875 0.0299709 0.012864404 0.030844366 0.02861192 0.035258695 0.0047135977 0.05221903 0.08440129 0.10382674 -0.022204433 0.038985148 -0.02931386 0.017508538 -0.08366588 0.06163301 0.09477289 -0.026187949 -0.04127206 0.14526406 -0.074319705 -0.046693455 0.006690593 -0.011847185 -0.11993844 -0.066565156 0.004889748 -0.021620067 -0.06640799 -0.007518537 0.040620252 0.06381272 0.1070747 0.05301646 -0.05111958 -0.009759937 0.11416992 -0.09009139 -0.02290719 -0.0010462923 0.061547574 -0.005906382 0.039852537 -0.024633007 -0.0793599 0.07532025 -0.008430194 -0.07322876 -0.047454223 -0.0062992624 0.07240551 0.0065094708 0.10195547 0.16362673 0.064927384 0.09488536 -0.029647665 0.01106713 0.10732261 -0.03699776 -0.0028578837 -0.06127514 0.031192305 -0.032188818 0.023157641 0.096590966 0.03457416 0.010311448 -0.104065716 -0.0885722 0.059640896 -0.045355804 0.035636876 0.030009214 0.13931862 -0.09128155 0.042818833 0.10627805 -0.008745526 -0.05986324 0.009853997 0.06714565 0.021151885 -0.09366849 0.029695114 -0.020091755 0.016476436 0.07477051 -0.047441695 -0.050134014 0.028315296 -0.06062886 0.0016498462 -0.046088167 -0.046840917 -0.023526361 0.1260048 0.07246656 -0.09733799 -0.08233133 0.041305985 -0.39437175 0.079716854 -0.0621287 -0.021219917 -0.102572694 -0.006195774 -0.045704998 -0.007365904 -0.013703926 0.013016055 0.076906316 -0.07787143 0.031279143 -0.06974927 0.043422185 -0.1283316 0.03802914 0.06212386 -0.013561419 -0.015607712 -0.086565055 -0.25423202 -0.056667205 -0.009588817 0.077953264 -0.040788732 -0.016098734 0.010281157 0.06975531 0.08987747 -0.002965017 0.023557348 0.06890575 0.012149872 -0.011999332 -0.056764223 -0.1478298 -0.16273949 -0.043520596 0.017924922 -0.02280654 0.02163321 -0.057843298 0.045317248 -0.038866088 -0.0027083703 -0.024822904 0.059625626 -0.10452498 0.10863624 -0.007949865 0.0106736645 0.037221916 -0.101317085 0.048105087 -0.035640996 0.042772762 0.027321102 0.036061022 0.06547907 0.047390897 0.09938659 0.03258756 -0.008193189 -0.016539764 0.085293025 -0.087725125 0.03463129 -0.023178516 0.019908125 -0.037179817 0.09453646 0.062178224 -0.008291466 -0.012317964 -0.06625934 -0.13396639 -0.04903716 -0.006123826 0.019200385 0.030761959 0.02892449 -0.014780057 0.04588524 -0.09968138 0.050307013 -0.1037506 -0.053902194 -0.07549247 0.030613268 -0.04916597 -0.0689133 0.07625623 -0.056624763 0.046731297 0.17066815 0.046083666 -0.15704925 -0.045579806 0.08499161 -0.019622616 -0.01867348 0.17105009 0.011846747 0.05036472 0.045431055 -0.015634596 0.030967182 -0.02128654 0.12849012 -0.039899625 0.059110567 -0.01893687 -0.081520915 -0.007297376 0.09853429 -0.0172891 0.053721357 -0.071011454 -0.025244437 -0.0028744577 0.070901304 0.022966499 0.012946558 0.005987788 0.018368213 -0.0022613627 -0.037113734 0.07462329 -0.046384055 0.017114848 -0.016834946 0.026528591 0.038037986 0.1019774 0.0615001 0.11730466 -0.03913705 0.14034152 0.12804618 -0.0052575655 -0.0039058013 -0.038204357 0.17918275 -0.0041365824 -0.031992294 -0.04242267 -0.09738427 0.027160527 -0.022042532 0.033762936 0.015318369 -0.03324358 0.026434379 -0.011605297 0.11054023 -0.004020168 -0.08724852 -0.024545524 -0.06708679 -0.00249096 -0.0467449 -0.094265535 -0.028104272 -0.123922266 0.020402284 -0.099378034 0.007393812 0.03522735 0.13498631 -0.027646534 0.04340125 -0.01264489 0.07255398 -0.07490786 0.07252251 0.012465324 -0.01728572 -0.10492057 -0.0095270695 0.04427495 -0.16875035 0.05995254 -0.00019694048 0.07458595 -0.009736339 0.026304396 -0.024333604 0.039866228 0.0811527 0.02753464 0.082131185 0.030889813 -0.1035108 0.07151734 0.066382706 0.07589778 0.037290752 -0.017393006 0.024366252 -0.04221399 0.0001462942 -0.0291217 -0.0056232032 0.026293848 -0.047468774 0.0011759915 0.049391862 0.001787683 -0.018427161 -0.08026432 -0.021744026 0.07087175 0.047024444 0.00900374 0.027476579 0.039863713 -0.034852397 -0.021469917 0.011074057 -0.105301864 -0.047317386 0.028340664 -0.010572559 -0.054531526 0.10580812 0.06568141 0.026641618 0.019851381 -0.043653212 -0.07780304 -0.030836241 0.09566783 -0.031903878 -0.05948923 0.10244361 0.04213961 0.016896693 0.012230614 0.04513749 -0.09648295 -0.110675655 0.07100707 -0.010665757 -0.04179678 0.067644976 -0.07741854 -0.053097967 -0.082644895 0.079333276 -0.003557527 0.007831121 0.06568774 0.028412282 0.022850398 0.096990794 -0.04249786 0.03190868 -0.052231062 0.0053256773 -0.0363355 -0.027403023 -0.017529532 -0.053941168 -0.026605137 0.050648697 -0.06033109 0.029691584 0.014830583 -0.047649294 0.0705989 -0.21989515 -0.0077362834 0.12553892 -0.04743037 0.023126531 -0.011395021 0.050086927 -0.011995945 0.16605502 0.042288266 -0.0018097899 -0.016815199 0.11132187 -0.058184396 -0.035432484 0.0021429807 -0.034028962 -0.050270207 0.06747763 -0.000115598785 0.19897583 0.043554954 0.03673633 0.07095851 -0.032997895 -0.052381292 0.006117259 0.068556845 0.044822276 -0.09747247 -0.059095014 0.09277944 0.002249345 -0.0066489535 0.05109627 0.032698575 -0.02094538 0.06012849 -0.08490732 0.031015914 -0.03795483 -0.04706203 0.061198525 0.09485585 0.09289701 0.04270006 0.045995813 -7.450577e-05 -0.13417652 -0.080482446 0.060096342 -0.031164037 -0.07796842 -0.00050936296 0.05091174 0.05095676 -0.017447356 -0.029883362 0.010916598 -0.085280105 -0.01960251 -0.045604132 0.15397947 -0.02546255 -0.0062000104 -0.068056494 -0.04764469 0.034422375 -0.00057672133 0.011398364 -0.061119083 0.015254404 0.0146501465 -0.01706633 -0.014039686 0.013315386 0.04196084 0.05416211 -0.111117326 0.04382623 -0.064713836 -0.12704392 0.0055572684 0.021637138 0.026069384 -0.21941867 0.021707727 -0.014026739 0.033757158 0.13011257 0.0252454 -0.05311001 -0.07319916 0.043166954 -0.03761027 0.022968419 -0.04995503 -0.018270625 -0.09499037 0.008452794 -0.047332987 0.07862695 -0.035355583 -0.077821776 -0.06591278 0.010675876 0.08912927 0.06069869
aluminium -0.07241897 -0.008193633 0.04764394 0.048471607 0.04278956 0.030898716 0.078230135 0.13389955 -0.005531626 -0.053643413 0.0025349073 0.17717968 0.20535591 -0.043542568 -0.0047306963 0.06704334 0.06145227 0.06492591 -0.060273487 -0.19260277 0.07355377 -0.08486391 0.07227843 -0.028611839 -0.07259475 0.0746343 -0.03991581 -0.17718647 -0.1180326 0.14995205 -0.06896178 -0.14302614 0.12851264 0.13035443 0.12030278 0.28193882 -0.23053263 -0.05839017 0.05456117 0.07343668 -0.00437706 -0.08374749 0.014288958 -0.30483186 -0.14043868 -0.21925299 0.021396678 0.014647252 -0.071096495 0.020060474 0.19102639 -0.06477925 0.048432965 -0.11082364 -0.12314408 0.08690568 0.14716704 0.09124026 0.09045906 -0.0016579238 -0.030314568 -0.026495809 -0.0070973597 0.2836497 0.035693288 0.058075223 0.0065632616 0.15553163 0.10196688 -0.12530583 0.07371013 0.014250696 -0.05775484 -0.17949949 0.025059618 0.16462992 0.121186845 0.026470255 0.10149504 -0.07671159 -0.07667395 -0.021680335 -0.07799697 0.15409262 -0.06096041 0.12708762 -0.023650415 -0.036874626 0.08578109 -0.07953545 0.0086415615 -0.12903962 -0.10931635 0.004673974 -0.01140956 0.22150135 -0.08367966 -0.20641491 -0.07816574 -0.04433348 -0.11055174 0.115309425 -0.27466065 0.050482176 0.09205691 -0.18372332 0.021393277 0.07595041 -0.14975488 0.046541892 -0.05919003 0.063779995 0.054745592 0.052453786 0.038185827 0.024185412 -0.027054572 0.13611883 0.12087199 -0.059225187 -0.08138631 0.1514523 0.06507819 -0.022014635 -0.08876633 -0.03392921 0.031593353 -0.021918772 0.10527349 -0.0034454886 0.104052715 0.032611016 -0.039106105 -0.02779885 -0.082097515 -0.17028674 0.007823791 -0.010859156 0.16549258 -0.08551604 0.0018880976 -0.3287477 0.09993801 -0.0086262375 -0.007855275 0.18964481 -0.0016875133 -0.00275502 0.0123573905 0.0076986975 0.050649524 0.009801773 -0.09850524 -0.06846913 -0.14001124 -0.07427318 0.16068389 -0.12257228 0.02419556 -0.040552218 0.039273873 0.039463267 0.04466354 0.0657926 -0.11771996 -0.036005966 -0.094344094 0.12209839 0.11662177 0.17150588 0.05380188 -0.02780608 0.017745877 -0.09010842 -0.084638536 0.050166454 -0.061476238 0.06392761 -0.21313092 0.032370318 -0.08169669 0.009663588 0.08929826 0.0353399 -0.119832024 -0.18512636 -0.125536 -0.14980665 -0.12599573 -0.005653901 0.014913976 0.10268385 -0.1250072 -0.05597202 0.06716656 -0.041501068 -0.12685396 0.16734919 0.06622417 -0.005903151 -0.07441872 -0.11545598 -0.12741733 -0.022153778 -0.019409535 -0.12628148 0.033069897 0.13067108 0.07565499 -0.044569127 0.11987657 -0.10699422 -0.02418577 0.21276474 -0.09518455 0.0021027124 -0.10776353 0.116368316 -0.08893532 0.11146926 0.04171687 0.07131159 -0.013625072 0.13853747 0.06191234 -0.099782266 0.049303435 0.16054349 -0.10567763 0.13287008 0.037463676 -0.08215329 0.025110455 -0.009508798 0.2479406 -0.11764398 0.16931228 0.053845305 -0.017473873 -0.11947208 -0.084427714 -0.06882282 -0.06438326 -0.18055631 0.11528911 -0.07202842 -0.20923752 0.09275489 -0.2198137 0.12018006 0.14915393 -0.2957865 0.039221678 -0.114253476 -0.042700786 -0.17091651 -0.033564873 0.09850416 0.10319067 0.20983325 -0.01570982 -0.0006652575 0.113896884 0.10100253 0.06616012 -0.067809194 -0.074155204 0.060999244 -0.044320807 -0.061382744 0.19504641 0.18118094 -0.008172165 0.12564048 -0.050138246 0.06987634 0.041158073 0.02151056 -0.06806029 -0.06380001 0.038482696 0.12785296 -0.12108328 -0.031638525 0.018463012 0.1282349 -0.070907615 -0.16591164 0.01699051 -0.09689726 0.055529434 0.15375316 0.03573236 0.026379908 0.04404635 0.09563873 0.06661836 -0.07546631 -0.11110518 0.07067353 -0.0064997813 0.15975915 -0.056186654 0.17567581 0.06868243 0.017437521 0.056643333 0.2633848 -0.26797146 -0.019495009 -0.055110734 -0.07190812 -0.08514595 0.055054057 0.13213153 -0.0507165 -0.029321736 -0.009736364 0.11455537 0.14197841 0.12092246 0.10627035 -0.019777028 0.021161573 0.12829882 -0.16344658 -0.073714405 -0.0042608874 0.10448967 -0.033272784 0.0667058 0.032789633 -0.15594605 0.13140015 -0.0347746 -0.16455665 -0.097304285 0.027237102 0.14854652 -0.030440528 0.059273284 0.1226525 -0.01688839 0.030506764 0.116208866 0.061536945 0.26020142 -0.057799447 -0.04401093 -0.103035964 -0.07034897 -0.083921656 0.08099539 0.04255254 0.19425759 -0.061862603 -0.11570453 0.09868916 0.03086184 -0.07017726 -0.0007410802 -0.0365435 0.055272177 -0.22787605 0.05911723 0.039293073 0.0708851 -0.15093297 -0.10727341 0.19635879 0.072387025 -0.09987324 0.07840813 -0.08091722 0.0797907 0.21959634 -0.050013803 0.03609198 -0.18584953 -0.009514164 -0.03398205 0.07933031 -0.01628398 0.01229967 0.16662402 0.089788094 -0.087996066 -0.0041683516 0.048187077 -0.16945821 0.05189753 -0.0347096 -0.067292765 -0.1054796 0.08738728 0.004394722 -0.039285973 0.09700226 0.011498466 0.09043808 -0.14857797 0.06318152 -0.025283277 -0.09446818 -0.096054636 0.25544468 -0.003598072 -0.06877336 -0.27331057 -0.2903079 -0.14332218 -0.15361047 -0.07875371 0.03631844 -0.04596243 -0.18547063 -0.03802882 -0.13891837 0.14580305 0.1173997 0.08531415 -0.12815985 0.07573888 -0.13244602 -0.015201462 -0.13758323 -0.124112695 0.059873585 0.07280448 -0.105610706 0.061060984 -0.09466948 0.10545798 -0.023500077 -0.09624743 -0.02786152 -0.030172165 -0.14533749 0.08790421 0.049104247 0.1195961 0.024807563 -0.10005742 0.15104212 0.0034579511 0.18284926 -0.12418413 0.18329193 0.070992194 -0.0714043 0.104988225 -0.047129218 -0.084519416 -0.04195858 0.14184177 -0.22481695 0.13439119 0.038996402 0.03571689 -0.26488024 0.23621272 0.05339021 -0.016477099 0.0035070556 -0.05812057 -0.06619199 0.06383292 -0.11823931 0.048687603 -0.025420835 -0.044385232 -0.011009291 0.012764673 -0.088646784 0.0002535366 -0.12959829 -0.05356385 -0.15747863 -0.06975746 -0.21578129 -0.12940565 0.17141518 -0.055722263 0.11354284 0.11790284 0.13170363 -0.25102478 -0.12010912 0.10447155 -0.096637525 -0.022577552 0.22813287 -0.037971817 0.03855011 0.20141752 -0.046327293 0.12366329 -0.10820342 0.16551608 -0.09772797 0.12417854 -0.03855879 0.031082533 -0.071259975 0.18532546 -0.06698779 0.19431303 -0.14010909 -0.16167279 -0.13311197 0.016334224 0.01703617 -0.12347071 0.014978616 0.13506171 -0.0018128151 -0.051754754 0.14336757 -0.012164665 -0.0017095028 0.01374973 -0.052267134 0.13732958 0.17515813 0.13662687 0.060513105 -0.1258609 0.1123919 0.07452997 0.044825282 -0.029606493 0.1437353 0.16612953 0.055416603 -0.09635257 0.04811551 -0.15000093 0.07022553 0.050801367 -0.0423152 0.07957963 -0.037624337 0.02341692 -0.119360074 0.13461393 0.16607825 0.084882036 0.11033375 0.035298508 0.036017798 0.035183266 -0.038659956 0.03584457 -0.08955635 0.03950309 -0.09218097 0.1703739 0.015674906 0.29380006 -0.12694739 0.10982063 -0.122521475 0.0024704712 -0.089857295 -0.04804279 -0.057192203 -0.2514036 -0.17240323 -0.019586176 0.09216608 -0.07964343 0.06631706 0.041204154 0.17466399 0.011866882 0.043170024 0.05899378 0.13847159 0.1374492 -0.020199925 0.13411728 0.020801682 -0.09234659 0.2724205 0.040622175 0.1711297 0.13104723 0.034928218 0.090635724 -0.0736826 0.06196548 -0.013112426 -0.069320716 0.01868761 -0.0022678531 0.053894397 0.029948248 0.103621215 0.123434596 -0.12329369 -0.22085054 0.18888547 -0.061859034 0.032918565 0.04128891 0.04660227 -0.17817377 0.035052832 -0.05312563 -0.23452567 -0.15912262 0.035882678 -0.03573302 -0.12096581 0.20377119 0.0304053 0.098692015 0.044628516 -0.18127084 -0.10095748 0.14557728 0.10587453 0.05925201 -0.028654581 0.12629224 0.00093969656 -0.010688741 0.040380694 0.0458836 -0.16993573 -0.058524385 0.051073205 0.055818737 -0.019965833 0.12134391 -0.23834743 -0.046932634 -0.121687755 0.113997966 -0.017897867 0.2389657 0.11580339 0.043767545 0.15807441 0.09137336 -0.11274244 0.061695557 -0.060504995 -0.027664594 -0.1515739 -0.09450454 0.03385014 -0.05567642 -0.28377524 0.03262968 -0.11643483 0.083787546 -0.0048629367 -0.17085876 0.010166156 -0.17813924 0.092500634 0.22862788 -0.017355802 0.060189232 0.02532425 0.066215135 -0.014539265 0.25955364 0.10527614 0.043833334 0.024703097 -0.02440094 -0.16555984 -0.026056832 0.07527047 0.026653817 -0.011415255 0.17697877 0.03920902 0.24483633 -0.07912112 -0.020284254 0.15411837 0.027463514 0.048901856 -0.043993462 0.03782347 -0.075249486 -0.14263165 -0.015458843 0.0423195 -0.024519049 0.04925123 0.033529148 0.23211321 0.095379226 0.089909814 -0.09809353 0.002620645 -0.17893706 0.020852605 0.32725322 0.13056655 0.13434295 0.01467821 0.12869534 -0.025676085 -0.2550635 -0.05543919 0.001902103 -0.27131155 -0.060300913 -0.17168704 0.10681158 0.1370694 0.010437072 0.0458404 0.02185133 -0.04794301 -0.1739826 -0.18436041 0.09398897 0.004831303 -0.0075101093 -0.21349446 -0.13344523 0.07422963 0.01625836 0.022076316 -0.0876846 0.11231561 0.034548745 -0.14027011 -0.121389955 0.035756376 0.06817313 0.18410316 -0.11041725 0.06658014 -0.097162284 -0.13361193 0.20030835 0.05977262 0.03577256 -0.13604636 0.07953611 0.044435687 -0.084539406 0.120612495 0.045495693 -0.08017677 -0.037250184 -0.008996281 -0.0019386584 0.15151843 -0.18583202 -0.07221479 -0.21772534 -0.08775223 -0.052346982 0.12441619 0.034784753 -0.20778446 0.12845162 0.012821554 0.09431504 0.06419928
anioł 0.026062936 -0.04053297 -0.03594936 0.05226169 -0.045123275 0.07506563 0.088744566 0.017630167 0.044144724 -0.08890045 0.07350231 0.11576456 0.29302907 0.07925718 0.049798276 -0.02051561 0.08334669 0.048409667 -0.0792433 -0.06227442 -0.02257015 -0.12655738 0.06300104 -0.042978477 0.022475855 -0.017234199 0.070569515 -0.0520482 -0.04913213 0.038317833 -0.0623931 -0.07170003 0.24188164 0.08352877 0.027734082 0.2206933 -0.10275453 -0.04855776 0.043103606 0.0012747674 0.085918 -0.11519644 0.042480506 -0.15161988 -0.03116854 -0.20330127 -0.02694105 -0.043221593 0.0035964923 0.121708244 0.13399604 -0.07585618 0.07189777 -0.10918438 0.021973625 0.0667171 0.11987341 0.10163821 0.10424762 0.04746568 0.06339336 0.02274441 0.036974866 0.22047709 0.04493562 0.021656467 0.06124728 -0.013125579 0.09977154 -0.09096126 0.08441668 -0.005036265 0.022788923 -0.033435233 -0.03952729 0.0020914574 -0.06425333 0.035416234 -0.00217692 -0.09892438 -0.044097275 0.05864792 -0.051296014 0.12395786 -0.026532339 0.0075440356 0.04284462 0.0017049527 0.07716371 -0.02413847 0.09943678 -0.107557625 -0.13695785 0.05158079 0.049698357 0.145607 0.068456985 -0.15467486 -0.06469212 0.044333935 -0.05869101 -0.020470032 -0.12076302 0.0066252174 0.03904869 -0.046936374 0.10025593 0.048088517 -0.031300668 0.022033071 0.07393648 0.0075419582 -0.02561915 -0.0060880687 0.007240905 0.051666103 -0.11807374 0.12676139 0.09007122 0.025277069 0.02776312 -0.0018137785 0.039584056 0.12570758 0.012019581 -0.015154723 0.0001452723 -0.12608835 0.011202011 0.0006814265 -0.018096171 0.058972053 -0.023400819 0.09815226 0.045982532 -0.059028774 0.07439694 0.009605876 0.06009572 0.0379671 -0.043047782 -0.15709998 0.056549195 0.02591721 -0.07070643 0.12865528 0.02428089 -0.061479967 0.08187987 0.02721275 -0.05706745 0.012634436 -0.3374091 -0.09540665 -0.054629125 -0.078313276 0.005268611 -0.02095219 -0.08662731 -0.018771952 0.05420494 0.045416478 0.033848017 -0.047004554 -0.009522228 0.04033493 -0.07657209 0.009786535 0.103893064 0.07842514 0.1007954 0.060061164 -0.041809376 -0.06405473 -0.00261799 0.1033473 -0.037872925 -0.05176554 -0.06536196 -0.0003088603 -0.04504375 0.03108652 0.059169073 -0.0058590514 -0.02547193 -0.09290324 -0.10941999 -0.0491088 -0.067756966 0.05570563 -0.015316645 0.07538224 -0.068809 0.01745148 0.008193681 -0.011879043 0.00782451 -0.0028224466 0.060002368 -0.04365761 -0.009855689 -0.20915593 0.019961942 -0.0041479273 -0.061392438 -0.08869837 0.010795072 0.04258182 0.017117001 -0.06077626 0.0054124272 -0.020296391 0.03826349 0.0047228443 -0.04123271 0.07861898 -0.003847802 0.01623295 -0.05141497 0.06393881 0.011032473 0.055148978 0.04577856 0.05149786 -0.003314284 0.005355308 0.113284774 0.12263498 -0.11747323 0.11505448 0.06842259 -0.015042062 -0.004714417 -0.028104058 0.1455867 -0.060598277 0.008055087 0.030227402 -0.044018555 -0.06979056 0.03583715 -0.025212048 -0.08204013 -0.11794657 0.10099368 0.0030388834 -0.14191654 0.06947068 -0.047318857 0.018970484 0.10378444 -0.34077632 0.03712659 -0.05449359 -0.09690198 -0.173888 -0.025549753 0.04072518 0.012631569 0.044601846 -0.10913229 -0.06750028 0.003360743 0.14960346 -0.015204886 -0.00964779 0.028078524 0.14757611 -0.12871581 -0.0051628132 0.06346066 0.15397173 -0.041087344 0.060215887 -0.070539884 0.002489663 -0.00042918941 -0.010183262 0.022474164 0.00208128 0.0046588625 -0.0043723322 -0.1694262 -0.1289727 -0.055121366 -0.04200346 -0.021729955 -0.113257155 0.03430612 -0.069773115 -0.05186164 0.06749204 -0.013247839 -0.091177985 0.011610624 0.041688066 0.061878208 -0.028392361 -0.097750336 0.016724898 0.041925725 0.0019698536 -0.036677863 -0.025653474 0.05290787 0.0031281107 0.0636608 0.15141267 -0.17487982 -0.1308367 0.089380324 0.04485192 -0.102312714 -0.004096973 0.05926149 0.039286718 -0.092073046 -0.037424643 -0.004734262 0.039251406 0.014055905 0.07807253 -0.020562401 0.073741205 0.05351538 0.012443059 -0.07435332 -0.075508006 -0.0017063979 0.043913856 -0.024773067 -0.050959405 -0.054045867 0.10173225 -0.041975774 -0.10324343 -0.005767551 -0.053131603 0.054170273 0.09117313 -0.06303838 0.2081385 -0.045541666 -0.009361764 0.031837407 -0.04850435 0.075519904 0.019094393 -0.037576023 -0.078129575 -0.03155518 0.043771796 0.18809243 0.117482364 0.035541877 -0.06907773 -0.067378476 0.0191784 0.0049597505 -0.07574266 -0.003618503 0.12307431 -0.023414029 -0.032960583 0.057015058 -0.0073089832 0.0664696 -0.06870226 -0.041740477 0.028960526 0.0669992 -0.08683266 -0.040276427 -0.15058433 -0.021163646 0.02804582 0.023351558 -0.08110728 -0.03913047 0.04066246 0.04650283 0.045467716 -0.07603224 0.0697282 0.2195532 0.032192517 -0.2353376 0.035089325 0.1065556 -0.031785335 0.06780107 0.06810482 0.051639766 -0.02858572 -0.015847543 0.021273987 -0.04435889 -0.0041344585 -0.1085386 0.02737749 -0.29052976 -0.0025863352 0.02390368 0.042825144 -0.054187555 0.054657817 -0.026734686 0.04585981 -0.00054294267 -0.13688809 -0.0945933 -0.1587404 -0.113849156 0.061556198 -0.09112199 0.014749663 -0.0355701 -0.017484618 0.10893237 -0.013694501 -0.042531364 -0.015075188 0.15811603 0.018926037 -0.014554556 -0.085372955 -0.16830508 0.07565919 0.09969423 -0.09978287 0.23761067 -0.095181696 -0.005100518 -0.0023174847 -0.0966984 -0.03649907 -0.011024845 -0.08257263 0.042358857 -0.06918742 0.047150105 0.037386388 -0.0021454473 0.15304302 -0.036841318 0.13346268 -0.06901313 0.23476842 0.005764007 -0.021241514 0.089807816 -0.024002457 -0.043583427 0.014954162 0.0277796 -0.035946134 0.018644629 -0.0730683 -0.04903175 -0.03288789 0.21824986 -0.029260606 -0.09407268 0.05547702 -0.0027229057 -0.060026146 0.058801852 -0.08675093 0.07986569 0.023884332 0.059629213 0.04637544 0.058602855 -0.17219476 -0.08781687 0.0009985715 0.017445803 -0.051021043 -0.065886185 -0.14158607 -0.02138642 -0.015366194 0.017164549 0.0542743 0.22493945 0.01003225 -0.08723353 -0.14937423 0.075954534 -0.069093265 0.052143443 0.059049554 0.0461091 0.059632108 0.12858404 -0.0803444 0.111533195 0.011822701 0.028491458 0.039639864 0.09454807 -0.056468993 0.023532968 -0.08733145 0.17241241 -0.036766067 0.05179905 -0.0708605 -0.06385496 0.04227667 0.109241836 0.05621068 -0.06335221 0.09241844 0.114050694 0.008536553 0.05310757 0.22703722 -0.09518243 -0.007810283 0.049786545 0.056945108 0.10610266 0.15975381 0.0053953715 0.0010610822 -0.14743303 0.027534883 0.09527556 -0.052480336 0.08041372 0.020529274 0.058261883 0.1095478 -0.022346016 -0.07627029 -0.03873749 0.09207864 -0.0047073527 0.040607966 0.098285176 -0.07151427 0.0335673 -0.19209619 0.11295063 0.0050190524 -0.016402991 0.029607462 -0.053849638 -0.17106834 -0.063264646 0.005899825 0.03796252 -0.09742189 0.10582379 -0.021042515 0.12422201 -0.07939478 0.10630943 -0.10257695 -0.0038818335 -0.12738848 -0.033538938 -0.057048753 -0.028169075 -0.0039079036 -0.1444906 -0.23106658 0.04308449 0.06458103 -0.08125422 -0.012346069 0.0063227396 0.006773125 -0.04435483 -0.054172523 0.02431441 0.06875605 0.056234308 -0.047327988 0.01619242 0.10855237 -0.04567525 0.051765498 0.048340473 0.026491512 -0.014433538 -0.1405947 0.07513814 -0.037017114 0.06429732 0.06003309 -0.071436845 -0.008531876 -0.05142149 0.1436957 0.10535934 -0.020160897 0.09105302 -0.04916243 -0.02367703 0.1499095 0.08395683 0.06624626 0.06826388 -0.009146573 -0.17946145 -0.07800664 -0.02188968 -0.098245814 -0.15443154 0.052387815 0.09656306 -0.0035113469 0.3255079 -0.012660362 -0.030532312 0.04365763 -0.14557791 0.015343806 -0.06747475 0.040015314 0.0387779 0.056587663 0.09083549 0.09577273 0.23938605 -0.021192878 -0.01819235 -0.041470584 -0.016750103 0.06619129 -0.034412615 0.016055001 -0.0049409964 -0.1594352 -0.009927269 -0.09466233 0.018105248 -0.0043105814 0.11194513 0.12249012 -0.026990924 -0.030843485 0.01833521 0.028592272 0.10970318 0.07759145 -0.07171764 -0.02829303 -0.0634761 -0.04340325 -0.0753601 -0.08485454 -0.03921495 -0.09869055 -0.00484519 -0.042298272 -0.12874083 -0.054648332 -0.06981694 0.078372225 0.107030794 -0.0098219495 0.15247941 -0.01067909 -0.033096816 -0.038904637 0.19056128 -0.026732776 -0.055008408 0.07583126 -0.030127376 0.007857998 -0.081170626 0.14164525 0.08481693 -0.083065525 0.093542665 -0.005823693 0.13873029 -0.05236483 -0.060101274 0.10267279 0.05693349 -0.04796327 0.030622998 0.08988495 -0.05791565 -0.090345085 0.0036648153 0.0706198 -0.07143284 0.05918115 0.1087216 0.059922628 -0.025517656 0.14186648 -0.059619177 0.07679688 -0.09260033 0.0735145 0.3128124 0.033599876 0.18259825 -0.008011528 0.17009676 -0.06332822 -0.123365074 -0.05642214 -0.019903416 -0.108726166 -0.02858537 -0.17105995 0.0024377862 0.020848392 0.051273495 0.034598414 -0.079942815 -0.010456795 -0.09890751 0.009820244 0.0791316 0.010181958 0.054768268 -0.18805192 -0.12630819 0.08073904 -0.012729018 -0.042972118 -0.124876566 0.07753212 0.084263735 -0.1120262 -0.050479878 0.05941521 -0.02270878 0.12738678 -0.034366455 0.11420073 -0.07115112 -0.051788006 0.103537366 0.007894968 -0.041237727 -0.07581719 0.10527961 0.051891625 -0.044842724 0.09365272 0.09233154 0.017463993 -0.0893854 -0.03854945 -0.06567679 -0.036135092 0.012490051 -0.10144036 -0.090612866 0.03749115 -0.05152545 0.06608982 -0.13900249 -0.096902184 0.035294563 -0.086182185 -0.0016080696 0.029086597
alasz 0.17449898 0.049512222 0.17572023 0.048202224 -0.08633194 0.027555557 -0.34962362 0.39586172 0.043207616 -0.048917033 -0.10406059 -0.011918763 -0.119545326 -0.027423501 0.111977085 0.16820657 -0.017553344 -0.04654875 -0.04499051 0.089063235 0.1773034 -0.020409307 0.14863493 -0.0620295 0.15557674 -0.053606763 -0.08179223 -0.1112214 0.08517731 0.1870799 0.11287233 -0.058975205 0.07353945 0.21965048 -0.12188363 0.026665535 0.06679264 -0.11661505 -0.16719955 0.106009275 0.12735693 -0.16832829 -0.19412127 0.054853756 -0.11829649 0.22833122 -0.12603414 -0.017602235 0.51227474 -0.08884872 -0.30302247 -0.24095784 0.11852121 -0.050506312 0.0066295406 0.075615756 0.15240864 0.020904614 0.20969896 -0.29931945 0.45432407 0.09785897 -0.34821358 -0.036707252 0.006650382 -0.36194202 -0.017347831 0.33906865 -0.010585736 0.38283134 0.07210472 0.19035198 -0.30960596 -0.33839422 -0.13923544 0.28548834 0.1387532 -0.062116116 0.23054625 -0.12778857 0.0431952 0.32168183 -0.17697603 -0.21068034 0.094885856 -0.11074421 -0.16943663 0.2904174 0.11740569 0.047365323 -0.015573478 0.18472578 -0.10458691 0.027647171 0.019587953 -0.05608958 0.13149951 -0.42915863 -0.1774122 -0.13994372 -0.07794475 0.17311455 -0.039273534 0.10823558 0.014208267 -0.17452247 0.09456993 0.2153872 0.1794845 -0.2857038 0.30210224 -0.06388169 0.07367606 0.026748575 0.17798248 0.020710902 -0.06373282 0.072310165 0.2322345 0.390538 0.02450705 -0.18421204 0.11365503 -0.1357565 -0.20007521 0.062094502 -0.11321935 -0.00945143 0.071422614 0.09893802 0.27285448 -0.23098072 0.1741895 -0.014620089 -0.008450497 -0.14554738 -0.04537926 0.066549286 -0.13185206 0.2625062 0.06061695 -0.16457526 0.31312242 0.2505966 0.4340633 -0.049517643 -0.17153879 -0.081635244 0.09448965 0.033079524 -0.089663945 -0.4527831 -0.28827477 -0.19071601 0.0039621787 -0.036377814 -0.32114643 0.2033254 0.15273854 -0.34439218 0.39068657 0.24701695 0.02671329 0.12807792 -0.18042825 0.38041484 0.10504474 0.10354832 0.11707278 -0.07891382 0.10728836 0.1098694 0.13574602 0.35147774 -0.20540251 -0.2798328 0.058509145 -0.12307161 -0.030836776 0.27703828 -0.08116916 -0.26643288 0.24595082 0.02224991 -0.38072467 -0.109905854 0.045094106 -0.17151411 -0.119332455 -0.102432445 -0.040484186 0.02373385 -0.059795167 0.2002616 0.02491893 0.2603651 0.07389908 0.5679447 0.043317705 -0.13154876 0.066422366 -0.17398599 -0.16278054 0.097899824 0.20639619 0.15795669 -0.12048132 0.2609707 -0.06616705 0.43376097 -0.06267987 -0.19934979 0.08506797 0.5362561 0.109130725 0.12985127 -0.11904365 -0.11881389 0.121851735 0.16716544 0.044643153 -0.39590633 0.043268397 0.30294403 0.0020814838 -0.46435663 -0.03985967 -0.058508605 0.06546332 0.16785651 0.13925943 -0.008673374 -0.15162192 0.22172694 0.25251445 0.00974269 -0.2674313 -0.1712786 -0.06030909 -0.07623434 0.11901737 -0.012250397 -0.027160501 -0.45881543 0.08128273 0.08492601 -0.16102897 0.23775512 0.0058196657 -0.0029837845 0.33825544 -0.17765613 0.16783299 0.20784405 -0.0038409147 -0.40008855 0.09727127 0.17430747 0.14005555 -0.4083054 0.16433445 -0.3583583 0.1318252 -0.059229437 -0.09151857 -0.115513496 0.38697702 0.40568537 0.2600477 -0.119266085 0.3066179 0.2561683 0.27033287 -0.04653124 -0.27591807 0.07089178 0.12836984 0.054476853 0.030474162 0.20604847 0.11790715 0.12713714 -0.40685683 0.067113616 0.05381343 -0.046084847 0.14725801 0.14500432 0.24942762 0.016239606 0.1449598 0.013428865 -0.32684132 -0.009222506 0.012236979 -0.094978385 0.24308538 -0.006531744 0.013477958 0.052771796 0.2200104 -0.11364949 -0.03603936 0.12151275 0.27045426 -0.011093492 -0.070514336 0.018193739 -0.00071429013 -0.16185412 -0.27466813 0.20652431 -0.10039791 0.026679171 0.11571497 -0.2356936 -0.008759005 0.10590853 0.12682769 0.11157035 0.27294743 -0.32883278 0.2605852 0.1165413 -0.015592286 -0.16305245 0.3306643 0.038792912 0.09468565 0.09259434 -0.021842178 0.19898441 -0.10138686 0.43900555 0.06515533 -0.017544376 -0.38878655 -0.019400144 -0.17708 -0.1407479 -0.026079597 -0.023768902 0.25748727 0.16243571 -0.15381455 0.20908141 0.13774459 0.07219167 0.25153157 -0.15335785 0.024911962 0.20078063 0.08812444 0.12624271 -0.034814056 -0.26112005 0.0042924928 0.033417113 0.2867446 -0.25666767 0.015318219 0.12423472 0.19961852 0.06305353 0.015453627 0.24965242 0.43521166 -0.12899067 0.29202592 0.36444694 0.14358638 -0.2788866 0.121418044 -0.21306346 0.04762827 0.24446796 -0.18408488 0.095124386 -0.06980126 0.28315338 -0.19257408 -0.13586202 0.26535603 0.16267735 0.29981536 0.045233764 0.069097824 -0.0133166285 0.07895299 -0.5053354 -0.090931565 0.12929694 0.15979172 0.030293236 -0.05046832 -0.17868344 -0.037711065 0.263584 0.1366083 -0.2138835 -0.14310384 -0.11167132 -0.34886608 -0.17944607 -0.15670843 0.20986757 0.4536023 0.3105815 0.37901962 0.19645916 0.32509238 0.08365829 -0.31454253 0.24175757 -0.022122912 -0.1572587 -0.2822979 0.15906519 0.18704346 0.00048987824 0.2849258 0.29740658 -0.18662041 0.10837836 -0.04714292 0.045379147 0.13813125 -0.15108688 -0.11168735 -0.05761945 0.18046504 -0.013381772 -0.057524484 -0.29668117 -0.07788711 0.08221126 -0.0162573 -0.05013419 0.23730704 0.053352583 0.17709886 0.14838873 -0.109383784 -0.22590938 0.17919011 0.07048317 -0.22241639 -0.062375635 -0.14662571 0.057740707 0.35029438 0.07930347 0.20441392 -0.03347596 -0.020997455 -0.17797923 -0.2068502 -0.06718535 -0.01972954 -0.48792502 0.16963059 -0.13217892 0.3485229 -0.009702651 0.3003493 -0.26663157 -0.058228202 -0.18394956 0.08512283 -0.2794599 0.087567344 0.2378601 0.16424257 -0.07182391 0.14765477 -0.10573595 -0.032669164 -0.08407143 -0.24035585 -0.048709426 0.035578072 0.08055571 0.0057985676 0.047359295 -0.118277796 0.26539087 -0.38704166 0.3246072 0.04834695 0.03466352 0.16060887 0.09728272 0.05959079 -0.06668179 0.10476368 0.010542138 0.29787838 -0.20610724 0.2830055 0.21024774 0.1330557 -0.027969783 -0.14062065 0.2288357 0.3166172 0.21997778 -0.13721402 0.044686265 0.23094366 0.2762099 0.34647918 0.48607555 0.14343931 0.048194736 -0.23201163 0.111502916 0.2644657 0.1467026 0.28263882 0.4087312 -0.04365725 0.17506914 -0.1789826 0.113026224 0.20659323 0.064381845 -0.020051038 0.11092272 -0.11927093 -0.033673525 0.23320602 0.10897355 0.06703338 0.11135496 0.39566645 0.07622106 0.16937704 0.061106626 0.059610594 -0.093757145 0.1423879 -0.6088006 -0.1566369 0.1370597 -0.17094147 0.17367932 0.066143624 -0.010995945 -0.08136987 -0.038727716 0.19081493 -0.06632198 -0.16884515 -0.11493652 0.089415334 -0.14254355 0.023648635 0.10063424 -0.08896405 0.11180849 0.177518 -0.28458786 0.036895234 -0.25352713 -0.12320685 -0.16391662 -0.11968164 -0.11239238 0.19582321 0.16264917 -0.25229463 0.118160084 -0.33059603 0.282267 -0.26676065 0.069854885 0.120104335 0.12610525 -0.010264371 -0.18574594 -0.120355256 0.13408421 -0.08335545 0.28687832 -0.08988484 -0.17044678 0.23389852 0.05972965 0.85823363 -0.10071896 -0.20979454 -0.07519194 -0.1661645 0.08203487 -0.13320139 0.18681328 0.12009881 0.31289846 0.16982703 0.1384239 0.45271862 0.21989757 0.11680643 0.02485094 -0.14926845 -0.16780888 -0.04731183 0.08589696 -0.041395046 -0.063782044 -0.06908224 0.266212 0.07994403 0.04300212 0.27921423 0.091065936 0.062023234 -0.062377006 0.24130371 0.0019836714 -0.10030357 -0.020554766 0.19739403 -0.03295495 -0.028285112 -0.088299915 -0.74876964 -0.35507017 -0.17800209 -0.07135891 -0.12261026 0.019904785 0.07637015 0.06599408 0.025487693 -0.33632967 -0.066074975 -0.16334294 0.2868195 -0.19541748 0.4848957 0.060762383 0.24658534 0.08159761 -0.05068899 0.009599171 -0.12964442 0.29459432 0.35775882 0.16837457 -0.020510053 0.1698273 -0.029799925 0.37484136 0.13459213 -0.21472457 0.31447813 0.11833178 0.2863506 0.0840432 0.010687273 0.28984112 0.2546414 -0.25843897 0.17713147 -0.13693988 -0.04660376 0.14045133 0.17916217 -0.1260087 -0.10229486 -0.03481255 0.112915464 -0.23142007 -0.36044285 0.15351191 0.17111847 -0.13586882 0.07129185 -0.078653425 0.047371548 -0.1324499 0.3270589 0.50508624 0.0828884 0.24238162 0.1707627 0.02013765 0.40638828 -0.044954363 0.06615781 0.08411309 -0.061777513 -0.2682673 -0.25062692 0.12012093 0.18565765 -0.80646104 0.11808161 0.04202237 -0.036610004 -0.066259675 -0.18478751 0.1617004 0.21739884 -0.22122055 -0.0016822307 0.06570873 -0.17931135 -0.17354208 0.1849508 -0.011964292 -0.18735662 0.008282128 0.3566 0.2786471 -0.08179746 0.07677809 -0.02107409 -0.03253871 -1.2296268 0.009136105 -0.17811508 0.2082266 0.310598 -0.020836463 -0.081084184 -0.2855284 0.43045163 -0.13956198 0.30648166 0.08728989 0.30717784 -0.26504293 -0.107365295 -0.2927847 0.19746347 -0.17660575 -0.012333742 -0.48338786 -0.20019361 0.07119472 0.13164364 0.086930566 0.042249747 -0.28580067 -0.018693764 0.10088583 0.22449863 -0.010264925 -0.036801223 0.19983713 -0.045047864 0.1364431 0.22836363 0.12032919 -0.21961597 0.15708685 -0.4091802 0.3388684 0.102352604 0.025069725 -0.09593736 -0.5205718 -0.10399457 0.33092472 0.24579574 -0.011934743
alba -0.054194454 0.046367392 0.28265 0.03961721 0.3105734 0.23232193 -0.2533372 0.35095024 -0.20818701 0.20307903 -0.083807155 0.15430492 -0.074156314 -0.23735195 0.24194969 0.15548877 0.05548644 0.09761631 -0.056957506 0.17805704 0.35149023 0.09238954 -0.023787418 0.16793032 0.0065192417 -0.18326011 -0.042625822 0.019829528 0.33703944 0.2673419 0.054789044 0.028065883 0.13394271 0.2998613 -0.05298442 0.1802601 -0.101954386 -0.011507811 -0.23375306 0.09473294 0.31511024 -0.113380626 -0.07816664 0.14767091 -0.09391108 0.055783164 -0.17530563 -0.03514279 -0.39234948 0.11391647 -0.3878838 0.081034414 0.13031514 -0.052970123 -0.053217366 0.03209273 -0.058448926 -0.18375035 0.26032344 -0.29637933 0.034627043 -0.08046913 -0.39378214 0.04790388 -0.22082575 -0.121517494 0.0808665 0.64960325 -0.29216823 -0.66790485 -0.044629272 -0.047201462 -0.27128905 -0.37819695 -0.13627756 0.18288794 0.18826833 0.12942237 0.052134976 -0.19807427 0.0028279924 0.38405517 -0.2702826 0.2679462 -0.3085672 -0.03084987 -0.3853913 0.31654114 0.13437499 -0.47208276 0.21885389 -0.01792297 0.30085456 0.31118703 -0.07819657 -0.117539115 -0.2719791 -0.3113874 -0.16642576 0.06702489 -0.060248222 0.27948624 -0.13781154 0.12946104 0.33724228 -0.32373342 0.26689664 0.08469499 0.2101449 -0.09129988 0.2331878 0.13806485 -0.24539088 0.005729607 -0.008454392 0.027479587 -0.11911109 -0.34943455 0.13908705 -0.15585984 -0.06807035 -0.1692612 0.4197501 -0.24491414 -0.0967793 0.1417146 0.1508195 0.25814685 0.009550741 -0.21636014 0.3460715 -0.014565121 -0.045026693 0.042736363 -0.09940527 -0.041691057 0.23203054 0.10069552 -0.11092061 -0.19367434 -0.34973714 -0.18475717 -0.17131779 0.39842883 -0.6249414 0.07335626 -0.06377271 -0.06889562 0.02543474 0.3331585 0.11578849 -0.49186522 -0.4294512 0.1348639 -0.05422065 -0.029599087 0.19281152 -0.20069729 -0.09501836 -0.21188815 0.43925026 0.074533276 -0.061464205 0.45433477 0.09836395 -0.029572515 0.2940852 -0.025453804 0.40455577 0.105702505 0.116710685 0.24176277 -0.11847555 -0.0038841567 0.044602834 0.16657595 -0.45485616 0.3149824 0.09711748 0.21960412 -0.07274857 -0.16150206 0.26690304 0.08584416 -0.18850546 -0.12584108 0.07862983 0.08590143 -0.23654082 -0.30563897 -0.27293986 0.06261985 -0.14414047 0.17943698 0.009804842 0.047326848 -0.15131174 0.3638202 -0.5458449 0.17541817 -0.65479934 -0.02238208 -0.11297642 -0.044978153 -0.0990774 0.053362794 -0.09633991 -0.15155418 0.40092218 0.13839446 -0.08252484 -0.38069713 -0.15203576 0.43238652 -0.1283286 0.44070694 -0.06349787 0.04215937 0.15971543 0.19897623 -0.17770037 -0.030585023 0.12302381 0.24272342 0.106077455 -0.15415156 0.16750394 -0.22800581 0.14041 0.42639494 -0.024461864 0.033953674 -0.05388034 0.16738214 0.15374559 -0.3091125 -0.043243133 0.039333854 0.09647995 0.063100696 0.044027198 -0.0068618786 0.3394637 -0.01325286 -0.06349408 0.017170284 -0.092862844 0.6648255 0.19309129 0.26899505 0.60155165 -0.183545 -0.026261259 0.19363491 -0.062314548 -0.095578544 0.13323073 0.28838983 0.19684207 0.8248777 0.053645533 -0.13741179 0.13500291 -0.03265501 -0.12403252 -0.14739522 -0.029852213 0.5497833 0.28635654 0.09828233 0.38468617 0.3434096 0.21613163 0.081628844 0.015773874 0.10803461 0.43953565 -0.064387895 0.0922759 -0.060699843 -0.28224584 0.29736122 -0.13527434 0.15010947 0.1598391 -0.08835313 -0.4284956 0.25309694 0.15311304 0.03310303 0.022753494 0.024098476 -0.07865285 0.2609387 -0.025792075 0.08053395 0.3353843 -0.027750487 0.026096264 0.09300976 0.099433266 -0.3539779 0.034610398 0.020973885 0.16444072 0.11591738 0.080032654 0.39841515 -0.18594794 -0.16362011 0.11188078 0.021153172 0.012532124 0.11422305 0.057869986 -0.10029453 -0.062473573 0.048534833 0.24490237 0.11043078 -0.10608446 -0.02839164 0.047868796 0.082529254 0.30544633 0.1987148 -0.11790749 0.17733182 0.13603237 0.077711515 -0.112663984 -0.013553312 0.1757912 0.10098816 0.22385313 0.052152313 -0.05699087 0.17549294 -0.07948624 -0.0077573964 -0.095775604 0.42843035 0.012046308 0.5204565 -0.23051736 0.10368447 0.44980982 -0.05321116 0.10659365 -0.24905401 -0.0645544 0.0605238 0.08802959 -0.16410889 -0.015654996 -0.054476205 0.016648643 0.07490069 0.5871686 -0.05627749 -0.12212923 0.26347414 0.14443168 -0.32623225 0.21248767 0.42617518 0.24126281 -0.059346553 0.054438874 0.4247232 -0.0051589864 -0.4419967 -0.29408166 -0.1258826 0.0012830778 -0.025297165 0.15069517 -0.31882876 0.3457089 0.23280199 -0.037685905 -0.08281753 0.21337815 0.07708038 0.3006563 0.5152108 0.010799308 0.21051514 -0.21080273 -0.5956311 -0.038527105 -0.028752927 0.13352391 -0.08654438 -0.09672559 -0.07214297 0.00020358978 -0.09454283 -0.23101212 -0.24342887 -0.06829063 -0.40367973 -0.07987784 -0.34512037 0.04178668 0.28724453 0.16684876 0.15294616 0.10529946 -0.1659832 0.088942334 0.09736354 -0.30807528 0.0016985018 0.049684003 0.06217032 -0.2780571 -0.39384466 0.23765908 0.16827984 0.12067822 0.3133181 -0.1180945 -0.36627987 -0.086268514 -0.07355398 -0.20657517 -0.05696253 -0.14929849 -0.20729914 0.10584866 -0.052324772 -0.14171192 0.3565216 -0.2501013 -0.25506076 -0.2386962 0.10504821 0.34256917 -0.08076558 0.25966173 -0.03583604 -0.16415852 -0.08057966 0.18162951 0.0155730415 0.07710335 0.24043472 -0.0390567 -0.17593831 0.4993259 -0.0060439566 0.20124824 -0.5415209 0.01960165 0.05089668 0.08665215 0.165883 0.42669895 -0.435273 0.21191482 0.1887849 0.078805044 -0.116677664 0.17406315 -0.13675554 0.19058165 0.41979283 0.02658621 -0.13570069 0.45164922 0.024905663 0.19121662 0.00091806176 -0.17499542 -0.09496559 -0.015589686 0.2236041 -0.19060157 0.24543276 -0.22203985 -0.28055784 0.111197166 0.2695353 0.3852805 0.24170652 -0.41788906 0.03837186 0.19735746 0.082083605 -0.36188453 0.33472046 0.12996534 -0.024455823 0.22791696 0.38105747 0.310047 -0.1671381 0.17952035 -0.40435025 0.38472825 0.09497222 -0.08181877 0.10003259 0.26484832 0.07192979 0.11868136 -0.06409225 0.04169359 0.29239163 0.2599314 0.1075936 0.3967246 0.07255848 -0.060464375 0.068172544 -0.43738312 0.0016625177 0.005679517 -0.36832714 0.06278385 -0.047785297 -0.16374622 0.21026565 -0.033975743 -0.090341285 -0.24759187 -0.031419218 0.06418952 -0.07982649 0.3517309 0.11380919 0.025348477 0.015291814 0.19743693 0.13302822 -0.37998977 0.33450544 0.23146372 -0.29945672 0.13063335 -0.04023249 -0.14053535 0.06922509 -0.2191027 0.012892406 0.2858843 -0.20875427 -0.11451384 -0.05837866 -0.028066577 -0.10281732 0.109775975 0.178128 0.17132252 -0.05564358 0.10167191 -0.4251994 0.102083795 0.26475117 0.15235145 0.21301939 -0.2659545 -0.1201579 -0.02984152 0.13935782 0.33246097 -0.4030391 0.3598302 0.3807941 -0.25180522 0.066457085 -0.013428839 0.1932886 -0.17808057 0.32333413 -0.026592664 0.20520428 0.04465665 0.09993256 0.3329875 0.22898416 -0.021859813 -0.073886946 0.24800362 0.14062454 0.23517573 0.012708466 0.16572411 -0.1223865 0.043076012 -0.09189618 -0.44847617 -0.18427588 0.17515436 0.33234116 0.4129043 0.35884508 0.097024806 0.2795929 0.2363096 0.22655606 0.18301597 -0.05497698 -0.17688067 0.37515113 -0.019038692 0.35313773 -0.009074829 0.32261926 0.13413677 0.3713159 -0.13084307 -0.043627042 0.32525235 0.21102618 0.41045064 0.231489 0.19180554 0.123588055 0.024622148 0.12761232 0.09991961 0.09933268 0.105388366 0.3288634 -0.094890855 -0.1311492 0.05541088 -0.2371636 0.17839628 0.2770059 -0.4513465 -0.20496829 0.03266072 -0.26141176 0.28749594 -0.06468177 0.29952878 -0.72729975 -0.0343082 0.22313336 -0.05251733 -0.1508847 -0.13285904 -0.31009197 -0.20375536 -0.0077614174 0.25126764 -0.20540833 -0.15026222 0.23875302 -0.11456816 0.021005511 0.021867916 -0.42111617 0.20786108 0.107233986 0.42307726 -0.6537159 0.06819505 0.2522834 0.20866007 -0.06493361 0.33144078 0.25030756 0.020001017 0.12255393 0.21439329 -0.007928349 0.35172936 -0.12569627 -0.09995638 -0.07828404 -0.06151637 0.28393635 -0.03354394 0.113604195 0.10961215 -0.27716216 -0.0064681657 -0.10630237 0.23994416 0.03134952 -0.012213301 -0.20202994 -0.051473256 0.4372688 0.19223477 -0.12758178 0.38954023 0.10104343 -0.07574373 -0.096336804 -0.14409897 0.14697096 0.34585103 -0.20907299 -0.06820858 0.123760834 0.25985628 -0.40269095 0.07332938 0.41439512 0.22931768 0.29879642 -0.14339292 0.100575276 -0.4582994 -0.3027762 -0.17209436 0.029227631 -0.39442027 -0.082712166 0.28205627 0.37370247 -0.23958854 0.19211729 -0.04039284 0.0765879 -1.0485024 0.10632536 -0.0587738 0.059993647 0.112917155 -0.6580562 0.05818501 -0.085418336 -0.063036464 0.21463932 0.050838005 -0.044464022 0.28500217 0.045523852 -0.1251295 -0.077115916 -0.012580411 0.20781709 0.023534944 0.101788625 -0.22793587 -0.050026942 0.04081745 0.34650102 -0.2538394 -0.25288644 0.07107269 -0.04729064 0.20403402 -0.15504242 0.07983418 0.2343819 -0.23829368 -0.058636956 0.2912552 0.09905849 -0.2758509 -0.38898265 -0.38839713 -0.034127336 -0.13507336 0.44401187 0.060036153 -0.2506175 -0.17729668 0.21393427 -0.0081741465 -0.11876615
alfabet 0.2669616 0.14698915 -0.05191833 -0.31453598 0.2604692 0.12064925 -0.07099081 0.22697707 -0.19392347 -0.023634024 0.100848734 0.077480935 -0.075236246 -0.16400681 0.16311023 0.12297911 0.045042984 0.23415901 0.15465058 0.088684775 0.09350863 -0.28469864 0.16612937 0.0070067337 -0.052624803 0.1318437 -0.06316265 0.23321472 0.19908117 -0.0013357826 0.27101627 0.21452749 -0.043677434 0.05499398 0.29798466 0.24045114 0.093862474 0.3164747 0.1388417 -0.29740053 0.32026893 0.14475857 -0.23532945 -0.1126482 -0.33494657 0.061976727 -0.12556645 0.16833243 0.14163361 0.31733802 0.012844407 -0.22627297 -0.20899062 0.03870658 0.16607003 0.07333251 0.16478798 0.32086304 0.033949494 -0.0025788685 0.08602624 -0.004252734 -0.20698728 -0.24171606 -0.02444248 0.012360491 0.013405165 -0.116247304 0.024519257 0.4099291 0.03693863 -0.105737895 -0.24784367 0.051235814 -0.07856676 0.09718285 0.17264417 -0.13777658 0.052911367 -0.091538474 -0.2670449 0.06972331 0.18262312 0.16404358 -0.3378394 -0.0073796827 -0.038551506 0.06121595 0.13799894 -0.1240079 -0.15045014 0.1860515 -0.16916743 -0.07579584 -0.12770945 0.36281064 0.09993022 -0.010575826 -0.36045188 0.0075688176 -0.01243178 0.19448432 0.17027783 0.1889196 0.13099447 -0.15346694 -0.13512148 -0.16071579 0.14869483 0.06622588 0.029234117 -0.086522415 -0.155793 0.14414266 0.027820494 0.041688375 0.11334855 0.25522184 -0.038366206 0.14262933 0.15838997 0.074021555 0.018407969 0.035564512 0.11015555 -0.042166788 0.15488198 -0.12970966 0.124337174 0.063952185 0.0009948906 0.08936276 0.025125604 0.05325351 0.0061788885 -0.18910891 -0.27638778 0.25273597 0.16452925 -0.11556406 -0.043598678 -0.017881988 0.11576824 -0.0016045229 0.3658143 -0.10876061 -0.035347074 0.07060964 0.07340221 0.2559998 -0.18089142 -0.31600103 -0.23071425 0.19118513 -0.012959358 -0.05586304 0.091456 -0.10910461 0.188255 0.05550746 0.06898199 -0.0046003023 -0.16159955 0.071003474 -0.17667562 0.080330305 -0.107426524 -0.035998918 0.18802638 0.24822842 0.05613801 0.16527888 0.32152486 0.46065855 0.22648592 -0.24575284 0.0027448202 0.07975946 -0.06374523 0.012033229 0.08458657 -0.3635947 0.14510746 -0.16528863 -0.39351785 0.11877887 0.40162513 -0.63615465 -0.032899775 0.022627795 -0.06764306 0.28533506 -0.18082057 0.14808676 -0.18968782 0.19674951 0.11841297 0.3236742 -0.3434137 -0.032535158 0.37020782 -0.054385472 0.1989686 -0.17882293 -0.054082427 0.27474156 0.12647714 0.089066505 0.2777595 -0.05654854 -0.28671396 -0.31886432 -0.09174477 0.36884165 -0.047484607 -0.0952538 -0.48044932 0.030638993 0.031024002 0.13714065 0.10585734 -0.17507774 -0.2066388 0.25420114 -0.3530508 -0.30402738 0.23452717 -0.07520266 0.1243367 0.26517585 -0.14411937 0.20223004 0.08511232 0.124046594 0.20836942 0.20389438 -0.11066825 -0.3597759 -0.058882643 -0.13168764 0.009798441 -0.07157038 0.039088495 -0.041926976 0.012480475 0.0784628 0.011094074 0.32361996 0.06604312 -0.015837401 0.16073224 -0.10031347 0.19616798 0.24586971 -0.17002088 -0.121343024 -0.10623849 0.061689816 -0.1196745 0.089225866 0.08180315 -0.41768402 0.13098508 0.1467835 -0.0032782916 0.0002490498 0.26843658 0.26609558 0.20113853 -0.48704663 0.029796528 -0.16964133 0.39466798 0.25205737 -0.15686351 0.31481883 0.2088326 -0.047017805 -0.015823953 -0.107698806 0.06637962 -0.027032701 0.07178228 0.21528046 0.46197563 -0.05138555 -0.038747273 0.09742958 -0.051288716 -0.09103101 -0.1518317 -0.07035543 -0.22396001 0.3071305 0.2220322 -0.17019926 0.4080674 0.17007531 -0.18030784 -0.09439742 0.23502539 -0.0016762707 0.0017586062 -0.19584407 -0.06765039 -0.083307765 -0.11306131 0.04397818 -0.05063121 0.035375226 -0.19395825 0.3013741 -0.011656431 0.26877233 0.14873774 0.0024687834 -0.10379477 0.035358816 0.36095062 -0.028830463 0.051458657 0.033751015 0.44750318 -0.021887532 0.035494335 0.1159458 0.29874057 -0.2284755 -0.06780834 -0.107894026 -0.3504455 -0.09473666 0.09540868 0.22326794 0.34818807 -0.1715162 -0.38768548 0.11006233 0.2118563 -0.2184637 0.13983011 0.048720717 0.0858251 -0.10041713 0.044331245 0.21491362 0.020685425 0.08711144 0.027906857 0.19865827 -0.13648637 -0.037440855 -0.28688356 0.20117792 0.21565272 -0.20125547 0.09457552 -0.04951209 0.13569638 0.099781536 -0.17029276 0.06668605 0.26009583 0.07155653 -0.10549685 0.14623176 0.05412502 0.13552055 0.116711624 -0.23035769 -0.20301011 -0.0446226 -0.079965815 0.17661072 -0.07574955 -0.092970625 -0.22402307 -0.08690051 -0.114130005 0.020302672 -0.18136977 0.017593803 0.19392277 0.13745604 0.24811941 0.16653012 0.13910443 0.16507466 0.028212402 -0.34314984 -0.26574627 0.22533844 0.10733812 0.109416336 0.013387249 -0.026619878 0.04157342 0.111732826 -0.017728733 -0.11587464 0.045035586 0.13169833 0.16172254 -0.2505011 -0.11547836 0.34553546 0.025710022 0.059439838 0.02341453 0.042697567 0.13072824 -0.130439 -0.085057534 -0.15239689 -0.38242292 -0.007781909 -0.12985207 0.08002773 0.0986112 0.041761503 0.1010203 0.094283335 0.05878237 -0.17269278 -0.24156307 -0.04156434 0.06698691 0.26961717 -0.1574781 0.005208832 0.015600761 0.047300998 0.17848665 0.042146735 -0.08336482 0.027354278 0.0061204713 0.31244698 0.037524775 -0.13053854 -0.12650652 0.02797196 0.25503325 0.13761245 0.004856348 -0.049891423 -0.056096107 -0.027432917 -0.17219341 0.35183007 0.29655272 -0.1946266 -0.065337814 0.23521617 0.06692295 -0.025381869 0.020339413 -0.09452506 -0.15831079 -0.40084895 0.11815468 -0.09405425 0.20768817 0.07358075 0.08507012 0.11826003 -0.13340448 -0.061830875 0.38772556 -0.15329885 -0.03448526 0.1898236 0.23988917 0.023834186 0.26736528 -0.01800519 -0.09898012 -0.1588226 -0.2182566 -0.18858384 0.31809333 -0.05312714 -0.17839609 0.11119415 -0.06072223 0.25942454 -0.19356073 0.08738567 -0.018561346 0.18967913 0.11601406 0.20184419 0.2617838 -0.7119587 0.38855416 0.050277144 0.16444555 -0.044212356 0.25599337 0.10139144 -0.06692366 0.09683079 -0.10274311 -0.10044424 0.329906 -0.019876959 0.15999237 -0.060602956 0.078120194 -0.09529316 -0.08053063 0.28707957 -0.10962322 0.10605432 -0.20459281 0.17318544 0.18330441 -0.14855033 0.13794634 -0.050102774 -0.21280168 -0.20072693 -0.06633799 -0.08600625 0.08711759 0.08549798 0.27756408 -0.114472575 -0.056683928 -0.011798846 -0.20659928 0.039363366 0.059010103 0.18500222 0.26199177 0.21640083 -0.2342532 -0.058606215 0.19096994 -0.3751667 0.09801776 -0.5255359 0.122705005 0.20456493 0.047810152 -0.062081162 -0.0048431573 0.031469103 0.037780467 -0.19705997 0.13862365 0.27600715 -0.10053289 -0.08132214 -0.08087957 0.097912066 0.07477372 -0.086328715 -0.13213393 0.14402089 0.23905195 -0.22096893 0.029481417 -0.11196961 0.027129045 -0.006797834 -0.016872426 0.17837481 -0.14422828 0.048748944 0.3031651 -0.1797222 -0.2717256 0.06997327 -0.012389715 -0.07785255 -0.04971695 0.08469821 0.18696642 0.022321086 0.03412388 0.2285377 0.0145454975 -0.0020993464 -0.035498593 -0.032313954 -0.093991995 0.018457174 0.6015541 -0.21666723 0.39745796 -0.013924171 0.481525 0.21426056 -0.09944181 0.15314366 0.051303435 0.23164083 0.24326363 0.21727638 0.09797727 0.18904784 0.09701749 -0.14715993 -0.09362916 0.29218748 0.19420454 0.1878892 -0.018636422 0.021881158 -0.011171405 0.11537621 -0.07242173 -0.18837598 -0.053062703 -0.38148665 0.33031675 -0.07323511 0.07930671 0.05874437 0.020715727 0.1774205 0.10133084 0.21205074 -0.04714298 0.006682541 -0.8838008 -0.38793442 0.15602352 -0.0037317986 0.016959602 0.035289712 0.22955675 0.078888506 0.22707058 0.04143942 -0.23905542 -0.1999386 0.20849843 0.2869158 0.16913843 -0.16214257 0.10197204 0.06458077 0.016531361 0.1449167 -0.059589256 -0.01653749 0.058825646 0.22819357 -0.09679396 0.3419106 0.17016973 -0.17570971 0.31119436 -0.1425529 0.5422825 0.2679257 0.16724643 0.10254712 -0.03553148 0.21625301 0.0019020635 -0.03461801 0.25415623 -0.023246901 0.06636622 -0.22127667 -0.054468885 0.002860551 -0.124318704 0.16376974 0.18344371 0.22131269 0.20836882 0.34064806 0.020723235 0.08213519 0.44143558 0.08793957 -0.18349451 -0.23744655 -0.06968262 0.34118167 0.3148924 0.22892246 0.14789544 0.1308428 0.30867046 -0.07315167 -0.14710517 0.11655678 -0.15759233 -0.33179715 -0.23523724 0.021139182 0.4177985 -0.48900953 0.21428542 0.0612137 0.0036746466 0.12310207 -0.09873048 -0.21319251 0.35274392 0.19804038 0.036475305 0.26160282 -0.3250363 -0.1149849 -0.3209305 -0.07059494 -0.13957071 -0.020326562 0.27782068 -0.14081243 0.13486187 0.0962015 0.02886049 0.100624576 -1.2146858 -0.19534086 -0.42024565 -0.0053451587 0.501215 -0.10563875 -0.5840854 0.20991197 -0.014913875 0.12240197 0.22807823 -0.31723735 -0.15090942 0.17845964 0.20314623 -0.4973103 -0.035710786 -0.015972137 -0.19896069 -0.28730488 0.0032002637 0.23697805 0.06823931 0.11172432 -0.21580878 -0.20534584 -0.10948318 0.24036182 0.35142702 0.018167764 -0.059676502 0.041272305 0.21202846 0.14346755 0.06905032 0.14479339 -0.2799812 -0.075307205 -0.011534242 0.20758027 0.024756681 -0.016387124 -0.08107699 -0.13124481 0.013947898 0.20771465 -0.090301566 0.08572634
altana 0.10272563 -0.0735059 0.09913627 -0.05809524 0.2667657 0.15565813 -0.39904958 0.118322715 -0.38515 0.050849512 -0.088611364 0.38128346 -0.29079244 -0.087365024 0.3962618 -0.12692092 0.07732226 0.31338957 0.21495247 0.26286358 -0.018525127 0.18442531 -0.012773833 -0.12000607 0.11430147 -0.33239493 -0.1928724 0.25308535 0.09583569 0.21238738 0.057212174 -0.17884822 0.05108516 0.20272169 0.12383717 0.30337918 -0.030650841 0.20580858 -0.23990294 0.13705666 0.07708777 0.037705474 -0.035805237 0.08067956 -0.3820693 -0.15639421 -0.22791198 -0.06747324 -0.6665708 0.16592795 -0.1289757 0.017761368 0.15364005 -0.29867584 -0.025042696 0.40589467 -0.014398915 -0.012064931 0.10897702 0.032716233 0.34710976 0.105958514 -0.3177871 -0.008970267 0.07704755 -0.5483064 -0.34841338 0.35327882 -0.37006712 -0.107393764 -0.1057632 -0.051272076 -0.198454 -0.4757317 -0.0912669 0.1457788 0.25836107 0.22788481 0.19307955 -0.31101543 0.015411171 0.2867303 -0.07601658 0.22510116 -0.22100443 0.03030132 -0.16581193 0.074881226 0.11633882 -0.19829805 0.1606643 -0.23929037 0.010025856 0.19005011 -0.2201663 0.19100717 -0.08330615 -0.2568552 -0.03720202 0.0844497 0.107095234 0.31236798 -0.15549071 0.14390622 0.23972896 -0.448045 0.000103892904 -0.012008615 0.15180787 -0.108170845 -0.018648062 0.109873496 -0.114474244 -0.053306025 0.010805418 0.0848123 0.16315313 0.08493112 0.052868176 0.06755329 0.10207855 -0.016199924 0.16338684 -0.48467788 0.1734589 0.18989757 0.177958 -0.076340646 0.13485548 0.092866 0.47247505 -0.15609233 -0.2470032 0.019502666 -0.14172088 -0.26483577 0.13363218 0.13080443 -0.17335504 -0.014751855 0.24214047 -0.2540754 -0.056414574 0.23090543 -0.07985085 -0.10845147 -0.16321966 0.1520157 0.08312621 0.21450208 0.09312407 -0.23982775 -0.21805815 0.22211027 0.0062510506 0.21515186 0.09182445 -0.38280445 0.038555358 -0.13672552 0.04554899 0.32556915 0.08529456 0.0806459 -0.032558065 -0.04517148 0.1594481 0.25732934 0.14655384 0.11450521 0.022287203 0.09274464 0.061082873 0.032973345 0.25661752 0.078474864 -0.2808741 0.24985434 0.2728692 0.25103235 -0.28040466 -0.2155632 0.22923948 -0.31603798 -0.32479534 -0.03161245 0.221076 -0.2750157 -0.07690837 -0.27845278 -0.2062848 0.2149714 -0.02412558 0.072659716 -0.088425696 0.041922566 0.03237563 0.42320687 -0.6072383 0.008489732 -0.21419549 -0.03819141 -0.14343809 -0.21278168 -0.13416582 0.1011511 -0.23567909 0.26874527 0.39471614 0.02094275 -0.0039826594 -0.5631985 -0.22952528 0.3340917 0.13522622 0.1353679 -0.16001384 0.13290332 -0.15047413 0.3553974 0.08529247 -0.24647738 -0.23009631 0.3136224 -0.027858056 -0.20692426 0.55532676 -0.24461749 -0.033761397 0.35536766 -0.0005564578 0.22729148 -0.1977574 0.18671586 0.30343428 0.07282376 -0.075253524 0.051847402 0.19524379 -0.17123662 0.24406135 0.0111333355 0.32768467 -0.045991164 0.11220328 0.21245344 -0.08205722 0.28429723 0.29591492 -0.10877642 0.57190055 -0.26880616 0.2704219 0.35876107 0.031265534 -0.12458173 -0.019002631 0.17300181 0.3143649 0.49682137 0.1563251 -0.3462416 -0.22904773 0.077988684 -0.3131897 0.10885005 0.16962871 0.41525418 0.22965558 -0.25246242 0.05631519 0.022509836 0.20581841 0.043306798 -0.18912086 0.2239503 0.33895606 -0.10161992 0.05120032 -0.41497117 -0.11845628 -0.03011639 -0.2000195 0.07982418 0.3787646 -0.053923137 -0.21252356 0.13512087 0.1918089 0.031487957 0.084787816 0.25065553 -0.32365847 0.35223788 0.11757601 0.11143694 0.20853601 -0.13123226 -0.29394343 -0.024807993 0.133709 -0.0155877555 -0.018318806 -0.0429186 0.25915623 0.008873784 -0.30024555 -0.005072312 -0.35064414 -0.1508107 0.04189366 0.12689906 0.34291393 0.3195975 0.33262417 -0.0428616 0.15694444 -0.12086472 0.451613 -0.05551661 -0.13328601 -0.032265093 0.47525784 -0.20409876 0.17192295 0.011688466 -0.15571055 0.012786915 0.51486194 -0.39444792 -0.16101216 0.06668309 0.26173463 0.23223013 0.14945073 -0.076817304 -0.14352207 0.09843811 -0.10640072 0.0111580165 -0.37093744 0.3121895 0.014068324 0.2448385 0.15482953 0.08842459 -0.010146739 0.14204323 -0.024976961 -0.005891165 0.069561966 0.14954805 0.27960262 -0.0006011406 0.14067996 -0.26772255 -0.15863702 0.08769497 0.61266434 0.00016095823 -0.00443271 0.23094998 0.09794435 -0.3057123 -0.0016449369 0.15164974 0.13909623 -0.13254775 0.19485001 0.15316446 -0.021494962 -0.15576239 -0.076643184 0.13564381 -0.13102868 0.014274816 -0.04736323 -0.04917398 0.4273635 0.044505615 -0.03026062 -0.20847678 0.514082 0.09444264 0.34253812 0.3638354 0.036885343 0.17531529 0.05477599 -0.33072472 -0.1404567 0.13428941 0.23493566 -0.08046823 -0.12859677 -0.12970461 0.08864198 0.29487488 -0.12015094 -0.2093915 -0.20473167 -0.25367856 0.117770575 -0.18006349 0.014304034 0.10611988 -0.030576475 0.097116396 0.0408423 0.18238387 -0.003351006 -0.14465214 -0.5747481 0.1717394 -0.19364156 -0.009834474 -0.41037932 -0.18126313 0.13961466 0.37169126 -0.09951763 0.1692399 0.058177188 -0.28005406 0.035318732 -0.030174024 -0.13935791 -0.022713892 -0.1884009 -0.29787868 -0.06745119 0.0692298 0.23217915 0.14950329 -0.17506118 0.07214678 -0.10011125 0.084626585 0.2744619 -0.08764788 -0.099241555 -0.13365388 -0.0674132 0.066304676 -0.12802143 0.05330161 -0.17780937 0.009729362 -0.39150158 -0.15812029 0.6472335 -0.12316421 0.12161152 -0.22165395 0.1896808 -0.08762503 -0.09331641 0.11819136 0.35257882 -0.22937524 0.12719657 -0.06926011 0.103414275 -0.060717985 0.31165904 0.15553528 0.0738976 0.18631348 0.18681677 -0.010567634 0.3918182 0.15538925 -0.2562556 -0.05982619 -0.10008647 -0.23818418 0.13600671 0.23831287 -0.26828763 -0.05484987 0.011773319 0.1188438 0.22696528 -0.02646064 0.30548438 0.40482134 -0.017507492 -0.06783941 -0.16233525 0.088738374 0.029431704 0.15327185 0.11823231 -0.46472096 0.2959161 -0.06799741 0.30075517 -0.05095945 0.16620836 -0.12037621 0.08275975 -0.10027987 0.06660573 0.08211761 0.26536775 -0.11804265 0.005403286 0.1127179 0.040600624 0.17866503 0.018582093 0.22403282 0.25984958 0.18911143 -0.15808184 0.19144063 -0.047424786 0.06897428 0.34420997 -0.05771106 -0.29857218 -0.2142721 -0.2814303 0.272373 0.19331257 0.0038932154 0.19552952 0.20505632 0.06545183 -0.047567587 0.02237371 0.12217432 -0.099766895 0.19511949 0.14405276 0.29506263 -0.2736318 0.19010928 -0.14351529 -0.46099886 -0.18291081 -0.2757469 0.12369521 0.464558 -0.19057226 0.006767986 0.19518757 -0.3400521 -0.098256566 -0.1725227 -0.13505717 -0.040327813 -0.13228561 -0.27343243 0.1058525 0.12936607 -0.054470822 -0.07587695 -0.045787778 -0.12570778 0.13086966 0.07017372 0.04708254 -0.21925762 -0.23121981 0.11306721 0.11209694 -0.37722018 0.11183028 -0.038656607 0.12764531 0.16394015 0.0022060429 0.58455807 0.042794317 0.25761884 0.06206924 0.29358643 -0.15444165 0.16904579 0.11219083 0.10354337 0.030120414 -0.056964982 0.023197679 0.24511373 0.019290468 0.12296131 0.6218735 0.01738955 0.15644197 0.023539932 -0.20490888 0.0058339206 -0.014179106 0.17515397 0.21981858 0.4739353 0.27510566 0.044780545 0.1442221 0.1514024 -0.040165283 0.0019429752 -0.1820906 0.18140645 -0.21442582 0.39821896 -0.29149336 0.3262544 0.2882885 0.26830724 -0.23160732 -0.06483612 -0.021934535 0.004177518 0.3367986 0.09581837 0.2182828 -0.04447529 0.08784517 0.16434222 0.29797453 0.42317674 0.074813 0.028894305 -0.34284598 -0.34726712 0.13113083 -0.18618323 0.26579237 0.20922416 -0.20876428 -0.1608229 0.14694579 0.045426983 0.09511149 -0.098712936 0.00065068115 -0.13354665 0.2928201 0.20494255 0.013921301 -0.25627717 -0.118773654 -0.2774377 -0.18817958 0.2961853 0.22460009 0.09657205 0.0936896 0.42377365 -0.020422582 -0.054637603 -0.016502801 -0.36101082 0.42965347 0.30436158 0.31733772 -0.15819336 -0.16911973 0.023424068 0.45594126 0.1833003 0.4120648 0.38721746 -0.094719954 -0.12584591 -0.041979183 -0.038835302 0.2610453 -0.08245642 -0.1124885 -0.009861558 0.08135568 0.08373505 0.19674675 -0.04209754 0.23186924 0.015381338 -0.052192904 0.12361695 0.25223452 0.16845901 0.13370548 -0.068902776 -0.00019740843 0.43069917 0.30803406 -0.021882713 -0.14309551 -0.11488884 -0.5061959 -0.03331905 -0.035667177 0.12775692 0.3239272 -0.38383272 -0.091111824 0.12276278 0.16462998 -0.18064421 0.0013704996 0.006102546 0.57540923 0.19525859 -0.32438254 0.20909303 -0.22251952 -0.16101912 -0.15989384 0.09386034 -0.3234758 -0.14613321 0.3582511 0.15527698 0.019920522 0.127359 -0.03070386 0.17688109 -0.9441594 0.07257808 -0.045948256 -0.11266988 0.11749604 -0.24521887 -0.318981 0.1552243 0.11859812 0.12963781 0.22730751 -0.1435549 0.20401435 0.124632776 0.23569033 -0.378309 0.039256938 -0.14732055 -0.1494377 -0.21755436 -0.44471887 -0.081892364 0.13011241 0.21123813 -0.10298414 -0.4273397 -0.33806488 -0.012895763 0.04675264 0.10714102 -0.19633877 0.103625976 -0.021911822 -0.045325316 -0.02778618 0.28135118 -0.22400986 -0.16822344 -0.48572427 0.008301921 -0.099149235 0.45779577 0.09671754 -0.28558683 0.062349167 0.31241632 -0.06351493 -0.052729834
amarant -0.063100405 -0.11991943 0.18761346 -0.025108144 0.3326812 0.06297862 -0.010367651 -0.53176934 0.06330092 0.078617975 0.13962668 0.008359002 -0.015890554 -0.02160435 -0.065343775 -0.08595789 0.04447971 0.13200544 0.31075191 0.044937488 0.32854342 0.28987163 0.059150312 -0.043219555 -0.08464907 -0.051775865 -0.12415641 0.014651746 -0.03521549 0.13746841 -0.28283253 -0.03279536 0.5126018 -0.071394645 -0.12606344 0.08755387 -0.09046912 0.08932489 -0.24845389 0.005634935 -0.20613368 0.43530107 0.007893509 0.28954074 0.11654214 0.08177832 -0.051822882 0.27938432 -0.26077393 -0.13686255 0.21865903 -0.06460354 0.23003444 -0.012777094 0.015265079 0.26010722 0.096919335 0.10661426 -0.07792291 -0.15681857 -0.20109998 0.28315327 0.082917854 0.11435727 0.030291155 -0.1120034 -0.13299227 0.18443067 -0.1451889 -0.08104973 0.05774292 -0.09445831 0.13727318 -0.06789197 -0.17009911 0.3136003 0.04316683 0.41659012 0.108973265 0.16899881 -0.049393784 0.006989916 -0.23223433 0.030194758 -0.05592861 0.13137446 0.08824087 0.24997471 -0.06261548 -0.0013992522 0.090180285 0.18629062 0.15026402 0.026033932 -0.10600321 0.07872951 -0.15197091 -0.3064024 -0.2678337 0.22188292 -0.12672646 -0.020784486 0.10181171 0.2201993 -0.032358132 -0.37286645 0.057595786 0.19037625 0.10737495 0.19078626 -0.007607121 0.068860054 -0.055876117 0.04861433 0.025259804 0.122039706 0.086099446 -0.28604338 0.2548401 0.11329728 0.08916277 0.2257325 -0.082071766 -0.1066788 0.02688002 0.17887057 0.029667763 0.081020765 0.09423852 0.4388441 0.101222135 -0.009983347 0.08415377 -0.09915776 0.017701162 -0.065688714 -0.027204972 0.047730222 -0.27309197 0.22534765 0.0057287 0.14467056 0.27532455 0.12979683 -0.0074437126 -0.35779798 0.19278516 0.07529476 0.2488949 0.21656713 0.11020873 0.22353765 -0.14853056 0.18594514 -0.13104117 0.27290723 0.14323024 -0.4096681 0.18713298 -0.24435058 -0.012067326 0.13541222 0.26357323 0.15196218 0.08866641 0.054060016 0.062681355 0.1770114 -0.04667987 -0.05055415 0.111828044 0.013132537 0.21769181 -0.052452486 0.06202662 0.16662394 0.049853615 0.164611 -0.16543558 0.4736095 0.23095514 -0.39958155 0.18642448 -0.15522233 -0.21143787 -0.04339722 0.05598416 -0.16443118 -0.17161931 0.0074898745 -0.10076472 0.23119043 0.088222 -0.08052382 0.08550541 0.22065295 0.122102804 0.061839815 -0.059592217 0.07598296 0.024619479 -0.2231007 -0.15273367 -0.112153314 0.094454266 0.22085892 -0.027969906 0.049505644 0.015330372 0.17960228 -0.16635433 -0.32418928 -0.0025112545 0.04671143 -0.043942086 -0.13181107 -0.10644493 0.062368974 0.14757566 0.4308218 -0.14056872 0.06783822 0.17208743 -0.022620743 -0.14321834 0.2562333 0.073480584 -0.02020746 -0.10598903 0.15884297 0.17186032 0.21932425 -0.1727994 -0.007295242 0.1244241 -0.118279554 0.36459732 -0.08531885 0.17921542 -0.5150019 0.017330747 0.177079 0.33298546 -0.3867208 0.065951794 0.08595652 0.045559317 -0.020329969 0.14138976 0.03196785 0.17845424 -0.102177344 -0.053162094 0.06289999 0.15172969 -0.111252084 -0.04206484 0.12683897 0.27260026 0.036927193 0.19248955 -0.4899827 -0.16384992 -0.12134848 0.15935619 0.030089565 -0.13834535 -0.020606758 -0.06656192 -0.4756903 -0.09901108 -0.14960457 0.27165 0.05969785 0.086157784 0.23277907 -0.040943824 0.17202917 -0.16632244 0.047550302 0.107648216 0.013253938 -0.078546144 0.14469378 0.031580526 -0.042917516 -0.11827301 0.14350335 0.19869609 -0.15146767 0.33732697 -0.14735883 0.154815 -0.07313971 0.017534459 0.031590857 -0.01722195 -0.11102588 0.019045828 -0.15157643 -0.46759403 0.06444275 -0.22707129 -0.27095118 0.053052697 0.08793848 0.10552494 0.024872096 0.20118842 0.07333124 0.2502401 0.13616607 -0.15106735 0.0775351 -0.040730093 0.066355854 0.42425695 0.107545115 0.104615286 -0.05433314 0.116715305 -0.22850314 -0.023068517 0.019416312 0.36786932 0.0027395461 -0.11674723 0.13825746 -0.0014918586 -0.3692861 -0.027153814 0.24150863 0.108071476 -0.049482778 0.17215188 0.21849678 0.019848395 0.0061420607 0.07301865 -0.0061769537 -0.2626376 -0.08203107 0.09405816 0.09587109 -0.09105327 0.2918068 0.15840524 -0.045542948 -0.13529378 -0.30709442 0.25083107 -0.18086047 0.14441746 -0.01408573 -0.19262688 0.1738986 -0.10190589 0.12532426 -0.005432125 0.044258155 0.056175213 -0.028264571 0.20220248 -0.17318238 0.10517699 0.08262069 -0.13651809 -0.24961886 -0.05114129 -0.04492995 -0.07659681 -0.115324624 -0.17062816 0.0017077127 0.13014033 0.367092 -0.1076027 0.20061034 0.4052725 -0.21390991 0.10471305 -0.010071312 0.4155523 0.3204578 0.17894252 -0.010348509 0.053866502 0.27741742 0.090156674 -0.17028782 0.065633915 0.2316278 -0.013626306 0.14910604 -0.16881403 0.06693397 -0.041891564 -0.03464486 0.2908664 -0.1493342 -0.005329493 0.046274893 -0.03442257 -0.0088177845 0.16527818 -0.09591727 0.27931187 -0.026442917 0.16277036 0.17462595 -0.070415646 -0.13091914 0.045860197 -0.02022608 0.17043029 -0.21907075 -0.24225041 -0.1769808 -0.06255796 0.37199673 0.0526519 0.002507294 -0.002791365 -0.17072546 0.32365006 0.17224112 0.244315 -0.094947405 -0.20478983 -0.070750415 -0.022093087 0.033019155 -0.11151301 0.3478381 0.06908296 0.09075752 -0.15770933 0.10772129 -0.105857365 -0.16539659 0.089482576 0.24550463 -0.19042929 0.16365443 0.032248504 0.2331082 0.12799664 0.063086875 -0.28682962 -0.15714021 0.16469109 -0.3509905 0.053930778 -0.173469 -0.019498514 -0.06718298 -0.016166763 -0.019390965 -0.07680699 0.06117605 -0.057564415 0.09685913 0.2706843 -0.07793109 0.013512737 0.26646242 -0.052684695 0.19807671 0.25684878 -0.029188978 0.04000108 -0.1510568 0.018906007 0.041563544 0.10535088 0.031815737 0.20423853 -0.044677097 0.08576374 -0.08715824 0.12955314 0.29266077 -0.13354886 0.03743586 -0.10643285 0.14369744 0.015262092 -0.038296983 0.035341192 0.06434795 0.015825171 0.18322542 0.14051719 -0.26175034 0.010686967 0.23608838 0.28063643 0.25503114 0.16653046 0.009925605 0.11457449 0.020250447 0.206802 0.095759146 0.124116324 0.19567396 -0.20439638 0.05449127 -0.15450531 -0.122932814 -0.043469064 0.031619973 0.062115993 -0.22973497 0.11366849 -0.23858464 0.052995265 0.23804514 0.35538968 -0.3831328 0.19608913 0.087978974 0.002268287 0.21280926 0.2168321 0.030889394 0.05805344 -0.0063701905 0.15440492 0.12290264 -0.031543393 0.10868158 0.11857864 0.077488646 0.2439444 0.39504495 -0.43183017 -0.004929287 0.08516639 -0.3925413 -0.17897052 -0.019847961 0.17213434 -0.045590132 -9.194807e-05 0.16131307 0.03662082 0.06440307 0.12907399 0.013782046 -0.053754695 -0.15487042 -0.06262139 0.038201474 0.16221347 0.21059832 -0.11362778 -0.019707905 -0.00090030755 -0.16334556 0.12871931 -0.01237986 0.22773542 0.019877423 -0.29562062 -0.044995032 -0.27515322 0.00821601 0.21665913 -0.06915812 -0.009112024 -0.101254076 0.11477366 0.26665327 -0.07660617 -0.04163306 0.06442421 0.14987916 0.014829311 0.046844088 0.15471932 0.050933734 0.22606395 0.14320278 -0.07799376 0.09319306 0.12359792 0.067895025 -0.25329506 0.20917933 0.22504583 -0.032537963 -0.07421277 0.18723959 -0.018773431 0.06711129 0.09039123 0.07588008 0.047959037 0.39783105 0.25251865 0.06788841 -0.3301758 -0.053440068 -0.08283086 -0.0826875 0.08434972 0.35889298 -0.09404303 -0.0017437688 0.26253003 0.33262682 0.008820545 -0.032560255 -0.08931167 0.16066848 -0.1516331 0.14178164 0.03948086 0.22539033 0.019082978 0.07667517 0.2455817 0.16497427 -0.107089125 0.22141564 -0.40690383 -0.2590837 -0.07570187 -0.024100788 -0.1949299 -0.00050969946 0.06052193 -0.04437868 -0.071112715 0.072480604 -0.24651277 -0.2777798 -0.1250028 -0.4981583 0.17391989 0.10660967 0.19965132 0.16017409 -0.05942358 -0.15163113 -0.023282576 -0.1637851 0.027724678 -0.07668869 0.21225075 0.23257762 0.038053896 0.15975377 -0.08114322 0.041093014 -0.034597434 0.19162488 -0.09358536 -0.5378632 -0.11770695 0.12725908 0.057630487 -0.25834396 0.22494963 0.061896034 0.028646586 0.16168106 -0.19409618 0.07749728 0.03792783 0.12169826 0.05602453 0.053554405 0.31286284 -0.12866515 0.109372735 0.0993895 0.0546386 -0.009762897 0.052712638 -0.054192882 -0.07781163 -0.061072566 0.020996286 0.3547721 -0.18133864 0.29354513 0.117590696 0.034257393 0.03439264 0.022700422 -0.27748626 -0.10042934 0.17643778 0.014053229 -0.024752434 -0.30897018 0.24717036 -0.14089134 -0.027126007 0.11885009 0.07953662 0.27091107 0.11801711 -0.19836956 0.032443546 0.2536251 -0.32186276 -0.1592981 -0.44478127 0.096767366 -0.1327156 0.057584282 0.082177535 0.2377051 0.11566587 0.16320038 0.12562203 0.15107866 -0.41898453 -0.11461 0.20889275 -0.30155265 -0.08124092 -0.40735576 -0.24055009 0.106656924 0.05547314 0.103126995 0.3245614 0.25768396 0.24855372 0.1370205 0.2613 -0.20757346 0.14629649 0.019209875 -0.03802162 -0.57377714 -0.022572637 -0.13915609 0.079819314 -0.2147266 0.015791627 -0.371853 -0.13746837 -0.13004938 0.15114066 0.28425783 -0.14629821 -0.032008447 -0.024673717 -0.019803084 0.32632786 0.003445017 -0.034808442 -0.028433725 -0.29457784 -0.052349113 -0.031586424 0.045466844 -0.014146561 -0.20389901 0.17539325 0.19483134 0.050370585 -0.11837586
