alarm 0.028360588 0.19484013 0.114927724 0.033659484 0.023327835 0.047967006 -0.110521905 0.028562352 0.0047858246 0.11919545 0.026045198 0.08655622 0.006276699 -0.049555916 0.12898423 -0.038637217 -0.065132886 0.45048383 -0.10804007 0.22160791 0.08824724 0.17980084 -0.09646714 -0.07987996 0.27249393 -0.1306641 0.0018724082 0.094808675 0.09728022 0.163847 0.059528016 0.24158068 0.02254891 0.19315694 -0.17628427 0.0576088 -0.16473517 0.22359164 -0.0022419079 0.24424629 -0.17115852 0.026800355 -0.03270914 0.09957081 -0.25862408 -0.15858561 -0.24111052 -0.10347875 -0.081647 -0.0011857861 0.07537207 0.043646544 -0.098612 0.23756467 -0.012349691 0.10213714 -0.15991242 -0.1940075 0.055286143 -0.05301321 0.08890156 -0.040250838 -0.18030722 0.085533604 0.054044697 0.043920364 -0.12556742 0.07242903 0.056805447 -0.12436071 -0.15973012 -0.09365474 -0.19750331 -0.033315554 -0.032700177 -0.28932357 -0.14230658 0.009946843 0.15377383 -0.107711464 0.044037685 -0.11281053 0.4356101 0.113224044 -0.07645718 0.06454818 0.181804 0.11167906 0.24782456 -5.427112e-05 0.20549427 -0.0010367708 -0.12374827 -0.10847244 0.0151102245 0.14013278 0.025177175 -0.04797933 -0.07885486 -0.033103775 -0.073955946 -0.10764325 0.04892928 -0.11208861 0.14980875 -0.35791078 0.08276231 -0.1063987 0.20898773 -0.09067315 -0.009499525 0.042379566 -0.01272061 -0.21004277 -0.046482477 0.080709524 0.09811994 -0.2054805 0.2042421 -0.03845125 0.28141126 0.040784378 0.2002859 -0.18125589 0.07277978 0.25538534 -0.008395258 0.013748439 0.115077645 0.32416546 0.011784294 0.19996728 0.04451879 -0.0139291575 0.18722019 0.12289793 0.10731928 0.0007799774 0.07805509 0.1301639 0.10315101 -0.12374009 -0.10539566 0.1019593 -0.14516932 0.05623929 -0.34278676 0.1836158 -0.0625134 0.086205594 -0.041230112 -0.14503461 0.065399766 -0.12821905 0.08481262 0.09188527 -0.2608663 -0.20056711 -0.006403427 -0.08615876 -0.062391277 0.23505323 0.12651743 0.05980064 -0.03223632 -0.05289073 -0.0137063945 0.33740234 -0.059392832 0.03789203 0.15285511 -0.0012421045 0.10088129 -0.13510443 0.06676684 -0.10388114 -0.17375848 0.06574652 -0.09925823 0.15274058 -0.16543658 -0.061450318 0.20347469 0.0319816 -0.21536176 0.104889624 -0.10543039 -0.17619285 0.054393943 -0.12803127 -0.24447185 0.11850303 -0.0022418345 -0.10044276 -0.16221449 -0.009958914 0.08377396 0.27126014 -0.19244392 0.10662546 -0.13146965 -0.43117058 0.05904503 0.24931023 -0.17994593 0.16422184 -0.23775454 0.13215399 0.11381829 -0.10430186 -0.22987199 -0.19111475 -0.08675404 -0.003222433 0.029763913 0.3237594 -0.0069433847 -0.20352715 0.008277266 0.07238973 0.17683643 -0.17739648 -0.014402649 -0.09700517 0.18466955 -0.0214823 0.023386322 -0.27891457 0.11443054 0.19540814 0.20978437 0.09082022 -0.08856876 0.21044496 0.08937703 -0.22898574 0.087238535 -0.025475403 0.06075625 -0.007420779 -0.029402163 -0.0889166 -0.23542678 -0.16042158 -0.0019853811 0.008556413 -0.070370585 0.2111972 0.1702834 -0.03056013 0.055123962 -0.062409595 0.00025071576 0.22348069 0.14615141 0.0086326515 0.12005636 -0.012951459 0.07639384 0.31492305 0.011932581 -0.21404117 -0.12118596 0.1311577 0.019398604 0.10314775 -0.0033989106 -0.18228555 0.015604157 -0.15436721 -0.05597104 0.029593099 0.13344292 0.08548715 -0.17816983 0.316061 -0.07138758 -0.061500598 -0.1341234 -0.10121107 -0.102445856 0.09042569 -0.11880693 -0.048557412 0.104926616 0.09394573 -0.24405426 0.26717088 -0.017460069 0.025404098 0.034940567 0.09244893 0.15310745 -0.05827003 0.18456404 0.06671102 -0.044021115 -0.13177988 -0.21424215 -0.19772261 0.016588425 -0.14880046 0.04318704 -0.25130752 -0.05312142 -0.07448476 -0.064255536 0.10229346 0.101891704 -0.104167834 0.07713189 -0.042233646 0.09912004 0.13375732 0.21303785 0.026542626 -0.007086153 -0.026372328 0.1795181 0.17039973 -0.0738645 -0.13530336 0.1480585 0.11684988 0.1467103 0.10838584 -0.20148212 -0.08556122 0.14185654 -0.06553593 -0.16553283 0.036702782 0.05606914 -0.017065352 0.15735024 -0.03055679 -0.13479911 0.014136059 -0.05897587 -0.116023526 -0.12431437 0.020929875 -0.032308687 0.11540154 0.1502038 0.19044794 -0.19011515 0.20792952 0.014164844 -0.27308118 -0.040523183 0.14707209 0.12009157 0.035833456 -0.1427726 -0.26230624 -0.20363803 0.17431054 0.18306233 -0.060902532 -0.06539815 -0.04289513 0.11709912 -0.05575023 0.29416257 0.19070008 -6.842827e-06 -0.10315161 0.08102868 0.05492533 -0.006851454 -0.24196133 -0.31082723 -0.06820922 0.02620028 -0.2431349 0.031109646 0.19147864 -0.06308273 0.09283277 -0.22802062 -0.043894958 -0.048316345 0.005546159 0.06785235 0.15979178 -0.08173361 -0.033692494 -0.020838583 -0.13983619 0.12236426 0.091642834 0.07939796 0.019504378 -0.109334715 0.0432865 0.1248568 0.122824036 -0.09280352 -0.015626758 -0.10714876 0.06570519 -0.18031271 -0.09815553 0.01049702 0.10848484 -0.0010347944 0.09358634 0.05167398 0.1806143 0.14371088 0.099713326 -0.16672644 0.060509697 -0.09356314 0.21439649 -0.25233528 -0.20715855 0.050053667 0.115107454 0.08821646 0.03735392 -0.09249433 -0.100503005 0.05492947 -0.15629418 -0.035799943 -0.19033536 -0.13568814 -0.061248954 -0.059819672 0.03896881 -0.03609527 0.13774696 -0.081132196 -0.017751662 -0.006354846 0.18707807 0.05967839 -0.06433645 0.0009222579 -0.147977 -0.13629931 0.14602801 0.01069453 0.12806678 -0.15390807 0.08150922 0.25255737 -0.14189745 0.33259794 -0.15482871 0.18833318 -0.20617521 -0.043108284 -0.13802037 0.09168439 0.045750394 0.018636344 0.2591859 0.2741736 -0.11308658 0.053650916 0.18706073 0.32909968 0.08123583 -0.18630742 -0.057718612 0.17593166 -0.016740888 0.13231122 -0.008345318 -0.052976865 -0.07524765 -0.14726962 -0.26367283 0.09514788 0.18041293 -0.16530147 -0.23208699 0.17527089 -0.036423035 0.0057457853 -0.018730523 -0.13442838 -0.075392574 -0.09107722 0.15397632 0.013562747 0.08324725 -0.16271426 -0.0009871073 0.11006321 -0.19728972 0.2902662 0.22201465 0.16910088 0.068159916 0.1972875 0.09970487 0.15027177 -0.0013411372 0.044831738 0.25191265 -0.022531038 0.123001486 0.06270544 -0.011866727 0.015863914 0.29916823 0.1357726 0.28425658 0.04819375 -0.059921224 0.13102296 0.015475951 -0.11524045 0.05677794 0.02546051 -0.19799817 0.08640112 -0.35328385 0.2746019 0.19094953 0.06278328 0.12523162 -0.10514152 0.023225809 0.17102206 -0.15553258 -0.16017132 0.13988015 -0.03548531 0.10895121 -0.069695935 -0.050892543 -0.35330412 -0.122249365 0.1086638 -0.110001005 -0.09660113 -0.1726126 -0.0473918 0.16065624 -0.1792212 -0.06743971 -0.008710475 0.16246612 0.041701697 -0.20829636 -0.18501863 -0.07828212 -0.11455594 0.14683203 0.098062955 0.06020088 0.03622449 0.07260015 -0.21777423 -0.044566326 -0.1686164 -0.047780674 0.2120464 -0.10111022 0.07636262 -0.06952767 0.06907518 -0.19543453 -0.091751486 0.049129575 0.0020025254 -0.07819731 0.07168964 0.24718952 -0.015138964 0.14374886 0.13204587 0.079094686 -0.2368128 -0.07909524 -0.08290917 -0.10778929 0.12166223 0.03065365 0.017014006 0.08834521 0.037422303 -0.020692429 0.45322904 -0.04165027 0.022341957 0.06266154 -0.23248592 -0.075531006 -0.00879383 0.0014329574 -0.20152713 0.034732565 0.013578 0.15124387 0.1413797 0.13387896 0.14938535 -0.062768206 -0.02063931 0.04309596 -0.117276266 0.2602495 0.017285584 0.033816617 0.14818484 0.104921006 -0.02319501 -0.2278174 -0.08843121 0.07504852 -0.076911174 0.013772964 0.2137102 -0.06575447 0.12193261 0.013540949 0.06012504 -0.014717407 -0.017726276 -0.072252184 -0.18265794 -0.045803137 0.03092381 0.08834598 0.07885712 0.009053493 -0.023316821 -0.07843644 -0.089773685 0.089453116 0.008858068 -0.024019945 -0.058154345 -0.1508351 0.15846351 0.120489985 0.022420451 -0.21144584 -0.007855955 -0.08751414 0.043299478 0.05644375 0.26225883 -0.11334844 0.09932985 -0.059543166 -0.22615866 0.09591821 -0.05035413 -0.060579132 0.20825058 -0.06946141 0.21708941 -0.1822849 -0.023739215 0.068641156 0.08524883 -0.13884528 0.06630825 -0.0075674052 -0.0804039 0.0027327104 -0.034566693 -0.06846427 0.0943121 -0.24561547 -0.16256037 -0.076864086 0.0012313207 -0.03452185 0.1370335 -0.15208319 -0.039784316 0.16349103 0.1496478 0.1896658 0.02866953 -0.05336271 -0.17853776 0.19114603 0.10269195 0.09742766 -0.0064547365 0.19888543 0.037417434 0.09189843 -0.022898722 -0.24995406 -0.10996869 0.055812936 0.21576154 -0.27658328 0.18500133 0.23167542 0.01047454 0.019173631 -0.23907623 0.24070944 0.13337645 0.13799351 -0.169224 -0.046390828 -0.22072098 0.0045296205 -0.11604134 -0.041711167 -0.16917613 -0.08993867 0.19720721 0.17579761 -0.07971359 -0.022718165 -0.19494219 0.1273154 -0.17777415 0.07093794 0.035430033 -0.02566502 -0.20303446 -0.23001774 -0.27435485 -0.062931985 0.04304323 0.056203183 -0.03347319 -0.13545899 0.14973816 0.066498496 0.094267584 -0.27334723 0.034346484 -0.090964705 -0.11986423 -0.40284854 -0.41093358 0.02802754 -0.0715097 0.09028485 -0.18710539 -0.58995205 -0.0086255465 -0.0007881092 -0.024747292 0.008278865 -0.2674252 -0.07554886 -0.007412476 -0.08602747 -0.15974239 0.088852674 -0.06523921 -0.07279741 -0.00010985727 -0.0705932 -0.1354263 0.20237236 -0.26594874 -0.14841317 -0.05039624 0.1020401 -0.18663953 0.16542308
album -0.014938154 0.04398202 0.11570713 0.023506705 -0.118653364 0.16022782 0.09476685 0.055728633 0.03630023 0.1766986 -0.012390398 0.12190516 0.026821095 -0.16426937 0.14756632 -0.050238587 -0.057764795 0.306068 0.09759367 0.20082103 0.109877475 -0.031863414 0.14508744 0.010007059 0.0397057 -0.13604741 -0.15643376 0.20711745 0.15533176 0.22056851 -0.0726617 0.13453048 0.053832382 0.18970387 -0.074484 0.10937214 -0.13272868 0.12535055 -0.018001942 0.35270768 -0.08266978 -0.060800612 0.11645187 0.020709507 -0.16442877 -0.17398046 -0.1996164 -0.070658006 -0.22603555 0.16202922 0.014828257 -0.035977736 -0.14107962 0.087649494 -0.009602774 -0.035832148 -0.21490379 0.08904518 -0.05502939 -0.011268207 0.062081434 -0.047733597 0.028703425 0.006782898 0.06312455 0.093242355 -0.19098729 0.2094948 0.036708973 -0.23649278 -0.4064888 -0.16828 -0.25531453 -0.015638247 -0.12088945 -0.05685196 -0.18235306 0.045219697 0.16353282 -0.100932084 -0.07186078 0.124289095 0.20643651 0.05452101 -0.09823529 0.059121743 0.22771758 0.11290643 0.3222716 -0.2802318 0.20283853 0.04644087 -0.10255505 0.02049389 0.22247969 0.059417263 0.17077123 -0.1021018 0.14879556 0.04850803 0.06831042 0.0810873 -0.062314223 -0.012975647 0.2155154 -0.4190149 -0.08243724 -0.068754636 0.23496889 -0.01768052 0.09973312 -0.08618332 -0.07558693 -0.13115063 -0.12804814 0.043309204 -0.08952515 -0.25796232 0.019647963 0.050624557 0.11176603 0.13586588 0.24790443 -0.252415 0.09304251 -0.09024183 -0.09475087 -0.009989837 0.19540164 0.19696361 0.26104334 -0.010677707 -0.23167336 -0.1361406 -0.023603732 0.14571027 0.06396175 -0.07849235 -0.022742607 0.025936592 0.18731847 -0.10540119 -0.090345316 0.13202402 -0.19862933 -0.023414511 -0.2066225 0.098527335 0.103147864 0.15462252 -0.05483677 -0.105141506 0.15370245 -0.083334185 -0.08367666 0.18318932 -0.19847435 -0.22821534 -0.13019095 -0.07567463 0.014351094 0.0992015 0.1630802 0.16835168 -0.055974856 0.029022528 0.003096622 0.35725924 0.12743494 0.008313026 0.1971386 0.13200901 0.03607116 -0.16040964 0.14193407 -0.080686115 -0.21087272 -0.06157489 -0.053527005 0.19677061 0.035921678 -0.10652592 0.18541412 -0.20376156 -0.20161584 0.0009403956 -0.07725997 -0.15026598 -0.20560083 -0.057935454 -0.22685117 0.25078607 -0.18445191 -0.013187154 -0.048277818 0.1576105 0.03708688 0.25567818 -0.13424803 0.096210904 -0.092888825 -0.3806027 -0.0019027214 0.1512437 -0.057343878 0.093398914 0.10783237 0.17901063 0.023643848 0.019385625 -0.13464858 -0.12573205 -0.09455093 0.070211135 -0.13030973 0.116855 -0.010573067 -0.123294935 -0.10148594 0.09204583 0.05978241 -0.22094016 0.065027624 0.07924214 0.115134664 -0.03652831 0.1189787 -0.29886132 0.159648 0.07936688 0.1450272 0.06488258 -0.046056945 0.09873527 0.055982605 -0.34280154 -0.06489376 -0.0424954 0.076060556 -0.1314412 -0.11577666 -0.10353699 0.036535732 -0.09931194 0.13752043 0.060111053 -0.026411677 0.12129644 0.06513029 0.020030942 0.0007245496 -0.086243935 0.12983067 0.24212164 0.09672633 -0.022932654 -0.03987632 -0.023674076 -0.16454345 0.2660903 0.07003231 -0.25502628 -0.16509221 0.16844624 0.003869533 0.058547784 -0.17107807 -0.16015227 -0.013812925 -0.1809294 -0.09021646 -0.03701893 0.08071165 -0.010054622 -0.058030687 0.27251694 -0.061727613 0.14105853 -0.058212124 -0.043839723 -0.0023539679 0.18025436 -0.21385612 -0.11590762 0.14054252 -0.11814593 -0.2257931 0.029390566 -0.08721431 0.0799697 -0.07651194 0.15184079 -0.03377694 -0.08414239 0.29720524 0.17128493 -0.019426636 0.08198371 -0.02191284 -0.06662843 0.08996755 -0.10812488 -0.09721623 -0.17238097 0.15523605 0.098979354 0.01505071 -0.14760983 0.21660584 -0.26988754 0.019000353 0.17753544 -0.05845596 0.17755169 0.15028743 0.16266999 -0.037886843 0.09394505 0.11969717 0.16725478 0.22872606 -0.18285862 0.17831603 0.11776384 0.028041799 0.14229332 0.037495546 0.08997689 0.10580108 -0.20998405 -0.13825856 0.11123306 0.020983655 -0.11802356 0.003983777 0.0363071 -0.22508048 0.0031293107 0.03794358 -0.026938234 -0.035631016 0.0066206465 0.07146656 0.06671301 -0.1006665 0.10041265 -0.1905597 0.1757564 0.059247497 -0.3388779 -0.041774575 0.105033115 0.0017371696 0.04937025 -0.024137545 -0.21893004 -0.38932735 0.17566447 0.10041738 -0.117279746 -0.053789575 -0.053788606 0.007816686 -0.037731156 0.2646748 0.2021775 0.027826998 -0.12010481 0.091948695 0.04414175 0.050686 -0.33634 -0.31983408 0.023488352 -0.026322441 -0.03490384 -0.14520328 0.11986415 -0.01930271 0.22531398 -0.12620983 -0.015400034 0.21283062 0.13662437 0.14207788 0.04461853 0.026357094 -0.010666648 -0.16939938 -0.18963411 0.14461467 0.25397262 0.11598362 -0.014953322 -0.068109505 0.091204226 0.237742 0.22653893 -0.15383753 0.036114223 0.055495717 -0.16012335 -0.24904977 0.017698718 -0.114456445 0.18142807 0.13926667 -0.0656829 0.045406718 0.07796218 0.15650508 -0.046192124 0.000160394 0.18762273 -0.17663789 -0.0026768544 -0.3569717 -0.27728665 0.17338826 0.12147574 0.04086654 0.18879254 -0.100647114 -0.17551965 -0.10427664 0.07501412 0.078753844 -0.1942428 -0.1295667 -0.1931641 -0.06879245 -0.060300905 -0.15092538 0.11793182 -0.18363398 -0.14277275 -0.0401269 0.26400986 0.09315509 -0.07792701 0.066667385 0.12081923 -0.20978239 0.11079972 0.018548228 0.1657966 -0.08856629 -0.09756461 0.07553608 0.008515915 0.29656124 0.008181027 0.25419697 -0.11007089 -0.123871714 -0.024611732 0.048335318 -0.097880706 -0.003611424 0.28834218 0.13541353 -0.13572398 0.11042201 0.1590577 0.119789734 0.17313974 -0.2517702 -0.026127402 0.24851783 0.030111259 0.12017128 0.020646777 -0.0001592743 -0.054933175 -0.07461645 -0.19485022 0.28072855 0.047507815 0.03971768 -0.33038795 0.09553638 0.15305866 0.03301876 0.013543658 0.06600494 0.027226893 -0.059620764 0.10379863 -0.017517155 0.24718422 -0.13235478 0.20537342 0.14960566 -0.2236465 0.1347263 0.050107908 0.06015715 0.10413413 0.2710101 0.13469078 0.02123906 0.008712574 -0.096248895 0.15750837 0.06368514 0.12701371 0.15221834 0.06792899 -0.05368142 0.1290531 0.07324062 0.17332447 0.14322506 0.08322644 0.17194286 0.10744601 -0.050189815 -0.18167196 0.04978737 -0.16480917 0.001577829 -0.1366845 0.23686111 0.038160868 0.09769112 0.11900348 0.045543097 -0.066471644 -0.012597946 0.11838162 -0.08110513 -0.058396053 -0.15070213 0.10200982 -0.11348938 -0.100067966 -0.21013108 -0.1209017 -0.0038064274 -0.15390114 -0.1207059 -0.13629769 0.0024255065 0.11347478 -0.1344984 -0.042092968 0.03339957 0.0015598084 0.050632983 -0.18023558 -0.2740299 -0.015909191 0.031979397 0.17607358 -0.09546182 0.04288156 -0.052457124 -0.054097895 -0.17067455 -0.17596366 -0.098883554 -0.06366717 0.12415586 0.105420716 -0.014735767 0.036282107 0.090669155 -0.25021568 -0.0626973 0.029573208 -0.113488816 0.09543941 0.10709275 0.40700486 -0.014572265 0.19154114 0.05637125 0.09502099 -0.014495816 -0.08663982 -0.081342995 -0.07084397 0.1980666 0.010122991 -0.11629235 0.07972897 -0.010981609 0.05713703 0.36599526 0.026669614 0.13739052 -0.021025432 -0.14889948 -0.09726779 -0.108197 0.08521377 -0.19147967 0.38265184 0.120584205 -0.059718437 0.2417331 -0.0031767627 0.07408075 -0.057613157 -0.03058622 0.15811121 -0.1705557 0.18833056 -0.17719696 0.032880135 0.031839784 0.25857317 -0.021631433 -0.0681093 -0.08054537 -0.038111165 -0.09405608 -0.060697716 0.10146753 0.13584182 -0.022180758 0.02662723 0.0088698305 -0.0034639658 0.109618284 -0.06527848 -0.2118861 -0.029367862 0.16646019 -0.07583501 -0.012913875 -0.05423557 0.10195499 0.002299451 -0.0008744026 0.12165676 0.013010685 -0.02238874 0.056414418 -0.111424915 0.12078562 0.015913669 0.10779384 -0.099390805 -0.092824236 -0.19947551 0.08245357 0.105664626 0.3309785 0.09280998 0.22181717 0.048788913 -0.18884458 -0.031544812 0.08904985 -0.24539217 -0.040068418 -0.048665363 0.0361093 -0.19585308 -0.08002355 0.12610641 0.17254339 0.024573123 0.04343137 -0.17287405 -0.18299933 0.07797999 -0.02030592 -0.0035910332 0.25342208 -0.12745531 -0.05450967 0.10967225 -0.18592457 -0.034316026 0.280977 0.06384261 0.042123195 -0.053014368 0.17219079 0.051503737 0.11041768 0.12435605 -0.18018478 0.02533313 -0.09272665 -0.012460182 -0.13806657 0.03366269 -0.21833181 0.029817505 -0.08879677 -0.14346814 -0.060125798 -0.07789897 0.27631944 -0.21755812 0.3029189 0.21648617 -0.0027331542 0.028921489 0.021478318 0.0255681 0.090916365 0.12844475 -0.27627096 -0.014930229 -0.17961413 -0.2183839 -0.109012306 -0.064430825 -0.14714791 0.2722889 0.13306375 0.12888351 -0.07252889 0.004739148 -0.079089314 0.17023839 -0.26670197 0.10916157 -0.08073479 -0.21802805 -0.22965318 -0.23890015 -0.20270847 -0.1280604 0.11746891 -0.015841093 0.15437077 -0.18595555 0.17793052 0.14704551 -0.09216256 -0.2694811 -0.05066018 -0.07376518 -0.1892559 -0.19764602 -0.22258927 0.03354416 0.0733672 0.17050304 -0.20027997 -0.65894663 -0.056037854 -0.020249695 -0.09441757 0.06558142 -0.40454775 -0.20277795 -0.13733998 -0.032742966 -0.08574532 -0.017165514 0.061761703 0.00025116638 -0.12237078 -0.026028654 -0.024289662 0.29187965 -0.26108626 -0.18477277 -0.07077116 0.07460259 -0.09293283 0.038806602
ale 0.18584096 -0.042413745 0.08491618 -0.028413296 0.15003604 -0.015121898 -0.3097096 -0.10571757 0.054304145 0.053638037 -0.23782824 0.09107675 -0.33205816 0.07812222 0.1154604 -0.018994002 0.09427883 -0.0800037 0.21854323 0.08487336 0.11544015 0.05788746 0.057477493 -0.051971678 0.101322554 -0.1888775 -0.022987826 0.09390885 0.055136148 0.11063849 -0.039342515 0.10636005 -0.031937048 0.08164935 -0.21500136 0.13166258 -0.012717935 0.11752268 -0.020490572 0.07097182 0.018380567 -0.031721227 0.11688679 -0.045251228 -0.14478278 0.13930029 -0.0617438 -0.07154668 -0.2040138 0.05249725 0.022125259 0.12965842 0.117373444 -0.11159608 0.09398911 0.074780166 -0.19279152 -0.052051984 -0.019440828 0.03822061 0.053313896 0.06210496 -0.2370299 -0.0012143664 0.061976697 -0.077916965 -0.0916325 0.14215174 -0.23075587 -0.23307934 -0.15541014 -0.19869141 -0.057131942 0.063405275 -0.14834347 0.035865493 -0.084238954 0.13757461 0.08946839 -0.1320573 0.055137668 0.14461102 0.13952892 0.098744385 0.067072265 0.044272624 -0.025975745 0.23263615 0.2649241 -0.08127104 0.073830485 -0.06742925 0.011088927 -0.031910237 0.007814453 0.0703641 0.04197115 -0.31396404 0.080361634 -0.06892331 -0.100083694 0.02043242 -0.02956488 0.17423187 0.19246359 -0.12053381 -0.07305245 0.15505928 0.20630558 -0.08662739 0.14561015 -0.06664727 -0.05856341 0.060496733 -0.09862346 0.16513288 0.17796682 -0.14806725 0.09335635 -0.0037048282 0.16545211 0.08406802 -0.018085647 -0.18195245 -0.030236647 0.14138074 -0.15798794 0.13188219 -0.011280038 -0.09415225 0.30460864 -0.06906834 -0.24050851 0.033638697 -0.02527929 -0.018618047 0.22523461 0.10717107 -0.12721395 0.078432925 0.16148034 -0.17736623 0.22748496 0.19380277 -0.24616612 -0.15161005 0.14603017 0.22832926 0.1295736 0.045428656 0.12813622 0.033025343 -0.19468126 0.017181853 -0.026823515 0.04964749 0.19445468 -0.18159391 -0.12095548 -0.28306428 0.06962951 -0.012133925 0.24349394 0.1042945 -0.030580048 -0.005973999 -0.010252335 0.22062641 0.07020583 0.124001235 0.07919658 0.19313799 0.085210524 -0.13120575 0.09429834 -0.107586406 -0.28688687 0.12764384 0.019453133 0.0020947303 -0.18792945 -0.21953805 0.16124904 -0.23495935 -0.32570827 0.03499455 0.0022044904 -0.21837111 -0.04389208 -0.20212218 -0.059063427 0.17669515 -0.25549665 0.031165957 -0.15436666 0.029323634 0.11291821 0.42213556 -0.1519042 0.22641908 -0.21371628 -0.32644382 0.101589 0.09757331 0.028515048 0.14419451 -0.029516734 0.18478002 0.24859639 0.17486228 -0.21833226 -0.28471062 -0.21821916 0.30897465 -0.08610244 0.0020612264 -0.0451523 -0.14760518 0.05998121 0.26184085 0.07137438 -0.13814022 0.16320552 0.039262563 0.008279618 -0.043736756 0.124896325 -0.20022115 0.17947255 0.3321475 0.084191136 0.08152838 -0.17549564 0.19710511 0.0097824 -0.13842171 0.05437458 0.07587863 0.1888127 -0.24265678 0.009013867 0.0011145256 0.064971864 -0.22495323 -0.019714538 0.0033220493 -0.05772808 0.18002048 -0.023257475 -0.11414976 0.16703855 -0.08959829 -0.1540467 0.13176118 0.11254713 -0.026424121 0.02426991 0.18241204 0.05126342 0.1717212 -0.018706277 -0.19319965 -0.083250925 -0.09918791 -0.09206077 -0.052488457 0.025179364 0.25118363 -0.19098718 -0.20432925 0.09301391 0.06895939 0.23908904 0.09404113 -0.16856128 0.16414104 0.04410804 -0.007668278 -0.06503806 -0.18538222 -0.22015204 0.05676915 -0.20473823 0.08328352 0.12716186 -0.04727922 -0.21198711 0.27345133 -0.0044098096 0.079840474 -0.025049666 -0.067878604 0.23547158 0.14308307 0.07613272 0.15762112 0.051454023 -0.009972267 -0.13020492 -0.0712751 0.08522831 0.049533732 -0.16384514 -0.029057728 0.14702678 0.0411979 -0.1327805 -0.025630109 0.0056540975 -0.21394823 0.07137925 0.12612931 0.13762982 0.027316248 0.078178585 0.15967199 0.13512057 -0.0008871536 0.19420832 0.18980514 0.069185436 -0.25084415 0.12029713 -0.2015799 0.19584686 0.0802956 -0.22547948 0.01862341 0.13524304 -0.21788473 -0.13042982 0.16490571 -0.017785188 -0.0075564873 0.27910206 -0.05474583 -0.2881944 -0.26246983 -0.14998904 0.24283412 -0.1292005 -0.056501787 0.13433097 0.08499343 -0.09327832 0.1544188 0.15549257 0.14618234 -0.14060687 -0.11588112 -0.029067429 0.13750885 0.06217526 0.029420035 -0.008477242 -0.10889142 -0.21500212 0.017793452 0.0358998 0.0025728282 -0.018061051 0.20067705 0.077771366 -0.010483882 0.07179652 -0.044291798 0.05117198 -0.16972205 0.065991856 0.20299916 -0.11438876 -0.19294454 -0.33318707 -0.0058844564 -0.038792238 0.095064186 -0.010159703 0.048917133 0.1175544 0.0130341975 -0.11803002 -0.16860755 0.059665184 -0.033178553 0.05137515 0.09006955 0.08623264 0.036657624 -0.045068942 -0.15754615 0.02049268 0.07828975 0.1336117 -0.06908425 -0.14704858 0.11894111 -0.0908129 0.12989034 0.0050083166 0.056496035 -0.007920422 -0.035380356 -0.057922643 -0.07809825 -0.17847636 0.17322786 0.09761082 0.014137911 -0.040214196 -0.012970984 0.17699924 -0.0009591633 -0.21727498 0.060043246 -0.25428525 0.06510674 -0.42434403 -0.1818533 0.12387634 0.16734101 0.26196417 0.14499517 0.03961172 -0.24175507 -0.008765725 -0.059175022 -0.031313516 -0.27687275 -0.21324083 -0.20405138 -0.065439515 0.005697542 -0.042188715 0.03002588 -0.024018869 0.10805297 -0.16660444 -0.07525607 0.020483373 0.07453459 -0.0064807893 0.06618067 -0.26652285 0.17375939 -0.08993872 0.023982521 -0.11951834 -0.26401713 0.04293725 -0.13003838 0.39111805 -0.27802703 -0.06899848 -0.21742237 0.011320568 -0.17317244 0.1793828 -0.04571231 -0.06585468 -0.037630063 0.05831387 -0.07186718 0.074831285 0.113574885 0.16458504 0.068844244 -0.07541832 0.2098578 0.16504994 0.1355742 0.13088685 0.09164751 -0.027834892 -0.121898085 -0.23844051 -0.16786557 -0.043290257 0.049993552 -0.04956003 -0.007894555 -0.046101246 0.048746724 0.16266093 0.01596166 0.15275536 0.107467644 -0.11086403 0.013447332 0.09780573 0.026575666 0.0712795 0.12864427 -0.074568495 -0.15780482 0.17675868 0.13235351 0.1805186 -0.16053635 0.07690961 -0.06550787 0.06823428 0.255844 -0.05630387 0.09169564 0.10282209 -0.07500774 -0.056506217 -0.11668529 0.11331628 0.106589496 0.085931756 0.0987883 0.044020545 0.13515043 -0.07104347 0.0076333694 -0.0007148646 -0.051667266 -0.050936174 -0.1912217 0.027937075 -0.04171809 -0.23760043 0.28910053 0.044887844 0.07265305 0.14075166 -0.095669605 0.021262137 0.02331765 -0.11426754 0.07827458 -0.01853767 0.14160503 0.11995361 0.13417798 -0.20135799 -0.067213565 0.20364772 -0.24835443 -0.08838449 -0.23042375 -0.18794188 0.012137697 -0.20247206 0.14679849 0.1974355 -0.07536945 0.037793677 -0.11618321 -0.16523711 -0.022482978 -0.05847795 0.04785963 -0.049979072 0.02418649 0.15909441 -0.22016932 -0.054429594 -0.044051483 -0.107502624 -0.12551045 -0.020989507 -0.18115287 -0.09117788 0.13172229 0.022025233 -0.2096485 0.25644886 -0.085164234 0.031036755 0.028956365 -0.045549892 0.101934746 -0.020269793 0.06527488 0.12606043 -0.13380949 -0.12882054 0.1427398 0.10641911 0.25837615 0.11425318 -0.043087345 -0.07536787 0.06426325 0.15601063 0.123779245 -0.03586635 0.030526068 0.20023039 0.19533643 -0.19813225 -0.0116539 -0.19518428 0.039977442 0.08702311 0.18402547 0.019522753 0.091286816 0.03210139 0.12931144 0.040223148 -0.13607754 0.031313412 0.1407421 -0.16564171 0.10285497 -0.10980317 -0.033838306 0.0064366944 0.23635742 -0.13492523 -0.09515428 -0.17317088 -0.07104847 -0.048527997 -0.08054123 0.08436787 0.14767456 0.07969936 -0.117110796 0.109178744 0.14529765 0.11968831 0.11511394 -0.25161195 -0.1170844 0.051487986 -0.07581827 0.14099815 -0.11425893 -0.082304314 -0.09814882 0.027039604 0.13080387 0.05760331 0.042416144 0.046987467 -0.21559292 0.15307036 0.08694111 0.022530053 -0.1361909 0.091308914 -0.22911902 0.08000571 0.040203184 0.1173622 -0.017031208 0.2548758 0.15879579 -0.044353183 0.00763562 0.091478854 -0.1792928 0.047303826 0.26432434 0.15170187 -0.23265065 -0.16669364 0.10927887 0.1647958 0.16681737 0.11244924 0.2334425 -0.2876494 -0.07254364 -0.009192581 0.010866847 0.0987183 -0.12813523 0.055690352 0.07502222 0.034366217 0.10979029 0.11341324 0.017177252 0.10088036 -0.113870114 -0.015719637 -0.006120809 -0.038543575 0.15206985 -0.04421962 0.07304266 -0.021566559 0.24800366 0.08592409 0.18925335 -0.041846585 0.17932117 -0.10169394 -0.1903877 0.19096115 0.037566394 0.22891152 -0.2117164 -0.005035949 -0.015125212 -0.18295452 -0.19795007 -0.015312881 0.23749089 0.08528564 -0.018470123 0.00037064927 0.08440307 -0.296245 -0.09986825 -0.22495416 -0.12145181 -0.10010213 -0.036543492 0.09888247 0.06395057 -0.08691759 0.0709372 0.10466986 -0.08803901 -0.057176866 0.05434637 0.08720638 -0.09777909 -0.1538536 -0.19152597 -0.19618739 -0.098067164 0.013444994 -0.049123976 0.001574225 0.0076851086 0.083697565 0.047523815 0.006035278 -0.19647913 0.059317194 -0.052766494 -0.16853948 -0.30985394 0.010021639 -0.119716235 0.10633985 0.052696656 -0.18456401 -0.4279069 -0.22218274 0.064085715 -0.11855885 0.08355291 -0.13227433 0.03630081 -0.044292253 0.18625869 0.08591138 0.13804647 -0.027679043 -0.12223255 -0.32185954 -0.03265277 0.22288597 0.14151493 -0.026655495 -0.16854246 -0.038620006 0.20673634 0.07821754 -0.010779916
alkohol 0.16179064 0.1068424 -0.05660519 0.13555646 -0.020279279 0.041673522 0.018163098 -0.05250052 -0.033923067 0.13133399 -0.07916317 0.21406245 -0.10329576 -0.10681475 0.015512151 -0.15155745 -0.061187547 0.31049997 0.04504319 0.17440599 0.11704255 0.14565901 -0.048039302 -0.05546541 0.114446 -0.1936805 -0.117829986 0.21893415 0.028873894 0.19909897 -0.055459045 0.050891273 0.26934147 0.25660253 -0.32912114 0.09443952 -0.068521075 0.30793214 -0.0061326055 0.13095465 -0.079183474 -0.1349161 0.10268929 0.010425194 -0.2878724 -0.16676985 -0.21179919 -0.0033483624 -0.110599965 0.08766103 0.04821516 0.07437657 -0.027792241 0.12824257 0.15647136 0.009208358 -0.059787273 -0.18662317 -0.10992727 0.004452471 0.16120818 0.009140925 0.052937757 0.18023054 0.08520285 -0.07533793 -0.33762497 -0.04953664 0.03366848 -0.19221398 -0.15194197 -0.10101422 0.04010909 0.031923067 -0.1916666 -0.04666527 -0.06340281 0.10446701 0.15005541 -0.18147846 -0.09013791 0.11852842 0.19451633 -0.026356041 0.023158632 0.15631317 0.2806442 0.10903197 0.27808785 -0.21323639 0.09877311 -0.09973945 -0.12870282 0.06701802 0.17225777 0.20430107 -0.0029265503 -0.11979993 0.14161395 -0.13044687 -0.11529267 0.039076883 -0.06016626 0.037824705 0.07079204 -0.25756013 -0.05030617 -0.05089727 0.16594331 -0.18797745 0.16875578 -0.12958111 0.07142771 -0.10213891 -0.09842291 0.18818301 0.04193705 -0.21675679 0.14573975 -0.006726646 0.22975914 0.01998723 0.13794294 -0.26614395 0.17849283 0.15769306 0.06294485 0.054332234 0.20378032 0.10056455 0.22966744 -0.11540802 -0.1270665 -0.06045006 0.018136645 0.10902176 0.24113995 -0.04231153 0.011639683 0.2207654 0.32118466 -0.09380907 -0.0060413806 -0.037727945 -0.17106184 -0.04782543 -0.2079989 0.30881473 0.16679478 0.07636143 -0.025941197 -0.089603096 -0.20196427 -0.09151778 -0.15190339 0.20052826 -0.017192973 -0.30241972 -0.043179445 0.0112995785 -0.17704204 0.07677724 0.20017654 0.1318229 0.024391428 0.0042334255 0.08695696 0.20537461 0.055862386 0.11947368 0.19531697 0.10147637 0.09235546 -0.1579913 0.08342382 -0.122377425 -0.25239593 -0.014854431 -0.053839445 0.16376825 0.09942001 -0.06949376 -0.014748924 0.11032744 -0.44184998 -0.021268904 -0.065788694 -0.22014964 0.015275559 -0.18677856 -0.2713565 0.12893555 -0.001546889 0.052201584 -0.19717842 0.013991412 0.018806485 0.16618344 -0.19644359 0.2552533 -0.15123188 -0.3495859 0.05771118 0.07875537 -0.09345572 0.18351918 -0.03764191 0.08799897 0.015034953 -0.11367999 -0.10127781 -0.2394491 -0.3124164 0.008277883 -0.22399564 0.25976294 -0.064528525 0.05507087 -0.08185261 0.07658379 0.13344726 -0.26430348 0.11523761 0.10529595 0.07316895 0.08163316 0.13131867 -0.22529155 0.08625196 0.15363224 0.056696024 0.05253865 -0.13075052 0.07300771 0.16199838 -0.19204612 0.10629389 0.073066354 0.024360962 -0.17730126 0.0014954066 0.007456899 0.015493162 -0.13210605 0.050507605 0.109070994 0.029923193 0.17091374 0.08504317 0.054809153 0.049717896 -0.05161062 0.079622105 0.089651525 0.099490106 -0.07372401 0.09942998 0.16987656 -0.0021704296 0.24210647 0.13254476 -0.2059288 -0.24798673 0.13271114 0.20189244 0.041729268 0.052438192 -0.03485066 0.032895975 -0.17887348 0.016246105 -0.05776888 0.012383869 -0.06830393 -0.0917418 0.22581498 -0.081631266 -0.0076389466 -0.2474164 -0.20352529 -0.110846326 -0.06766487 -0.1745484 -0.009882473 0.080787614 -0.0653542 -0.38506347 -0.07796113 0.026157133 0.013199111 0.05163665 0.10591888 0.23856632 0.11843636 0.17300192 0.17447647 -0.12990311 0.08645002 -0.16883247 -0.08435499 -0.025283726 -0.05647586 -0.04605767 -0.09171256 -0.0056459066 0.022858938 0.011080693 -0.08327463 0.14308247 0.0005344205 -0.016024211 0.16339731 -0.009842616 0.16910036 -0.037069432 0.088810585 0.13000172 -0.08833345 -0.005347512 0.11610203 0.25047705 -0.24547754 0.123517655 0.047444712 0.13963917 0.09634592 -0.09082278 -0.1268553 0.21292402 0.11342677 -0.244185 0.06559955 0.033080995 0.2569035 0.1758981 -0.084926896 -0.24683924 -0.008336398 0.020767171 -0.07384944 0.05556549 -0.2450057 0.10116939 0.21426548 -0.046839092 0.15935762 -0.19809729 0.18348747 -0.025761379 -0.23429959 0.20146066 0.114141695 -0.0609566 0.07047385 -0.1844673 -0.2080866 -0.29565072 0.16232495 0.11485897 -0.21443789 0.12589721 0.023807818 -0.027364843 -0.08988268 0.25472137 0.20179938 -0.10596566 -0.12618554 0.1977469 0.060682666 -0.08115843 -0.2079197 -0.18786614 0.039665423 0.05259253 -0.08312252 0.008703563 0.11929223 0.05612757 -0.120917805 -0.12784857 -0.14293772 0.06394262 -0.04147392 0.021317273 0.04851422 0.032584324 -0.013530292 -0.05562425 -0.22550412 0.21685308 0.3036843 0.1146529 0.051556367 -0.15604024 0.00017434524 0.08686329 0.19432169 0.009469272 0.005512658 -0.019002724 0.11199378 -0.15178794 0.11933846 -0.031152042 0.13005412 0.0761125 -0.18650898 0.061292548 0.06951679 -0.024286656 -0.16343038 0.035392612 0.18808477 -0.1942933 -0.008287665 -0.3393122 -0.176998 0.20684777 -0.01480934 0.0966095 0.22737087 -0.038732074 -0.19799814 0.101144925 0.013758223 0.054851227 -0.26684377 -0.2543717 -0.06532086 -0.17362894 0.109615706 -0.03438253 0.09700672 -0.30864024 0.06507753 0.03238084 0.1461653 -0.021725971 0.011745947 -0.07296231 0.13468371 -0.11406046 0.19865319 -0.24553594 0.3112135 0.036513895 -0.032913607 0.057526432 0.071898356 0.26859468 -0.0889899 0.013996157 -0.20439333 0.038638227 -0.010625242 -0.021131365 0.049281564 0.061777428 0.20626856 0.13447495 -0.00736451 0.032151427 0.23741077 0.1594566 0.10180766 -0.0069017047 0.12530202 0.2180208 -0.12790638 0.15935895 -0.04666951 0.015741847 -0.087658614 -0.23170939 -0.37330633 0.110848576 -0.043061595 0.026670799 -0.13123041 0.11616866 0.08470561 -0.055697605 0.12689911 0.0072923214 0.1587049 -0.0988874 0.1923541 0.062081676 0.18009438 -0.013280548 0.1831168 -0.0056762393 -0.31342217 0.1968136 0.066358194 0.17188375 -0.007592589 0.08436319 0.10320874 0.04454907 0.046223007 -0.02073283 0.13793592 0.16872807 0.1930911 0.08848 0.01439322 0.11353214 0.08267211 0.041581076 0.16232868 0.068624794 -0.057753213 0.060646743 -0.06543515 0.118959785 -0.12528525 0.019524917 -0.23678829 -0.094338626 -0.0042222342 0.10539055 0.04280949 -0.015254612 0.051781923 0.06733564 -0.082614385 0.19477664 -0.08625049 -0.26382038 -0.10289922 -0.015349728 -0.049987372 0.050786458 -0.068634145 -0.29435602 -0.076857366 -0.12025683 -0.21923949 -0.13171329 -0.2483326 -0.16808747 0.1979881 -0.05485512 0.13666198 -0.15031193 0.03638699 0.19116293 0.046678986 -0.18550685 -0.070384 -0.0773332 0.06221328 -0.023160446 0.24246003 -0.12162976 -0.013675475 -0.10691183 -0.15262868 0.004842809 -0.025775673 -0.036695085 0.031206649 0.06974478 0.13743664 -0.013037321 -0.22970812 -0.06372112 0.17101939 -0.026497068 0.17181651 0.09536076 0.40708202 -0.0012542311 0.098402806 -0.028827898 0.14895089 -0.01005845 0.034450844 -0.13371071 -0.045122184 0.035014287 -0.004226279 -0.033138104 0.021945449 0.09579156 -0.016473103 0.3701994 0.057254836 0.063893154 0.08418033 -0.1647376 0.0714571 -0.17458934 0.08230127 -0.03382002 0.16939983 -0.04325564 -0.17375685 0.2793196 -0.02398282 0.12631546 0.019688014 0.009851093 0.03805907 -0.14322451 0.14991482 -0.15697727 -0.01795145 0.11785059 0.2046603 -0.1647952 -0.14223303 -0.25073686 -0.08836242 -0.07779027 0.0865987 -0.05414331 0.0058662836 -0.11794078 0.1481848 0.044712387 0.2272008 0.22291301 -0.062174216 -0.29596227 -0.011892417 -0.01958535 0.107004195 0.005512956 0.0060829315 -0.067189395 -0.05431213 -0.049091488 0.120155446 0.0057789814 -0.1854513 0.17914636 -0.22525866 0.062817134 0.070092745 0.030030116 -0.13726027 0.15147597 -0.14236362 0.04722855 0.09182271 0.20970432 -0.16033317 -0.027055029 0.020000637 -0.19391777 0.05945677 0.13809696 -0.14381899 0.078861155 -0.00065333606 0.1501332 -0.2601932 0.13964154 0.055122856 -0.025277125 0.06454077 -0.026639298 -0.17261466 -0.18076572 0.050268494 -0.029701592 0.17883855 0.05856355 -0.10196937 0.032057982 -0.011218751 0.022395954 0.043548286 0.18722308 0.00017692936 0.000108168126 -0.12013015 0.09033882 -0.043643653 0.031193765 0.06946708 -0.15300004 0.044295054 -0.047836643 -0.015131863 0.07362183 0.20934649 0.0045929286 0.21476808 -0.11757692 -0.26272446 -0.045303363 0.20348229 0.16104838 -0.27238303 0.13782132 0.13996565 -0.10690645 -0.00841361 -0.04753071 0.18355449 0.07601435 -0.015259861 -0.31787127 0.082237646 -0.25933802 -0.05609557 -0.0667557 -0.031680215 -0.07506664 0.068505235 0.14014158 0.24276716 -0.09809276 0.22419105 -0.106553465 0.07868054 -0.07673105 0.02168095 -0.15746331 -0.17485315 -0.18134707 -0.14981814 -0.23275468 -0.1031956 0.22289623 -0.013203472 -0.015562298 -0.0935251 0.018313292 0.015947198 0.025244387 -0.2554556 0.004729582 -0.07901526 -0.018864382 -0.23353522 -0.39854994 0.07142443 -0.04177958 0.06891775 -0.17652671 -0.6166163 -0.24356398 0.030347586 0.12460104 -0.045734834 -0.17929184 -0.08693665 0.022575222 -0.071687534 -0.11906679 0.114938036 0.09956507 0.12264553 -0.19713795 -0.15286131 0.019470338 0.21328601 -0.214473 -0.23408474 0.11342608 0.006686248 0.0041516144 0.06804052
aluminium 0.17799346 -0.021295998 -0.13114294 -0.01958328 -0.07038237 0.022321487 -0.054517515 -0.013790173 0.041870393 0.022478396 -0.18055654 0.058526374 -0.07620177 -0.21856308 0.12574391 -0.020280514 -0.023846986 -0.058757704 0.20047069 0.1634245 0.046011887 -0.016393103 0.10730776 -0.18337297 0.18027134 -0.00900078 0.0022354247 -0.0021713937 0.013727767 0.090003245 0.033637304 -0.2162469 0.080073446 0.076260395 -0.089363106 0.17940561 -0.1927498 0.093777105 0.08113864 0.030087885 0.05984999 -0.09929309 0.03284694 0.21221027 -0.12910351 -0.15296328 -0.041272447 0.18902113 -0.24677992 0.04522628 -0.03892554 -0.016394999 0.12617765 -0.046447814 0.18585855 0.07050699 0.1003512 -0.11614155 0.20933937 0.024382384 0.056197304 0.06960895 -0.1767671 0.026487358 -0.061293967 -0.04140237 -0.20802553 0.021918576 -0.013351966 -0.15803187 0.042020723 0.14905739 -0.011460403 0.012866386 -0.2657976 -0.15484023 -0.1267532 0.14887407 0.073037386 0.0665316 0.09690115 0.14444852 0.05434724 0.14264855 -0.030577332 -0.12717363 0.11682345 0.08437536 0.3639641 -0.13703094 0.09347408 -0.045077223 -0.10255192 0.118558936 0.054349408 0.10328189 0.04230592 -0.18390849 -0.026214464 0.039363258 -0.009231443 0.17701094 -0.19455738 0.13155834 0.20906165 -0.11739617 -0.08912586 -0.0026015781 -0.21448518 -0.040106773 0.19351074 -0.1379279 0.04274992 -0.06293362 -0.05394969 0.07494026 -0.047349032 0.065392315 0.16194707 -0.018302048 0.18630983 -0.0978433 0.0364906 -0.1462112 0.119272135 0.2054308 -0.24276015 0.15200521 0.13919793 -0.045858752 0.15562545 -0.032284018 -0.1587185 -0.16132806 -0.16320953 -0.117859975 0.10274507 0.05319799 -0.09102285 0.103913605 0.17982878 -0.07778345 -0.005388007 0.0453658 -0.14890653 -0.08973008 -0.0697649 0.21037102 0.045465834 0.05207983 0.09910938 0.022416938 -0.093567766 -0.0041692806 -0.111247435 -0.10603658 0.15236591 -0.22159553 -0.15386775 -0.067493364 0.16452895 0.24859469 0.19696762 0.070246294 0.18977958 -0.0020329808 -0.0727934 0.17859507 -0.005848319 -0.024520626 0.07212958 0.07969211 0.111098856 -0.22177817 -0.044609845 0.12617682 -0.27494434 0.058847122 0.09499267 0.1686274 -0.07863337 -0.2510985 -0.08192015 -0.020866273 -0.22022757 0.0991477 -0.14439867 -0.2631984 -0.057300705 -0.12977032 -0.19017853 0.09662314 0.062753685 -0.02339222 -0.09094838 0.037528884 0.017196361 0.18706585 -0.1164715 0.12157277 -0.23092398 -0.22561465 0.050911598 0.10130842 0.013266827 0.05286854 -0.13779621 0.10168337 0.13499138 -0.042356372 0.020988805 -0.13361529 -0.15054356 0.043514993 -0.13720018 -0.047655296 0.050681178 -0.13572416 0.0557164 -0.07933662 0.042515032 -0.14390296 0.014576503 -0.12026308 0.1817214 0.13452566 0.040312856 -0.24897017 0.11259729 0.120457776 0.13091472 0.10229398 -0.11262456 0.17000912 0.11804014 -0.17440924 0.02158808 0.04945917 0.06675767 -0.16424815 0.1468094 -0.06367768 0.025199147 -0.17787738 0.09981219 0.11339488 -0.2181857 0.09836086 0.059154667 -0.018325098 0.02359935 -0.18165566 -0.05363786 0.13402757 -0.031726714 -0.11877685 -0.10438561 0.0044091083 0.08052583 0.16877884 0.029584534 -0.17798743 -0.19531648 0.032197475 -0.0807506 0.18090194 0.018501872 0.1404203 -0.14899759 -0.22431253 -0.12955657 -0.011940636 -0.11723543 -0.2698747 -0.17392516 0.16357952 0.0984181 0.05413137 -0.10422314 -0.22016414 -0.10470814 -0.08782885 -0.19182386 0.012720995 5.1453346e-05 -0.0362414 -0.2101804 0.07011527 -0.010700541 0.115722544 -0.11522831 0.13395323 0.0041555027 -0.0064049894 0.010447043 0.054522403 -0.19682454 0.046100076 -0.12217588 0.08083996 -0.01196111 0.08274964 -0.124789536 -0.022769237 0.09845746 -0.054823115 -0.11852764 -0.031016406 0.041661363 -0.13268997 -0.13650048 0.08902811 0.15449585 0.035405718 -0.01712011 0.038803052 0.11497683 0.017948514 0.16884352 0.066530146 0.14543319 -0.06437183 0.17856298 0.0024275274 -0.041174103 0.049029205 -0.13516158 0.0899287 0.13698916 -0.058966503 -0.16757418 0.237256 0.028886646 -0.06299922 0.15537918 -0.14311337 -0.24220927 -0.117258035 -0.062094558 -0.16898088 0.056290302 -0.13978861 -0.012881601 0.24264105 -0.015647283 0.10133199 0.09447011 -0.00035313165 0.18010968 -0.14604938 0.16914293 0.12084349 0.085344814 -0.106259115 -0.044522025 -0.10630383 -0.20175888 0.017978024 0.12722361 -0.2054722 0.0020106663 0.10993265 0.015009038 0.041986093 0.12815665 0.29613048 0.120880745 -0.15449382 0.07626076 0.044924367 -0.29679406 -0.036947485 -0.242513 -0.022739518 -0.18473424 -0.0059609297 -0.12741162 -0.09653534 0.050048392 0.010723113 0.105609834 0.0072212615 0.107182056 -0.0801118 -0.024455514 -0.07774777 0.044511892 0.06000687 0.0373238 -0.31907818 0.028120728 0.22203542 0.09870105 0.1641425 -0.09871686 0.2379827 0.04921451 0.13541225 0.097291455 -0.15503098 0.08348523 0.105005294 -0.04700013 -0.08031036 -0.07503617 0.18327057 0.17409602 -0.14517453 -0.023694163 0.08563077 -0.0055459603 -0.15252982 -0.0065494925 0.08724291 -0.25087216 -0.006656113 -0.27708086 -0.21292783 0.15737145 -0.0006366592 0.23203973 0.17343025 0.027571186 -0.30286697 -0.050918553 -0.1456982 -0.09295443 -0.19746001 -0.136297 -0.14104404 0.013374217 0.009426652 -0.17031309 0.08989493 -0.2715847 0.31696168 -0.25644404 0.2406154 0.09802588 0.22590753 -0.08079258 -0.12259552 -0.15317357 0.025908843 -0.051649716 0.07081343 -0.12316526 0.009085162 0.04719383 -0.18133907 0.2014802 -0.19363546 0.00866252 -0.20372504 0.08419031 0.07236814 0.036130138 0.03811483 0.08967703 -0.0747181 0.14537233 -0.010905878 0.0073458254 0.10210445 0.15479241 0.10994687 -0.016312754 0.12460513 0.1976505 0.0070247212 0.023319727 0.08592141 0.09834223 -0.102410875 0.016591106 -0.21360944 0.07701946 0.03775713 -0.1631718 -0.06107319 0.16528861 -0.015652535 -0.02960715 0.05522638 0.116614796 0.07072512 -0.13045995 -0.00610245 -0.06055316 0.0608628 0.109652884 0.1318748 0.10763027 -0.23589213 0.20441817 0.06420977 0.12953334 0.046360742 0.21701635 0.06696187 -0.02453093 -0.10493466 0.07065516 0.14022224 -0.01688747 0.085459225 -0.029085036 -0.14237958 0.03671829 0.26772538 0.22241671 0.09503418 0.14407401 0.0066069695 0.22852287 -0.011141824 0.07983789 -0.0039576446 0.17700343 -0.11643892 -0.033924606 -0.09635121 -0.10454141 0.045360193 0.0004178035 0.04171584 -0.06583805 -0.075721614 0.14473486 0.0029674636 -0.005367031 -0.056577444 -0.054326534 0.0757659 0.20818207 0.058531705 -0.21098952 0.10582411 0.09368767 -0.23413022 0.0006872569 -0.2739909 -0.17159042 -0.0008490799 0.051813133 -0.033239435 0.18780641 0.059264667 0.11772193 -0.10077299 -0.16514662 -0.041630268 -0.080126785 0.13436772 0.024616743 0.031180486 0.08724845 -0.15453002 -0.058459643 -0.19325238 0.017840695 -0.0025541855 0.14088278 -0.122804575 0.16331442 -0.07578825 0.007865573 -0.2547673 0.15072383 -0.12078207 0.070484504 0.0554598 0.044279825 0.15162537 -0.20874067 0.2173934 0.16544452 0.024211114 -0.019456627 -0.02834342 0.039437555 0.23143294 0.097099125 0.07251334 -0.0036687355 0.23517801 0.12736395 0.082554586 0.20115505 0.008490873 0.20823191 0.0221325 -0.19249687 -0.01626138 0.01914841 0.09649836 -0.078359485 0.27096793 0.0009587601 -0.12893486 0.0325074 0.016335458 0.059553217 0.10156606 -0.05838062 -0.017553657 -0.26140276 0.102502204 -0.030607918 0.17249185 0.123245664 0.102190554 -0.23442854 -0.0053095156 -0.15505777 -0.1283992 -0.15104352 0.08390077 -0.06190776 0.22065374 0.24821395 0.060970165 0.049834896 0.07431004 0.093072936 -0.012817809 -0.23576507 -0.08548755 0.0795806 -0.006263434 -0.24774952 0.15853773 -0.09220314 -0.07134889 0.094435155 0.06415512 0.094883904 -0.21430704 0.107284434 -0.23233005 0.16906743 0.12971722 0.0690358 -0.23240513 -0.08231929 -0.07764037 0.09033337 0.13702291 0.16085608 -0.06955988 0.17303485 0.011369443 -0.13114698 0.13472866 -0.122188486 -0.12324059 0.24285227 -0.07207904 0.049377616 -0.1335545 0.048566323 -0.113783665 0.17567065 0.016513567 -0.05445055 0.082540005 -0.17130029 -0.14669731 0.06743985 -0.07759454 0.07312035 -0.16490273 0.018458419 -0.004449543 -0.16999076 0.012477707 0.15925361 -0.12754104 0.13905185 -0.16592395 0.20709616 -0.097014256 0.06474977 0.039230272 -0.004682735 -0.039363783 -0.05116648 0.18416281 0.008109498 0.1935793 -0.033174403 0.10902252 -0.16544512 -0.252152 -0.06583078 0.09623519 0.46840015 -0.119464956 0.12147337 0.086676426 0.118622005 -0.10785656 -0.013561579 -0.018150605 0.13957562 -0.006868571 0.027011799 -0.08055783 -0.24675623 -0.17005649 -0.22812729 -0.13174221 -0.07345192 0.08288231 0.0084838215 0.2939134 0.10662453 0.23611091 -0.15033598 0.046526656 0.12046624 -0.07306749 0.049226604 -0.02018682 -0.2246418 -0.117351346 -0.20652007 -0.23415856 0.19438788 0.088259295 -0.13480641 0.04851573 0.04283727 -0.03650092 0.09884799 -0.29229712 0.023232156 -0.0049937735 -0.19838838 -0.13462146 -0.21752091 -0.07852485 0.06652015 0.13641061 -0.09401886 -0.23144735 0.010142554 0.09515717 -0.12363455 0.09635883 -0.06072455 -0.01491685 -0.14061455 0.06296671 -0.027739672 0.0010003143 -0.16312642 0.024359744 -0.13287303 0.011395952 0.16342273 -0.026838865 0.070572846 -0.12189346 0.16332655 0.045218986 0.063084975 0.18015528
anioł -0.0031674043 0.06902745 0.02928683 0.021066992 0.1577384 -0.02415913 -0.14665428 -0.19018196 0.029024495 0.04003724 -0.07535838 -0.0438709 -0.13548186 -0.0022025616 0.03884204 0.03002894 0.12670435 0.16922475 -0.084355295 0.20079944 0.18518054 0.091193415 -0.06491972 -0.019995872 0.06226124 -0.107061155 0.14794242 0.18639296 -0.030149696 0.061844856 -0.06315319 -0.109633245 0.06444225 0.12128184 -0.103019975 0.05539976 -0.03279258 0.11372486 -0.008827168 0.015527574 0.029450081 -0.06840243 0.03352706 0.118179955 -0.365484 -0.100258574 -0.16679883 0.023011055 -0.1353651 0.12359999 -0.13659376 0.04286573 0.1484527 -0.18758687 0.07799547 0.019038305 -0.117153734 -0.011007055 0.19853301 -0.16954099 0.017264703 0.1473679 -0.15500736 0.020671254 0.06807802 -0.23303252 -0.11217631 0.3089993 -0.18136303 -0.19571362 0.06356258 -0.12060979 -0.10906638 -0.07391441 -0.10194838 -0.110897616 -0.23642063 0.111356884 -0.051060926 -0.17289527 -0.048050385 -0.14074759 0.23818888 0.14520203 0.042543314 0.020919358 0.082686104 0.15289074 0.2349528 -0.10518615 0.24882662 0.07564046 0.017575165 0.00092423346 0.118409336 0.13816926 0.13106516 -0.20145033 0.17089051 -0.06337415 -0.009042481 0.17907359 0.03875901 -0.0653032 0.15354382 -0.08890316 -0.10708691 0.025113057 0.13532317 0.007002311 0.09769715 -0.21739747 0.05514793 0.06297298 -0.1009321 0.17723703 0.0343468 -0.021041822 0.05098604 0.1325395 0.23531148 0.16230704 0.052550822 -0.21625695 0.03772567 0.019804599 0.037663594 0.1816605 0.15637459 0.035492722 0.21294487 0.06988659 -0.07017779 0.08277161 -0.035744186 0.068089314 0.073895544 0.053272538 -0.043268092 0.1834995 0.18808736 -0.17980514 0.2395587 0.093171336 -0.21364346 -0.21125297 -0.14641292 -0.03460222 0.10733293 0.25973356 -0.067680456 0.047944795 -0.13744867 0.04414081 0.0639473 0.027867276 -0.006151573 -0.011851737 -0.012804097 -0.14795214 0.056040738 0.13339971 0.31935003 0.089445546 -0.12376192 0.074252516 0.006150607 0.30897036 0.09999115 -0.15718697 0.1917197 0.18775189 0.099426255 -0.102756985 0.17452887 0.0029759738 -0.1944152 -0.03970621 -0.0049276035 0.21063876 0.015242539 -0.1657422 0.1465605 -0.14996979 -0.3677043 0.04579178 -0.003451099 -0.21687478 0.055101212 -0.13588777 -0.15142974 0.2278655 -0.114366345 -0.051863037 -0.12249587 0.021232879 -0.029588839 0.3123014 -0.24099988 -0.12899366 -0.15665329 -0.14404495 -0.0682567 0.08042387 -0.23574334 0.07618098 -0.10450689 0.12934335 0.055055182 -0.16851926 -0.02052293 -0.10415929 -0.09177663 0.25953498 -0.10380037 0.1215835 -0.040540297 -0.15648445 0.10688417 0.2598389 0.099646755 -0.13592976 -0.019805113 -0.12471256 0.08273913 -0.12336681 0.028674163 -0.18370517 0.16252713 -0.010861568 0.021379368 0.122858636 -0.01958305 0.08072368 0.14627361 -0.202794 0.10072061 -0.0127042355 0.1373044 -0.25871316 -0.06763051 0.20981957 0.1768546 -0.1019411 0.17636898 -0.040698368 0.055468764 0.13512047 0.09648951 -0.11204049 0.13858168 -0.20599392 -0.0027100637 0.17022018 0.02358201 -0.0014486603 0.09434926 0.15209548 0.064998604 0.31873426 0.055470992 -0.17853333 -0.29831287 0.08366699 -0.11760597 0.1360678 0.042434193 0.017094396 -0.031749755 -0.16391957 0.03824409 -0.12119013 0.07695665 -0.07026346 -0.17561696 0.21489367 0.12036527 0.17129084 -0.053434815 -0.15046114 -0.0629804 0.09862 -0.19689946 0.14089856 0.13154784 -0.20329504 -0.27556735 0.10103644 -0.0025287839 0.10682744 0.010933969 0.18833666 0.038031433 0.17589903 -0.06918203 0.17058867 0.12584992 0.1183919 -0.0071608066 -0.18343952 -0.10853061 -0.10707317 -0.014701877 0.0647606 0.17625207 -0.077734105 -0.16464533 -0.18719405 0.12439479 -0.07625132 0.05578004 0.003779285 0.029151306 0.16877215 -0.018516386 0.016003888 0.047928914 0.06435944 0.22360498 0.08341976 0.063494116 -0.2435909 0.17130077 0.06299632 -0.025919527 -0.09198179 -0.027555548 0.12436758 0.08921702 -0.03699535 -0.19030008 -0.050185803 0.13922726 -0.12847431 0.17800945 -0.07868544 -0.19628018 -0.05124843 -0.0052205315 -0.00999142 0.01882072 0.1033127 0.032142237 0.23706572 -0.04055369 0.056077342 0.013735057 0.236928 0.020755159 -0.027666265 -0.039223887 0.013117513 0.16492073 0.04540189 -0.23041366 -0.05224343 -0.053617626 -0.13199842 0.10088426 -0.18520376 -0.093432225 0.04605512 -0.18412025 0.09050577 -0.0030639847 0.18938185 -0.007840905 -0.12349874 0.12795235 0.055766754 0.03850665 0.012971002 -0.29882875 0.091286145 -0.05706734 0.035295058 -0.036185 -0.037882604 0.018950667 -0.03468112 -0.10272747 -0.055300467 0.12988697 -0.2143503 0.08678589 0.04384151 -0.020895027 -0.031519435 -0.13506137 -0.109820485 0.23469906 -0.10549283 0.11953359 0.0068081184 0.00041854987 0.044179928 -0.07829933 0.1846064 0.12619624 -0.025321664 -0.18459654 -0.1067638 -0.13614498 -0.07968294 -0.14142586 0.17262287 0.030603234 0.14952746 -0.19723634 0.1882849 0.20767257 -0.05650059 0.0102680465 0.06866741 -0.16844602 -0.07693464 -0.22025953 -0.23980795 0.06385973 -0.042965762 -0.11647768 0.030367494 0.062142894 -0.26086843 -0.008004644 -0.06256821 0.042923767 -0.14807165 -0.22715876 -0.27239576 -0.10249027 0.039258648 -0.05078146 0.11010997 -0.19109012 0.063149825 -0.018807711 -0.0129206525 0.054955024 -0.032101594 0.065417014 -0.034788296 -0.19296709 0.19424842 -0.23394057 0.087096974 -0.1450244 -0.07533966 -0.06364837 -0.15679617 0.2839476 -0.16100772 0.14188628 -0.2471904 -0.29531953 -0.13772735 0.12692347 -0.014638599 0.15668352 0.21762767 0.14681743 0.06984062 0.20747657 0.25163153 0.2611988 0.26587343 0.06711857 -0.0017446985 0.11536889 -0.0029696675 0.16253802 0.033362877 -0.054940086 -0.108906806 -0.25835574 -0.17383768 0.07843503 0.05548168 -0.09345903 0.062304426 0.078452446 0.065094486 -0.090475924 0.123674884 0.17814118 0.14980437 0.011378255 0.16238284 0.023948044 -0.023517208 0.11042792 0.08077888 0.04152094 -0.2812383 0.1381548 0.21000017 0.013860595 0.13950664 0.11543871 0.014922252 0.082396455 0.11994297 0.050022796 0.118114606 0.06598769 0.20998591 0.054975193 0.07459806 -0.15500595 -0.0427034 -0.094370924 0.2600431 0.057712257 0.1549317 0.03539444 -0.20030376 0.015858 -0.06056473 0.121976554 -0.18247068 0.05245793 -0.030801613 0.015161077 0.22509307 -0.043232374 0.15948239 -0.0044130236 -0.06514578 -0.08272382 -0.012565248 -0.117392965 0.10550075 -0.23922002 0.13309829 0.120352276 0.16524166 -0.33067816 -0.04236843 -0.038729385 -0.20691237 -0.14190929 -0.18950278 -0.102542505 0.06754304 -0.07464616 0.1154046 -0.06361439 -0.0141654145 -0.0037312042 -0.07892695 -0.21482252 -0.17070858 -0.1375663 0.10547585 0.10882168 0.06006257 -0.06396358 -0.046480782 0.071639426 -0.114427455 0.027259115 -0.0189848 0.058396205 -0.09495477 -0.10353742 0.03300696 -0.022530952 -0.17727125 0.021390924 0.09757056 0.059857868 -0.09114808 -0.038027413 0.07305806 -0.03512298 0.1007991 0.065586485 -0.11847815 -0.075672515 0.00041479757 -0.14097944 0.038859982 0.12397526 0.004721062 0.09418887 0.17573218 0.073246986 0.21748632 0.022147782 0.27356723 0.13030727 0.13814233 -0.20658559 0.18567519 -0.06994221 0.06353102 0.003994761 0.17608762 -0.03856561 -0.15669136 0.21090959 -0.038894415 0.15421535 0.1514533 -0.074789606 0.22657152 -0.24044079 0.19702749 -0.12716119 0.003273932 0.018291693 0.20516123 -0.059866857 -0.16105868 -0.07595946 -0.07529022 -0.23372285 -0.05240415 0.100598365 0.3098654 0.08549092 -0.032277856 0.14517213 -0.021383604 0.059147503 0.08620384 -0.17790687 -0.094194055 -0.082275964 -0.023182897 0.117000096 0.00034887486 -0.055621684 -0.11235605 -0.024968736 0.059335947 0.09903791 -0.11954282 0.019098312 -0.28897995 0.057364337 -0.03573095 0.15721355 -0.18319248 -0.034400698 -0.15914732 0.1291119 0.03854166 0.14048685 0.23416251 0.043596465 0.07979316 -0.04126391 0.03990998 -0.06995803 -0.11568817 0.23082986 0.022382326 0.017783184 -0.24355681 -0.026566215 0.028451478 0.10247182 0.01945567 0.017613072 0.10923672 -0.11466246 0.097468235 -0.04252093 -0.19308335 0.0017124526 0.061358698 -0.024512209 -0.045071535 0.023866614 0.0012320097 0.18859169 0.10376009 0.13416426 -0.20904197 0.027548667 -0.0120733855 0.07804497 0.23672 -0.19591825 0.11360441 -0.01982834 0.24442546 0.11550649 -0.032145523 -0.07041033 0.023020957 -0.11853165 -0.16344906 -0.11480797 0.14622387 0.23833382 -0.20121732 -0.059755925 0.13445127 -0.0039971024 -0.13959393 -0.095401734 0.14364544 0.06931595 0.08176733 -0.035661418 0.11187584 -0.2890878 -0.1457744 -0.14097168 -0.018647334 -0.085239194 -0.064166054 0.30858457 0.3138231 0.0038697054 -0.017205404 -0.20485887 0.19569537 0.030844912 0.082944416 -0.07376941 -0.28914967 -0.1640523 -0.262558 -0.16202553 0.07284148 0.10324011 0.015956378 0.19695064 -0.16967157 0.17040676 -0.048817657 0.0057529067 -0.19073148 0.01931354 0.033470776 -0.19315438 -0.30902845 -0.21762837 -0.07248978 0.13228737 -0.1617785 -0.25405028 -0.3866968 -0.1430724 -0.032679033 0.08201215 -0.02605827 -0.26279 -0.040022675 -0.06751758 -0.20165274 -0.08190876 0.0840828 -0.09302761 -0.080411255 -0.14779459 -0.09415869 -0.091107324 0.19628428 -0.007318186 -0.14856505 0.047168184 -0.005818069 -0.08792452 0.19792075
alasz 0.050132833 0.15637584 0.0899755 0.04530775 0.025435729 0.5634182 -0.74778193 -0.273637 -0.042615198 0.051948942 -0.25989705 0.22799796 -0.23725186 -0.018874634 0.05278856 0.41318744 0.07267863 0.18220061 0.25954542 -0.06898063 0.048474118 0.16529347 0.055349752 0.12728684 0.11715952 -0.4218205 0.00014572883 0.31867948 0.04724105 0.27787036 -0.16621324 -0.16954231 -0.32257172 0.21306416 -0.20675762 0.184442 -0.11113299 0.11657261 0.08608351 -0.028491665 0.1575484 -0.29227775 0.17379305 -0.0536873 -0.37559018 0.06093182 -0.08556029 0.030680133 -0.31267217 0.31196484 0.19784847 0.2192067 0.2633649 -0.2674652 0.1156839 0.1821889 -0.25168633 -0.04393702 0.17000848 -0.016774938 0.2500165 0.043686993 -0.3551048 0.089420065 -0.082417294 -0.013575396 -0.19336218 0.17057465 -0.06916968 -0.10105689 -0.061207537 -0.19696951 0.10494782 0.0029496292 0.0512895 0.117289655 0.094974294 0.23533641 0.1046667 -0.13134404 -0.06505434 -0.0690645 0.3113389 0.017580256 0.010697471 -0.030941918 0.277235 0.27357852 0.14676726 -0.34309492 -0.011319144 0.2046629 -0.21411005 0.5059283 0.005093444 0.17795366 0.07119875 -0.35315323 -0.045220796 0.06827638 -0.11648988 0.44714713 0.19745776 -0.007567079 0.37023082 -0.5102424 -0.03976039 0.19699405 0.01668068 -0.3384935 -0.22317603 0.13920714 0.063159905 0.048116226 -0.09936833 0.12101419 0.07119157 -0.085500225 0.16416156 0.16564205 0.21710046 0.13239269 0.077795014 -0.28746516 0.1244015 0.27928954 0.052916564 0.32741848 0.16476098 0.22262695 0.28450638 0.23177145 -0.13741286 0.045639925 -0.00075763004 -0.32082307 -0.035871502 0.100766286 -0.33438924 0.038035646 0.011634378 -0.1289709 0.14672185 0.28921828 -0.40714228 -0.4385476 0.085173324 0.1558553 0.2878942 0.37338367 0.06957615 0.07210002 -0.21295771 -0.045919735 0.1222789 0.107743606 0.398408 -0.24507803 -0.03267263 -0.33026823 -0.093659066 0.113581635 -0.030587293 0.081626706 -0.07762189 0.28919485 -0.22137645 0.14819156 -0.019073376 -0.025281837 0.01889544 -0.023210132 0.16728579 -0.21575671 0.406304 -0.084765725 -0.15093172 0.10824152 0.10185704 0.2969604 -0.19449481 -0.12094092 0.15930665 -0.30129474 -0.28325766 0.09685618 0.04214157 -0.13877748 -0.02627756 0.097160876 0.10538133 0.3492333 0.17619121 -0.029344589 0.065814875 0.048896756 0.044003513 0.13465188 -0.18695621 0.1328612 -0.35174078 0.12070421 -0.07241274 0.08313272 -0.16592327 0.33203265 0.11352874 0.29161268 -0.12164057 -0.13024534 -0.08884764 -0.29018143 -0.05152063 0.055243444 -0.04297695 0.10062148 0.0256679 -0.06697745 -0.05159628 0.3252659 -0.092764206 -0.25441808 -0.009290844 0.0017132268 -0.1656242 -0.04918792 0.24744998 -0.34629405 0.04632002 0.2684162 0.15985969 0.3426186 0.14663868 0.17345135 0.2494094 -0.06288008 0.31283298 -0.19819337 0.0783493 -0.02441434 0.12612116 0.031002421 0.1289233 -0.24571137 0.2859632 0.051864415 -0.092774704 0.32999206 0.28139263 0.11165501 0.06748277 -0.17105679 0.037820894 0.4502291 0.3643785 -0.042004213 -0.10427015 0.19383064 0.14734499 0.5384537 -0.02416755 -0.2639893 -0.04800289 0.007204602 -0.15730786 0.061084703 0.06559169 0.6543064 0.36056885 -0.19006889 0.27505058 0.10790691 0.053407837 -0.20995565 -0.10273108 0.41689232 0.1290858 -0.010490717 0.09060141 -0.3565579 -0.11629893 -0.23127149 -0.3706984 0.19512618 -0.03707486 -0.19534197 -0.34844473 0.22810423 0.06359602 0.05975825 -0.15146592 0.17614397 0.044249292 0.16438174 0.055728193 0.11026573 0.14380042 0.12325626 -0.23174761 0.029225431 -0.113263234 0.35709345 -0.0034337512 -0.049432658 0.13841386 0.17543189 -0.13744211 0.0669779 -0.05394049 -0.16065681 -0.092385486 0.09166752 0.07895277 0.14340821 -0.12489654 0.077337824 0.39527065 -0.07892173 0.48533592 0.10912724 0.026380733 -0.27612895 0.16712955 -0.18873282 0.2934603 -0.017622344 -0.13542558 0.10935073 0.46498102 -0.097509034 -0.124251515 0.39255205 0.09072208 -0.022429189 0.13526487 -0.13399604 -0.2699981 -0.18646567 -0.18612704 0.19340011 -0.019420197 0.16501658 0.30939502 0.34656695 0.29392678 -0.17022014 -0.039375387 0.29950616 -0.14449748 -0.09779809 0.36230248 0.21447739 0.079840936 -0.039908025 -0.072865404 -0.0018154262 -0.06195965 0.06334722 0.19518729 -0.23521397 0.18003297 0.103570856 -0.03463736 0.0545485 -0.054854814 -0.13298059 0.05349418 0.0145558 -0.16186082 0.20117728 -0.15736495 -0.11859154 -0.0012630833 -0.26656902 -0.07309803 0.29368117 0.027344523 -0.06501699 0.17216393 0.07201832 0.19166876 -0.35876173 0.08464371 0.26593146 0.08038071 -0.12397402 0.2988023 0.23927289 -0.08728702 -0.15518644 0.29498464 0.13811705 0.08201971 -0.012234788 -0.11500348 0.23684028 -0.12326352 0.36484036 0.29092926 -0.16038077 0.27132717 0.047747653 -0.20558624 -0.09998221 -0.25722834 -0.025265532 0.16822292 -0.041357044 0.10746443 -0.0206163 -0.2852825 0.046855442 -0.28371197 0.12304007 -0.15958546 0.060498174 -0.22729336 -0.1939795 0.36900458 0.53036696 0.0043960838 0.11555674 -0.084135994 -0.14802906 -0.029563922 0.02875991 0.19343206 -0.17858304 -0.0077753686 -0.29429644 -0.17035054 0.11106271 -0.030204078 0.13851891 0.050356187 0.096566744 0.16515426 -0.03644727 -0.13317718 -0.04137328 0.031182382 0.11086093 -0.54557 0.25000593 -0.09255482 0.09988043 -0.2401781 -0.08630682 -0.28867394 -0.107082844 0.18218113 -0.13879907 0.19783418 -0.30029705 0.07361713 0.011380789 -0.2598462 0.27011207 0.06975869 -0.36005723 -0.023179453 -0.14624953 0.018381199 0.1607836 0.35268128 0.037311353 0.16155532 0.34936035 0.16341226 0.14349206 0.2535367 -0.03314989 0.30695295 -0.022188582 0.003049446 -0.063559994 0.2696761 -0.07851862 -0.27633575 -0.06143618 0.26105267 0.058622964 0.3850763 0.10750738 0.0830917 0.65970623 -0.14568852 0.3030621 -0.06584488 0.16178387 -0.053645443 0.081948064 0.29941368 -0.26822445 0.18766032 0.2195137 0.2739575 0.07658536 0.09026314 -0.08207859 0.20447038 0.14205186 -0.17437486 0.17934988 0.17112936 0.4094006 0.09813423 0.117344186 0.2053056 0.23743626 0.1770936 0.41957334 -0.021894727 0.026547868 -0.08104533 0.23193774 0.14269817 0.11991117 0.17873996 -0.30184576 -0.22315517 -0.21947525 0.23750068 0.052975155 -0.19962627 0.11815092 0.11323117 0.040382124 0.29680073 -0.10056533 0.07913813 0.05783012 -0.04699353 0.10267069 0.09470968 0.06181307 -0.19457355 0.108714394 0.1684894 -0.07789531 -0.04499516 -0.037200786 -0.040420994 0.15834534 -0.032094326 0.1670467 -0.33147013 -0.16705659 0.07693187 -0.26372266 -0.167644 -0.25407016 0.14893036 0.1058471 -0.1829705 0.018947663 0.06817808 -0.018542945 -0.032712962 -0.22593716 -0.24955267 0.21855336 -0.042844646 -0.18738808 0.117496885 0.24023181 -0.18865131 -0.12560415 0.10532696 -0.21161112 0.062257208 -0.09100282 -0.3390245 0.20504907 -0.07983104 0.06150501 -0.16050076 -0.08771761 -0.054032203 -0.1747804 0.16914254 0.027971096 0.04683862 -0.15092237 -0.4005775 0.31160623 0.20416416 0.33013466 0.5315962 -0.19756426 -0.055149663 -0.15708256 -0.2282716 0.1472857 -0.12922587 0.2341186 0.32436717 0.38238966 0.16990878 0.097259864 0.14568666 0.3925616 0.0435142 -0.16283749 0.037513923 0.0866497 -0.18463261 0.19619484 -0.22121167 0.25598878 -0.06559799 -0.031652328 -0.08454205 0.04027539 -0.050621774 -0.028602742 0.37420183 0.08669524 -0.25308707 0.059507944 0.09800798 -0.13918662 0.2961094 0.4444158 -0.2182866 -0.044822022 -0.27061793 -0.11963355 0.054047078 0.25268844 0.13326453 -0.045326293 -0.3082113 0.00083428615 0.06694583 -0.10876407 0.025475128 -0.14684364 0.09648682 -0.26265302 0.34562585 -0.09279726 0.14719702 -0.22834173 0.035263617 -0.40521953 0.17671986 0.18632497 0.27666032 0.07982432 0.07179399 0.12103084 -0.18642546 0.13881633 0.1497617 0.040249262 0.47692922 0.22082151 -0.07315944 -0.11577996 0.09025997 0.24391985 0.16865481 0.12949862 0.050421607 0.15201963 -0.15785493 0.031072125 -0.016753059 0.19511245 0.11479614 -0.32968736 0.036678616 -0.09096818 0.37817854 0.27201396 0.03720503 0.03101114 0.13347162 0.022158839 0.17492743 0.05546498 0.17948802 0.32126233 -0.23430416 0.086161695 -0.05523511 0.4762175 -0.064289995 0.16953196 0.12785381 -0.04932933 -0.29583743 -0.3761662 0.12452242 0.4810187 0.38309965 -0.26282293 -0.07508694 -0.011994305 -0.055685297 -0.18534291 -0.099348694 0.2849442 0.24873054 0.10963846 0.13108125 0.2852559 -0.21016297 -0.18953776 -0.26567513 -0.15468189 -0.1478615 0.090312995 0.31321174 0.0448496 0.088424355 0.08402647 0.011123588 -0.05307918 -1.3213407 -0.073639765 0.23627155 0.1385788 -0.043631967 -0.16995905 -0.02810186 -0.07123717 0.24952318 -0.043856382 0.14501207 0.17461105 0.31433785 0.113334365 0.06993014 -0.2514706 -0.12060344 -0.04382903 -0.06323914 -0.25981134 0.066417396 -0.16938724 0.4747987 0.13817489 -0.0754648 -0.31578225 -0.16030353 0.11389309 -0.14198078 0.0061457325 -0.4560008 0.03775904 -0.2927947 0.120783746 0.056473635 0.34541896 -0.1386747 0.026961276 -0.4924704 -0.0784421 0.075238034 -0.19410983 -0.26390874 -0.15413122 0.10713978 0.262828 0.12370912 -0.031130228
alba 0.0196848 -0.001432794 0.067560606 0.0051245075 0.067805886 0.45253018 -0.75002897 -0.4316808 -0.09245246 -0.009589722 -0.44042385 0.2807413 -0.015516723 0.020054484 0.06693304 0.5327475 0.10959541 0.061069693 0.30902204 -0.016543638 -0.017539669 0.121340156 0.012766984 0.058371577 0.12835194 -0.311026 -0.087766096 0.11304473 0.029463978 0.34211242 -0.38697883 0.0060755783 -0.23785418 0.1458621 -0.2655352 0.13373852 -0.18220331 0.19489653 0.052992795 -0.08337468 0.067230515 -0.19369799 0.08390102 0.0714358 -0.36520073 0.22619723 -0.14633895 0.09202749 -0.24332763 0.31275573 0.11622012 0.13283801 0.41863945 -0.23116213 0.15214625 0.15770516 -0.2088144 -0.14059524 0.060075887 0.031260855 0.21054426 0.042864326 -0.28326306 -0.08010851 -0.03800647 -0.08360041 -0.34569055 0.2999685 -0.06554072 -0.14186896 -0.019350896 -0.13883142 0.18709324 -0.013175372 -0.04875821 0.014271981 0.15203457 0.5118792 0.11751291 -0.04842417 -0.0781751 -0.067899175 0.27889794 0.06695554 0.15062991 0.010662401 0.12709486 0.30182597 0.15690841 -0.36454958 -0.013934496 0.09013428 -0.2160791 0.4025083 0.062149692 0.11940669 0.12016815 -0.4365415 0.040766895 0.06386201 -0.04970485 0.44749025 0.1647264 0.017434081 0.24073668 -0.44584897 0.05199375 0.12177017 0.07098604 -0.30857673 -0.0990175 0.15116191 0.22000204 -0.15019901 -0.13713777 0.10274408 0.062414132 -0.20059696 0.09240514 0.1347479 0.28795847 0.2502534 -0.012356763 -0.2449503 0.09766173 0.2818372 0.18633166 0.41848123 0.1077551 0.27666178 0.31282207 0.16389333 -0.2607591 0.0789764 -0.10697237 -0.28787842 -0.16948089 0.029445311 -0.35558864 0.10324603 -0.07007098 -0.08944289 0.100359276 0.31181598 -0.40553418 -0.35987297 0.15442996 -0.017659575 0.32478142 0.39146 0.031021275 0.021480896 -0.21433343 -0.06413766 0.055984084 0.040109944 0.4598395 -0.20171371 -0.034689154 -0.3538501 -0.09041816 0.20321277 0.0073551964 0.1126539 -0.13461491 0.27836138 -0.2280011 0.24786964 -0.068680726 0.059753843 -0.11026931 0.0035984947 0.059992753 -0.23227917 0.18792982 -0.23064034 -0.117264636 0.058397334 0.018824214 0.26128513 -0.13172697 -0.10447727 0.1204655 -0.54153705 -0.3301834 0.12187587 0.04513525 -0.094494626 -0.04523577 0.08849235 0.14490825 0.33545431 0.11752042 -0.03601486 -0.104571916 0.08892751 0.11406063 0.13150838 -0.18827407 0.032490246 -0.26742995 -0.02140281 0.10275085 0.1941348 -0.19373055 0.16052838 0.055947036 0.36247438 -0.043582983 0.04212279 -0.14159024 -0.48565492 -0.15318803 0.073426954 -0.13191324 -0.048406083 -0.07962087 -0.13949311 -0.101321906 0.29524818 -0.17507675 -0.048899163 -0.29606882 0.018360049 -0.28198904 -0.03512564 0.08339793 -0.21751101 0.09534799 0.27183837 0.1750187 0.34229425 0.09266472 0.17202488 0.094961524 -0.07882312 0.20775597 -0.04737978 0.13485026 -0.16957593 0.09023178 -0.13046515 0.047121394 -0.23565292 0.117874764 0.18264763 -0.056484886 0.37726083 0.30397457 0.17554362 -0.015264804 -0.30494082 0.1173604 0.4429217 0.31797254 -0.10172569 -0.09996907 0.16210948 0.13409239 0.4729023 0.038001157 -0.12134721 0.023118952 0.03980377 -0.087203056 -0.06569846 0.22986844 0.6221835 0.33822772 -0.088898316 0.23003556 0.012467418 0.18265502 -0.28092182 -0.28676677 0.2973463 0.19174634 -0.12817484 0.105490394 -0.2344908 -0.11765228 -0.1714912 -0.24522752 0.10598474 0.007771581 -0.21833266 -0.41933915 0.26717 0.08058311 0.02476776 -0.21432117 0.13540052 -0.041587442 0.23401801 0.10724187 0.13827685 0.049046263 0.12096738 -0.24496676 0.08637526 -0.06726673 0.3394575 -0.05136783 0.0026823515 0.08411593 0.26315498 -0.14144109 0.15650117 0.092589796 -0.119642034 -0.19881138 0.21814492 -0.13474801 0.23692077 -0.06350488 0.0041347966 0.41542816 0.1083477 0.5001595 -0.031452302 0.059936333 -0.2791589 0.045391794 -0.1651895 0.36146998 0.011708008 -0.075085536 0.11560432 0.47739393 -0.16372216 -0.10357121 0.39424834 0.073690295 -0.02218853 0.21002999 -0.25849104 -0.20267095 -0.1926844 -0.18477802 0.20900469 -0.045225758 0.025709035 0.28182155 0.31160447 0.26710185 -0.1541921 0.18158536 0.32850632 -0.058795016 -0.17240316 0.3744171 0.34245282 0.22126122 -0.20032181 0.025186041 0.05614479 -0.12330492 -0.01582455 0.34044465 -0.1347496 0.2050041 0.14107665 -0.07010512 -0.16137359 -0.13168131 0.045952786 0.0004611096 -0.18523127 -0.17996444 0.28740102 -0.023880921 -0.17994425 -0.27313635 -0.26224706 -0.013191295 0.34383908 -0.1073005 -0.02096527 0.17776866 -0.0740424 0.20320873 -0.27249926 0.032443687 0.21063468 0.14384772 -0.03948997 0.21133202 0.27449676 -0.11346964 -0.13193074 0.31050637 0.146239 0.20424893 0.05636934 -0.20397644 0.13486768 -0.1282458 0.322337 0.412737 -0.1598133 0.079770945 0.008577105 -0.17287141 0.028118763 -0.17548737 0.06124541 0.12040516 -0.13334727 0.1556029 0.040515814 -0.040265728 -0.060457975 -0.22730549 0.2169611 -0.14255312 0.09097199 -0.25516298 -0.17539641 0.36843288 0.51582813 0.06182203 0.12565531 -0.19323257 -0.08137374 0.14447589 0.04745995 -0.058332518 -0.3150809 0.12503034 -0.17486547 -0.14046322 0.20193736 -0.11639768 0.15180536 0.17198643 0.13693497 0.1749532 -0.06853194 0.10691939 0.026468785 0.081978105 -0.12121529 -0.4930463 0.18796313 -0.1020174 0.17276938 -0.26457423 -0.1592381 -0.17953266 -0.031878166 0.19008988 -0.14453736 0.14788489 -0.16770975 0.12828612 0.06728063 -0.3701207 0.22458197 -0.0065985266 -0.17105658 -0.06288179 -0.16509105 0.13110754 0.25430295 0.35824487 0.09735024 0.11485757 0.19487046 0.1842274 0.067139916 0.17745607 -0.055837106 0.27715817 0.0629269 -0.10913734 -0.02635665 0.3021705 -0.012102414 -0.34003812 -0.1602172 0.21006478 0.06886697 0.30680883 0.13855474 0.09425542 0.4478231 -0.2737797 0.19714217 -0.059272606 0.14120208 -0.005444873 0.25832662 0.23728733 -0.31161144 0.2847901 0.18423997 0.10078298 -0.04506034 0.11546794 -0.120260194 0.22418158 0.0253658 -0.12725675 0.3021762 0.0656025 0.4553904 0.19875972 0.19043738 0.23770194 0.21083255 0.17497335 0.28905526 0.089840025 0.1940444 -0.17863119 0.1470094 0.14900267 0.04864478 0.1304148 -0.21570875 -0.11603086 -0.15697074 0.085292034 0.08088802 -0.11759052 0.14819078 0.06288611 -0.07297623 0.16434485 -0.057476804 0.07893894 0.021682251 0.020871459 0.12823483 0.08888271 0.17563364 -0.20748004 0.020681407 0.12966615 -0.025996642 -0.060674682 -0.034964405 -0.018877454 0.19297715 -0.08081957 0.12510808 -0.19776107 -0.23313072 0.07319597 -0.14320427 -0.24671428 -0.28553498 0.114805125 0.11458551 -0.13797095 0.026942123 0.2079503 -0.034333985 0.10086358 -0.26988 -0.08064455 0.06979607 0.13817137 -0.45134592 0.21740235 0.23522909 -0.18388055 -0.17074783 0.13164371 -0.15411668 -0.00878356 -0.15878132 -0.28788856 0.14098857 0.11373906 0.063159056 -0.1884249 -0.20779848 0.03471134 -0.2293431 0.12003487 0.04760028 -0.035992544 -0.12364681 -0.4699495 0.4440423 0.28559256 0.23234528 0.3462543 -0.15230916 0.09106431 -0.1836306 -0.2045876 0.32414508 -0.11138899 0.13572527 0.20482324 0.26226178 0.20720538 0.00207227 0.28511202 0.23287305 0.07764246 -0.21468805 0.004800282 0.001682795 -0.106835686 0.17863938 -0.32268214 0.2529378 -0.02912031 -0.01765627 0.0892192 -0.076246515 -0.1781779 0.010244837 0.30251154 0.0669255 -0.278963 0.14462852 0.14294343 -0.004166796 0.22559062 0.40883818 -0.08040396 -0.22543973 -0.25732166 -0.22033681 0.12774137 0.26175457 0.24629632 -0.05079459 -0.22927137 -0.018400436 0.06617884 -0.07624057 -0.0676143 -0.050672345 0.13736403 -0.2700983 0.30943602 -0.14074096 -0.0023723652 -0.10676542 0.047326036 -0.18129714 0.0433905 0.18794318 0.22857243 0.054069363 0.2473314 0.10572787 -0.14005116 0.10144421 0.16914147 0.08120106 0.50957245 0.34394577 -0.05617852 -0.12258738 -0.18195675 0.13790058 0.16257767 0.24314979 0.026669426 0.2013569 -0.21375823 0.036052056 -0.093960814 0.25617787 -0.06594574 -0.21956414 0.0099162515 -0.06915321 0.23930429 0.16757135 0.1687701 0.007338895 0.23580258 0.2117846 0.1685417 0.010949997 0.1749322 0.25201288 -0.27149025 0.036046125 -0.012767149 0.4020895 0.029468004 0.039883018 0.10198189 0.045602735 -0.35783374 -0.40751362 0.16734442 0.5504659 0.42674956 -0.2809095 -0.07092104 0.031239545 -0.0765511 -0.20824309 -0.14142346 0.22525157 0.26097572 0.08376604 -0.06562817 0.2926869 -0.15788129 -0.17200522 -0.24390744 -0.3029155 -0.0063060136 0.005918644 0.34831464 -0.0653608 -0.05589473 0.23693404 -0.007948532 -0.10621493 -1.267595 -0.012715795 0.23701559 0.035614 -0.06816372 -0.07890266 9.0152455e-05 -0.069961436 0.14036095 0.102352716 0.14698242 0.18274356 0.19259357 0.018555874 -0.02794544 -0.29438737 -0.14320242 -0.2039772 -0.03989343 -0.35197473 -0.02621565 -0.23322384 0.37442377 0.21329942 -0.16686891 -0.28131154 -0.08308679 0.03523457 -0.08159818 -0.028830916 -0.35960037 0.016828354 -0.18788807 0.07159484 -0.020727722 0.34624913 -0.17959473 0.070854545 -0.44388485 -0.0020112009 0.3060039 -0.10812519 -0.115144715 -0.24366689 0.11537363 0.19481231 0.21686617 -0.16930825
alfabet 0.04183391 0.02382396 -0.0026800376 -0.058219373 0.11650877 0.109751515 -0.6627845 -0.33361894 0.062450826 0.25221244 -0.04696197 0.20394757 0.0016443172 0.00942947 0.002254282 0.3638662 0.24388456 0.11069805 -0.10725038 0.24411175 0.12117734 0.5005138 0.06464627 0.15502027 0.20983648 -0.23525313 -0.0811571 0.022177605 0.30191892 0.24324434 -0.35062104 0.08233693 0.16681735 0.35483745 -0.034952007 -0.14398295 -0.13557471 0.21714419 0.19206955 0.06767763 -0.082706526 -0.0057054847 0.17312928 0.2465143 -0.36587778 0.40907928 -0.20048276 0.32391956 -0.2632746 0.41502914 0.02464491 0.022278996 0.40623417 -0.13488716 0.09491184 0.32071534 -0.16931994 0.018058639 0.07178968 -0.2960434 0.061836354 0.36750004 -0.22718967 0.010398697 -0.04850528 0.13923247 -0.27246216 0.32486978 -0.051002953 0.04067156 0.16741155 -0.19603164 0.40787256 -0.11469379 -0.21534608 0.018642047 -0.12812413 0.27522084 0.09326628 0.12320495 0.014560556 -0.20139092 0.25161102 0.056381594 0.14829388 0.00033533695 0.012843505 -0.098113745 0.0955566 0.089360945 -0.04756634 -0.07083931 -0.14218836 0.41592604 0.1904314 -0.012065717 0.2615134 -0.46558997 0.0047406727 0.22627789 0.276823 0.19945334 0.33734223 0.19195342 0.16960324 -0.40722314 0.15604466 -0.14508358 0.07708536 -0.12681293 -0.0028262027 -0.05618991 0.24429181 -0.32610866 -0.024069132 -0.1872025 0.07454958 0.21983428 -0.03304678 -0.029323792 0.2816976 0.08766856 0.03998304 -0.23309042 0.07024623 0.2861495 0.13578092 0.0019176875 0.31367305 0.33021796 0.3176019 0.16869478 -0.12732404 -0.00561023 0.0518391 -0.1251381 -0.13592401 0.033962462 -0.08592728 0.14945419 0.15322012 -0.023029376 0.15465455 0.2235865 -0.18328992 -0.30351326 0.095452935 -0.07361666 0.25092274 0.43799907 -0.010581155 -0.01864685 -0.20223404 -0.042322997 0.1345541 -0.0907469 0.16240318 -0.24091296 -0.0834302 -0.09612026 0.073767126 0.3154564 -0.03891933 0.2624417 -0.08768293 0.26156297 0.2454702 0.29136193 0.09246746 -0.13875417 -0.07071403 0.07740073 -0.049381655 -0.24207747 0.078751706 0.014577526 -0.17192063 0.27284184 0.03726564 0.0098538315 -0.08867507 -0.2975645 0.1655426 -0.31920463 -0.30530214 -0.021838887 -0.06792993 -0.29552212 0.07487318 0.13011669 0.11783921 0.20779195 0.040070646 0.029444464 0.14959311 -0.060480222 -0.030874228 0.13866875 -0.22374916 -0.12683256 -0.21000534 0.04140991 0.256461 0.17842999 -0.057543334 0.032426845 0.020349583 0.2563445 0.23672287 0.010581139 0.14406332 -0.005010555 -0.07973212 0.0736533 -0.012786675 -0.11441727 -0.053281255 -0.10128726 0.022747386 0.03808444 -0.25648287 -0.16100818 -0.041011717 -0.08875333 0.023101265 -0.11565605 0.2916422 -0.27251282 0.13672777 0.3235845 0.17702626 0.14303315 0.12188661 0.263361 0.50834036 -0.021687293 0.25472337 -0.2617309 0.32906476 -0.28120947 -0.009923195 -0.10151806 0.23214178 -0.21734506 0.088888586 0.44728723 -0.019279677 0.52142584 0.062437773 0.08572679 0.11848076 0.15141831 0.13809325 0.33449164 -0.03744962 0.061008796 0.11207877 0.04629792 0.14534523 0.51711553 0.0012372483 -0.28646466 0.13194901 0.14624178 0.08220305 0.1316648 0.2563485 0.632375 0.08767707 -0.3542659 0.15275444 -0.0009859574 0.4039094 -0.2665921 -0.15321048 0.27718607 0.11865332 0.21684174 0.045522273 -0.14238687 -0.11610839 -0.05671858 -0.32811183 0.05972887 -0.12690443 -0.11596159 -0.3176425 0.18482621 0.017112484 0.113985926 -0.13983442 0.33468968 -0.15341398 -0.036006786 0.12824035 -0.021688316 0.29618844 0.045122333 -0.10502554 0.25628307 0.07634151 -0.17119065 0.20239848 -0.051354606 0.037708856 0.3992331 -0.23229301 0.057795223 -0.074495606 -0.15988831 0.00037689367 0.158825 -0.09985608 0.06781242 0.28187352 -0.026581952 0.14134021 -0.07275401 0.46520138 0.022859603 0.12534037 -0.124938175 -0.052105434 -0.041528452 0.5256748 -0.039209332 -0.10100927 0.042727076 0.21975927 -0.08931528 -0.103712864 0.34749222 0.031751618 -0.060787123 -0.008153589 0.14574212 -0.18573287 -0.22375369 -0.0119337225 0.0693312 -0.1726698 -0.20571552 0.165085 0.19739506 0.2153321 0.24865292 0.14673738 0.22807513 0.09427646 -0.23341343 0.46292338 0.29030052 0.19882564 0.2740992 -0.0034873476 -0.015397591 -0.30955455 0.04028319 0.34674552 -0.105805114 0.14987637 -0.058507673 0.20977198 -0.08969555 -0.05651562 -0.042593483 0.069644816 -0.020875411 -0.12659226 0.33870405 -0.034642998 -0.1782201 -0.28630033 -0.02376598 0.026744168 0.1386321 0.023070902 -0.12353416 0.15309599 -0.0036149463 0.17021906 -0.13957347 0.06999805 0.041965794 0.26917946 -0.06232712 0.2144259 0.15268628 -0.13097309 -0.26886252 0.191251 0.15033068 -0.031341765 0.21562457 -0.20607212 0.23940355 0.08497546 0.4534711 0.24344249 -0.19460101 0.22637679 -0.11346611 -0.13952786 0.1800105 0.08788117 0.2309261 0.017753558 0.07186961 0.057435248 0.15262784 -0.016259694 -0.0069613634 -0.11770469 0.41406077 -0.41367564 0.18214338 0.030498525 -0.21952584 0.25063452 0.20629507 -0.016047033 0.35582903 0.0039021778 -0.28384864 0.35465282 0.19203542 -0.0037482297 -0.35006484 -0.13901553 -0.23187242 -0.13063541 0.19033629 -0.12967737 0.16473283 0.3682726 -0.028308148 0.027059939 0.040645435 0.01936768 -0.40637016 0.17797574 0.025141248 -0.07958626 0.34649873 -0.029267602 0.10740853 -0.012893199 -0.150764 -0.07454606 -0.06046285 0.20161103 -0.09540949 0.49340722 -0.33392492 -0.09514777 0.17053352 0.077002965 0.009827967 0.10793922 -0.0323809 -0.06736742 -0.21244518 0.15265116 0.3696552 -0.013907821 -0.004418947 -0.27454364 0.2507336 0.09294386 -0.10597506 0.09005865 -0.088385954 0.1055359 -0.16267504 -0.11462382 -0.022406895 0.32238433 -0.037559938 -0.37179792 -0.4112446 0.13386904 0.012145263 0.060925197 0.14999951 -0.027133197 0.37428135 -0.09989394 0.22839475 -0.025348784 0.21643141 -0.017540634 0.291563 0.31068406 -0.15098363 0.35879612 0.070068836 0.07533593 0.3570281 0.17520936 0.3731552 0.19716671 0.12305373 0.053267125 0.22920427 0.26916495 0.25632426 0.07802462 -0.014773161 0.07466948 0.28969067 0.111493 0.17218706 0.12617081 0.3941648 -0.1351284 -0.17754422 0.14999348 0.030572427 0.015661674 -0.1857657 -0.09415136 0.27100104 -0.01204839 0.013847879 0.005605481 0.0440806 -0.022407124 -0.114208624 0.103524186 0.10301777 -0.0502722 0.10867731 -0.06417955 0.16964312 0.21314761 0.11698806 -0.09113014 0.20991369 0.27412704 -0.074033014 -0.14321941 -0.08456653 -0.060284812 0.12713937 -0.0048128176 0.106776506 -0.07748987 -0.15937753 0.18968377 -0.06124636 -0.1501737 -0.010609874 0.091428965 0.13962081 -0.23798141 0.15853329 0.0072363764 0.01655156 0.053562656 -0.19297045 -0.2715375 -0.07667445 -0.13814725 -0.2984665 0.09640003 0.12711096 -0.30831447 -0.18136531 0.09750352 -0.048703946 0.051499255 0.00035624433 -0.052496444 0.08874056 0.016243923 0.2724562 -0.20470034 -0.0076740063 -0.1869471 -0.16581856 0.14264472 -0.12486663 0.21345176 -0.011273313 -0.4545607 0.45192266 0.12782866 0.12418104 0.52695626 -0.20533776 0.271979 -0.040303525 -0.09568512 0.32841602 -0.14103611 0.14233589 0.14904775 0.14351436 0.27775684 0.20165068 0.15973136 0.19336222 0.022958383 -0.025384948 -0.03425339 0.08765492 -0.19700658 0.14460313 0.06720823 0.14151643 -0.1285085 0.0014576116 0.06369558 0.07686827 -0.17440529 0.093424596 0.077558935 0.16575035 0.24130209 0.24471624 0.11461977 0.09523138 0.3072233 0.13583896 0.013257787 -0.059639487 -0.35514465 -0.11725315 0.16961583 0.13162072 0.24770087 -0.098262064 0.15144195 -0.05545815 0.25818276 -0.020649899 -0.23301654 0.026335828 0.026039092 -0.22386639 -0.022007003 0.18770383 0.36260545 0.018300487 0.15077606 -0.30678466 -0.3034508 -0.016463138 0.110504046 -0.025438754 -0.056810394 0.23424357 -0.17503823 0.10665885 0.14275263 0.1461726 0.4522616 0.07346357 0.009350843 -0.09817476 -0.17826368 0.1561001 -0.031958643 -0.012410246 0.2015837 0.17270806 -0.089411296 -0.147489 -0.11868205 0.28510693 -0.0067820977 -0.09747759 0.021763045 -0.18218249 0.17807665 0.042293545 0.04602903 0.06269814 0.26212224 0.17632188 -0.015580479 0.039733678 0.25377792 0.14698325 -0.0809977 0.09535933 0.034890912 0.31450063 0.09799053 0.059303563 -0.07153661 0.38340667 -0.1358226 -0.15401424 -0.013773972 0.24540642 0.49965167 -0.15760277 -0.0472253 0.2523602 0.00859412 -0.18837228 -0.121151894 0.2956769 0.4030607 0.21334983 -0.0032379152 0.23164693 0.0817517 -0.33052942 -0.25592014 0.035066597 -0.10270407 0.08222367 0.21777058 0.07270004 0.0456954 0.11183467 0.02754902 0.02466704 -0.9949217 0.06818655 0.224335 -0.05112829 -0.056369178 -0.17731132 0.0028656253 0.15075773 0.16014157 -0.20701014 -0.04742321 0.17703082 0.36915553 0.04920712 0.15204047 -0.23012938 -0.06027845 -0.29437938 -0.06976413 -0.03545748 -0.15927938 -0.085414164 0.50263953 0.14954525 -0.15681405 -0.5579663 0.02942338 -0.15697777 0.06940171 0.16266575 -0.3361989 0.36345208 -0.23138529 0.20516899 -0.08967437 0.3622289 -0.088875435 0.20422587 -0.52159333 0.10721221 -0.13403966 -0.08778636 -0.005585167 -0.307234 0.4259021 0.072915345 -0.111852415 -0.072769046
altana 0.0063853585 -0.035159744 0.08697287 0.09832978 0.012788011 0.5104492 -0.6552717 -0.3289897 -0.13667944 -0.0033991868 -0.25929162 0.35363233 -0.04479348 -0.018484453 0.023231687 0.35106274 0.12401298 0.052543752 0.40852165 0.019481497 0.024239268 0.2100158 0.06639668 0.026479559 0.2130141 -0.39260674 -0.17914025 0.24619822 0.020262193 0.2671215 -0.47845677 -0.12746474 -0.32283854 0.11376462 -0.27178374 0.15431432 -0.072658435 0.18606387 0.1460231 -0.10576445 0.19704442 -0.24122117 0.2260037 -0.014417109 -0.5101489 0.16172425 -0.0952607 0.0478772 -0.2148219 0.3381747 0.043174695 0.07018561 0.49124673 -0.19437508 0.07504664 0.24126448 -0.18270761 -0.16156381 0.037246246 0.06259891 0.28854203 0.099637836 -0.1532181 -0.06504311 -0.064777866 -0.23330504 -0.18948998 0.1548776 0.10559732 -0.09483637 -0.049843002 -0.12573785 0.15616213 0.07010405 -0.0588906 -0.042840168 0.1072422 0.41015255 0.11982436 -0.07405201 0.024578355 -0.013940989 0.2712268 0.06368707 -0.040930796 -0.08974962 -0.009887134 0.3076494 0.20643961 -0.27634975 0.034385964 0.10666566 -0.24323861 0.46958852 0.083371095 0.2058066 0.20197296 -0.29216215 -0.03005304 -0.006969643 -0.15089501 0.43504733 0.11474952 0.118703574 0.1980917 -0.51495993 0.051366378 0.24325581 -0.007895633 -0.309445 -0.12251458 0.14363466 0.15870751 -0.14755273 -0.14228958 0.14475194 0.0174059 -0.24820088 0.14311141 0.18469383 0.27813277 0.1373445 0.101781964 -0.2429742 0.052468006 0.44830072 0.095110364 0.33123535 0.13196683 0.19231226 0.2762484 0.1581975 -0.15509437 0.020144336 -0.02015137 -0.31246015 -0.024472082 0.040917315 -0.358656 0.027362924 -0.02934392 -0.122747116 0.12093408 0.35715032 -0.37908846 -0.39473492 -0.05203177 0.0020776477 0.3540288 0.3692921 0.19988018 0.09065108 -0.14860941 0.020598348 0.18572725 0.09023986 0.31881294 -0.15026012 0.008378113 -0.2843227 -0.13111937 0.032069027 0.013035489 0.2676563 -0.13174517 0.10392934 -0.1181483 0.14298408 -0.075029574 0.10694486 -0.0316901 -0.019426988 0.15723732 -0.20259437 0.17850894 -0.18998012 -0.074896224 0.20334066 -0.008525325 0.2774135 -0.23941717 -0.13730629 0.24156855 -0.4788925 -0.33482957 0.11449997 0.0540286 -0.16806482 0.0038677624 0.029253954 0.14559552 0.20536791 0.24571252 -0.05478522 -0.1527507 0.13690768 0.09815593 0.06390336 -0.18408363 0.16652824 -0.25166875 0.11122365 0.056456663 0.21451202 -0.12635174 0.30060628 0.20760757 0.283425 -0.11777852 -0.012185612 -0.06488315 -0.4123437 -0.087645374 0.014000792 -0.16412103 -0.12035001 0.0792024 -0.22114782 0.052222315 0.30636147 -0.09733981 -0.16150157 -0.2544789 -0.071518846 -0.21656471 -0.034009594 0.12441025 -0.23069133 -0.03484627 0.28841192 0.18367691 0.28802478 0.17916632 0.14803211 0.21554737 -0.015497903 0.2578423 -0.34671563 0.22604334 -0.2121472 0.14105463 -0.08076978 0.051910844 -0.19220641 0.15144484 0.17302804 -0.008290832 0.3159905 0.22197181 0.056049265 0.17086294 -0.20684572 0.24891724 0.46711633 0.40110412 0.10698754 -0.07277621 0.19113101 0.14840229 0.48919332 0.079964876 -0.17400634 -0.11927337 0.093376994 -0.011164952 -0.09979582 0.24255429 0.6486621 0.38662905 -0.1918731 0.118844025 0.012593736 0.22427696 -0.23220651 -0.31262597 0.30373502 0.17323424 -0.008131187 0.23557045 -0.16716045 -0.054910894 -0.2974643 -0.3019338 0.026571406 -0.025256146 -0.15262568 -0.39614183 0.23322603 -0.022573613 0.032981914 -0.17749877 0.12190796 0.042413402 0.20675886 0.08815849 0.24322501 0.27118778 -0.005038491 -0.2240268 0.05081876 -0.07546142 0.4500309 -0.025045034 -0.038103547 0.13352886 0.2740885 -0.18617415 0.1045188 0.0967681 -0.12275254 -0.18441474 0.13838902 0.06939817 0.14202726 -0.106723726 -0.10454539 0.48034072 0.17712481 0.34981406 0.14761741 0.10262713 -0.3138597 0.12187409 -0.22897123 0.31780732 0.03316838 -0.07878183 0.20420553 0.45929018 -0.15861216 -0.08486826 0.25739095 0.07456067 -0.13935019 0.13620727 -0.21886544 -0.14564478 -0.10981242 -0.035400543 0.21944624 -0.10560022 -0.00033323854 0.15198627 0.3511285 0.24459668 -0.17130013 0.11275651 0.32845694 -0.053886067 -0.102451965 0.29214716 0.31691366 0.1961596 -0.19120559 -0.18321024 0.12384965 -0.10315606 -0.014278906 0.30313823 -0.06321248 0.1942186 0.15199634 -0.1210135 -0.071034506 0.030324573 -0.053651236 -0.051378533 -0.08174641 -0.17890406 0.2846744 -0.015034142 -0.19270343 -0.18783712 -0.25355506 -0.20196341 0.2582232 -0.15038024 -0.029499318 0.1079767 -0.0018265388 0.22162999 -0.39552966 0.031028971 0.15605314 0.08498553 -0.10893645 0.12136712 0.3609687 -0.10583316 -0.1612283 0.1037996 0.26042876 0.1026013 0.0807238 -0.100409485 0.23675656 -0.242736 0.25657743 0.5108754 -0.09184751 0.13439494 0.1864277 -0.2180272 -0.01602907 -0.030660475 0.09931148 0.17169209 -0.11499747 0.037276402 0.042840555 -0.10131657 0.015620619 -0.20405792 0.17103808 -0.09715031 0.17322214 -0.40740353 -0.16148536 0.2778296 0.61301804 0.086306535 0.18235043 -0.021546364 -0.19077218 0.096227534 -0.05924075 0.02143072 -0.13779692 0.043989364 -0.23213175 -0.1385985 0.2213514 -0.07351759 0.10344367 0.054309975 0.12959298 0.08757773 0.00205898 -0.009592696 -0.013144006 0.10153387 0.059926152 -0.55543685 0.21588078 -0.12816036 -0.00955854 -0.1765182 -0.088807225 -0.24203819 -0.085271776 0.35338104 -0.092497796 0.19692877 -0.23758958 0.22833712 0.028258657 -0.36643225 0.27630368 -0.046893984 -0.23885395 -0.057304155 -0.14125842 -0.033145715 0.1272646 0.30964428 0.09595756 0.20346147 0.2964416 0.14738846 0.0348269 0.18772785 -0.14367427 0.3482454 -0.019158479 -0.040308014 -0.08940363 0.3046867 -0.0075739077 -0.3531478 -0.290757 0.20453276 0.12627581 0.25812376 0.13519982 0.10403502 0.44140923 -0.28223497 0.18561792 -0.053773187 0.22013947 -0.08936509 0.27182096 0.33699504 -0.26512653 0.21878903 0.08471561 0.25417823 0.049768947 0.085080005 -0.109342895 0.12720034 0.120583504 -0.14603691 0.21288922 0.11024529 0.41735992 0.05801036 0.11717991 0.2867109 0.16190511 0.17114176 0.15297092 0.00057877135 0.21713656 -0.21557981 0.17182472 0.18149097 0.10759718 0.13122047 -0.21703124 -0.24223886 -0.32442817 0.049295437 0.20950107 -0.08627226 0.14122085 0.11412312 0.065790735 0.11665073 0.03728987 0.12899253 0.08037135 -0.07891188 0.13859175 0.10918331 0.14251506 -0.27509207 0.1189296 0.012462221 -0.031081429 -0.09017772 -0.07450087 -0.0765431 0.045612272 0.10301359 0.13297026 -0.23700896 -0.25659662 0.16060738 -0.24690272 -0.23333901 -0.45054772 0.045238778 0.098354496 -0.13922063 0.015481646 0.093036555 -0.16208456 0.05950424 -0.34421122 -0.12169659 0.10245586 0.034034096 -0.40517384 0.123775914 0.25329703 -0.23142987 -0.13768603 0.20997521 -0.2476303 0.124260575 0.039936256 -0.35727906 0.15501663 0.06241816 0.16093162 -0.21293274 -0.024951745 0.015881209 0.00026594492 0.15671794 0.23051113 0.09188735 -0.09059099 -0.32735407 0.4290573 0.21442229 0.28516746 0.55370843 -0.09461528 -0.03364403 -0.15527347 -0.14648865 0.33084965 -0.15651207 0.17392668 0.31456673 0.27442008 0.21451002 0.06815666 0.34722805 0.2610348 0.07213156 -0.17777646 -0.05160371 0.16661903 -0.18716142 0.20385781 -0.31990123 0.45322546 0.008984824 -0.10935267 -0.013997091 0.07083424 -0.00087873574 0.041693047 0.26185915 0.10648331 -0.3642984 0.15414515 0.01722908 0.17072487 0.25541362 0.33131576 -0.1156249 -0.21421634 -0.29486892 -0.33328333 0.03279499 0.24743412 0.29593554 0.03353754 -0.30635226 0.16468422 0.11454091 0.0438463 0.15304925 -0.09279167 0.06878442 -0.23949386 0.36441267 -0.04646112 0.12755099 -0.16232893 0.1246677 -0.21905738 0.0719648 0.19989909 0.24332863 0.047275685 0.05477323 0.3038501 -0.19277146 0.13472733 -0.018449478 0.07171325 0.3377713 0.15237838 0.16460684 -0.12805827 -0.15341978 0.2834522 0.16568583 0.30999255 0.16318808 0.25182158 -0.2665956 0.040062606 -0.07490761 0.2667171 -0.022111919 -0.054618955 0.013043344 0.0862566 0.37260917 0.12735185 0.20885529 0.026469402 0.17628212 0.12920547 0.22852312 0.10617519 0.18270108 0.28925064 -0.16895081 0.070253424 -0.0015311893 0.3383932 0.044685025 0.037127845 -0.02356692 0.003545148 -0.41162834 -0.31220707 0.25350672 0.49172136 0.5127251 -0.3186208 0.02367039 0.033486437 0.008344782 -0.09980022 -0.08836396 0.12016 0.2515617 0.11493069 0.0013353535 0.22965807 -0.20015304 -0.16459413 -0.30037114 -0.2621445 -0.061369725 0.09161433 0.35948047 0.102298364 0.1796733 0.22623521 0.17849731 -0.07552958 -1.1700919 -0.057681695 0.3338406 -0.012560312 -0.020553032 -0.030822987 -0.09453676 -0.054495458 0.1883166 0.09711703 0.10643684 0.34399322 0.24735777 -0.00296171 0.035064977 -0.34854984 -0.04888424 -0.23233669 -0.11757104 -0.2948601 -0.08354276 -0.348041 0.3828546 0.2158561 -0.19353788 -0.19937827 -0.15064333 0.06187636 -0.14316848 0.09411024 -0.4461755 0.11004698 -0.20135766 0.14139903 -0.104337834 0.3242012 -0.14430675 -0.0351118 -0.557042 -0.04539337 0.27455717 -0.15002336 -0.20294382 -0.21595348 0.13453151 0.26089793 0.10648658 -0.06745452
amarant -0.02371399 -0.18514335 0.25123098 0.016872814 0.293307 0.34943917 -0.42241612 -0.4750681 0.024937898 0.04625725 -0.18422164 -0.006633306 -0.23915145 -0.0907116 0.15277897 0.37400055 0.072346285 0.13228145 0.19201078 0.36865166 0.22088775 0.21379827 0.11105779 -0.11438072 0.12775864 -0.113144785 -0.01359116 0.15009038 -0.014666376 0.19754933 -0.08043499 0.073768154 0.11841054 0.45033148 -0.33152497 -0.07986784 -0.28687483 0.16556107 -0.07460989 -0.27091137 -0.24369192 -0.036501043 0.18276976 0.15746282 -0.35945472 0.24098241 0.15598331 0.45354682 -0.22044612 0.110927865 0.00934212 0.013020067 0.49634543 -0.33445793 -0.01527926 0.23501393 -0.06557827 0.017475085 0.2647453 -0.122724764 0.2146529 0.14409223 0.058120694 0.16122854 0.28116226 -0.058115233 -0.26572558 0.35496092 0.16259581 -0.06565899 -0.29385915 0.023158573 0.10010446 0.10364483 -0.29639295 0.099372715 0.12269294 0.5231653 0.41944206 -0.13458407 0.15927827 0.1252464 -0.19037981 0.21180254 -0.15661985 -0.14560768 0.007826961 0.053389676 0.12418727 -0.29685917 0.21742399 -0.19250989 -0.21139497 0.18120857 0.1611144 -0.1129269 -0.017753353 -0.36765674 -0.010891144 0.31837222 -0.19803165 0.3698017 0.053038437 -0.10001116 0.1793232 -0.6052088 0.20928705 0.18491995 0.22007 -0.070290804 0.15876693 0.05742528 0.16918841 -0.22923088 0.115544245 -0.07082056 -0.074055314 -0.09541422 0.29194123 -0.20221657 0.27028596 0.36865422 0.022447694 -0.23803607 0.11209545 0.28447178 -0.02764509 0.14976597 0.07408438 0.08832719 0.28223142 0.09719728 -0.10679584 -0.0018757461 0.065520085 -0.27946714 -0.030262904 0.079221435 -0.051237408 0.15257026 0.24534927 -0.04776024 0.16792138 0.22880526 -0.35406297 -0.34991497 0.10563136 0.12443844 0.3427506 0.47766462 0.3095748 0.2352985 -0.3312418 0.091458455 0.00094675866 0.21088152 0.1879012 -0.26828703 -0.042082522 -0.14634588 -0.034318652 0.35923994 0.26156595 0.22819822 -0.19223048 0.15614605 0.14934184 0.14891781 -0.08408732 -0.012814165 0.0014070745 -0.066063225 0.16517676 -0.26064163 0.0881711 0.034602784 -0.052180998 0.2545177 0.20759405 0.43653545 -0.13881361 -0.24640809 0.17085338 -0.10889745 -0.22370769 -0.013576963 -0.028402079 -0.13502541 0.38427952 -0.024869088 -0.015411069 0.068867855 0.052432448 0.023161389 0.1510957 0.105631135 0.18193515 0.12542123 -0.18345003 0.058677312 -0.13117367 -0.13797812 -0.08360928 -0.004118943 0.16405948 0.17010166 0.2399012 0.3379278 0.164863 0.10997016 0.039866913 -0.30393958 -0.069759175 0.03942565 0.0026046094 -0.05285027 0.18602197 -0.1582079 -0.011835363 0.26901534 -0.16061683 -0.32028267 -0.07383897 -0.37086836 -0.16838057 -0.04999559 0.20539595 -0.06253471 -0.023629852 0.4746765 0.28088626 0.24158093 0.13969445 0.09033772 0.15647355 -0.19637923 0.23363212 -0.1927314 0.21452455 -0.19545077 0.27091184 0.10869752 0.13127935 -0.3302622 0.28799805 0.13293362 0.113018714 0.28150588 0.47384235 0.053481977 0.22149539 -0.109519385 -0.21616115 0.11321748 0.0951985 -0.07908075 -0.24613094 -0.06416555 0.32429475 0.45240128 0.25979614 -0.37918574 -0.27882 -0.11664793 0.16337855 0.050152894 0.42192283 0.4257018 0.0031628662 -0.06865758 -0.007812799 0.12479351 0.2267513 -0.34473264 -0.36589903 0.12805887 0.091021 0.19585498 -0.25734043 -0.06467093 -0.0063028485 -0.07255788 -0.2923764 0.1451998 -0.23336028 -0.25690755 -0.11420896 0.22362784 0.22206222 -0.040463455 0.037740592 -0.3079556 0.083933525 -0.18988939 -0.117064714 -0.050706718 0.15118913 -0.10977954 -0.36747733 0.08344319 -0.15405561 0.22518864 0.07970171 -0.14863415 0.24512309 0.43095797 -0.33801532 -0.039151978 -0.042719424 -0.114219315 0.1350437 -0.0215718 -0.10672712 -0.03116389 -0.11250914 -0.08955153 0.18463151 0.017601447 0.3079159 -0.03583096 -0.1535482 -0.37719133 0.22959906 -0.0052322247 0.53385115 -0.07895413 0.008491078 0.1816266 0.36267292 -0.21341965 -0.20603013 0.12227154 0.08322275 -0.12860553 -0.03512711 -0.012953556 -0.016275505 -0.1571941 -0.17401789 -0.114712305 -0.20745215 -0.089703515 -0.20992324 0.26790532 0.148999 0.21269123 0.014558113 0.30107424 -0.014764842 -0.45259264 0.41052753 0.11085504 0.0039323918 -0.09117647 -0.24613868 0.03819203 -0.3686311 0.2701555 0.27742958 -0.109423 0.0976134 0.09394799 0.12238925 -0.004631962 0.15423416 -0.0817015 -0.005659834 -0.3005362 -0.24928653 0.026805473 0.071426846 -0.15891218 -0.23579144 -0.010995315 -0.042917468 0.26741102 0.0065253437 -0.034917444 0.38805187 -0.059579775 0.2017787 -0.046606824 -0.0019287427 0.17855112 0.16165604 0.042197805 0.26982415 0.48967016 -0.06816965 -0.2864104 0.15442042 0.34016412 0.10346703 0.17489687 -0.31921813 0.3056488 -0.10049592 0.4243833 0.17977256 0.03782964 0.013279369 0.0040657115 0.09261568 0.12493055 0.04562082 0.07222499 0.346527 0.08465162 0.1585448 0.26643 0.099663466 -0.13751411 -0.049419396 0.039261866 -0.13015303 0.089393474 -0.10991858 -0.45003507 0.013121456 0.40481135 0.08984775 0.1566259 -0.2453128 -0.23343883 0.2059561 0.29265797 -0.074708104 -0.26337248 -0.19153395 -0.17556311 0.058740664 0.1877265 -0.28453866 0.10257523 0.1700165 0.102834515 0.029094864 0.092641115 -0.092493266 -0.30470994 0.22561358 0.098690554 -0.2605827 0.22668691 0.2533923 -0.011276934 -0.14301431 -0.28305012 -0.41653195 -0.019899283 0.34708384 -0.06547173 0.2255994 -0.39721102 0.05811179 0.275148 -0.10645015 0.06810033 0.09504699 -0.0052148174 0.108631164 -0.25562897 -0.055184156 0.10363048 0.14914379 0.06969543 0.07760693 0.28364822 -0.08610913 -0.12417623 0.13307016 -0.14231572 0.24215867 -0.06139939 -0.0005521722 0.13705021 0.28086284 0.2631482 -0.39608863 -0.42399925 0.037761405 0.11891889 0.058147766 0.25127047 0.21744311 0.59071726 -0.42240387 0.32053533 -0.1574073 0.22105317 0.019167522 0.30824545 0.27780825 -0.19660878 0.17201453 0.0598546 0.22388963 0.324818 0.046922993 0.06478724 0.34309256 -0.20945764 -0.15550078 0.1461913 0.0686475 0.09703461 0.055016033 -0.09658805 0.2030658 0.13619776 0.088149264 -0.036140032 -0.21672934 0.13903423 -0.27353537 -0.25629094 0.1065913 0.034031253 0.07863833 -0.32460308 -0.060577754 -0.012600899 0.061424807 0.2554348 0.16681704 0.2555751 0.29526702 0.08467813 0.114880234 -0.14514573 0.26218358 0.08911315 0.20776865 0.2721978 0.24566042 0.11866711 -0.13504885 0.13387555 0.16603592 -0.17638429 -0.25260535 -0.11727756 0.17955044 0.09395828 0.04737387 0.31384388 -0.13808692 -0.13091637 0.06999763 -0.26802927 -0.03448396 -0.32687557 -0.13148603 -0.005719574 0.028645685 0.24059603 0.1669103 0.1941351 -0.07061736 -0.0645271 -0.17249316 0.072112255 0.08414071 -0.27995706 -0.09318707 0.18671878 -0.20642312 -0.13701175 0.09630973 -0.065210305 -0.12517247 -0.15225142 -0.12081242 -0.016463945 -0.045945156 0.07673166 -0.5102697 0.24523798 -0.15566365 -0.14246398 0.2256001 0.15690117 0.083025746 0.01808003 -0.28862923 0.205609 0.10964519 0.23649397 0.02950018 0.12507488 0.29468068 -0.0026343802 -0.24295016 0.20586956 -0.013298345 -0.0070285257 0.36039448 0.040267553 -0.0033558959 0.19751436 0.2870952 0.400211 0.11891727 -0.052124668 0.0011622094 0.072596826 -0.2075299 0.39812762 -0.3704285 0.070939325 -0.06551481 0.03155401 0.026612258 -0.102399744 -0.4414279 0.23339275 0.08906181 -0.19139151 -0.022735126 0.23903391 -0.09252494 0.07159128 0.40868017 0.2514712 -0.028002987 -0.03329856 -0.39588332 -0.14249307 0.07184578 0.24026012 0.08781584 0.24753946 -0.079937845 0.16441911 0.02055301 0.08560304 -0.30500618 -0.24836168 -0.17334272 -0.40400386 0.46554267 0.29059595 0.13326426 -0.25651312 0.085253626 -0.33929607 0.053186707 0.01039371 0.11668009 -0.10566725 0.12351418 0.29267165 -0.33505976 0.18998869 -0.013127003 0.32872114 0.2588692 0.14911568 -0.09973098 -0.1875333 -0.11385596 0.31273296 0.13881354 -0.16094695 0.28528672 0.409038 -0.051881693 -0.051775694 -0.22626847 0.205536 -0.14971668 0.06444822 0.065862864 -0.44093972 0.26796147 -0.1545377 0.3556014 -0.16818087 0.09318421 0.07438466 0.25399625 -0.055754777 0.12629956 -0.012390268 0.033769518 -0.028735932 -0.10323979 0.4536615 0.17757489 0.10892179 0.061698038 -0.08150704 -0.4385962 -0.38632637 -0.021689825 0.36021128 0.3181844 -0.26608127 -0.016801076 -0.06715222 -0.11308132 -0.0782246 -0.04081968 0.020210048 0.20764396 -0.17681308 -0.09667192 0.23195034 -0.08744267 -0.21636978 -0.2887283 -0.16907388 0.08519112 0.07354827 0.25995076 -0.0662804 0.13828075 0.020861188 -0.008690187 0.004107435 -0.69379556 0.04448389 0.24544272 -0.3726328 -0.14123413 -0.14906937 -0.052153125 0.15794471 0.39676452 0.0045655356 -0.10093462 0.2607517 0.18241246 0.222648 0.15763943 -0.1293619 -0.11545969 -0.25787306 0.08137937 -0.20428482 -0.27876836 -0.11947285 0.2440293 -0.05536307 0.0019304315 -0.24746537 -0.058248643 -0.2234933 0.00079524366 0.18342568 -0.30232796 -0.019386142 -0.17170165 -0.105540715 -0.00828513 0.1067226 0.12704742 -0.25870514 -0.6225519 -0.060803957 0.2944697 -0.3651628 -0.015471132 -0.35149196 0.27805534 0.18577015 -0.20608713 0.13282742
